{"hidden_layer":{"neurons":[{"weights":[-0.013001138254874513,-0.015201942408363063,-0.013481209499470577,0.006751493771565493,-0.0020189361433460514,0.03512858917046162,-0.004186012961522102,0.001793547910717663,-0.019174429554863943,0.017659077436523833,-0.005746798130335325,-0.02677095223368462,0.015715347362257555,-0.004944038183828766,0.011068660862749442,-0.0008458770682438795,0.03694578092040849,0.0006857370916146251,0.009234829104331464,0.0033046609052573258,-0.03801136301693259,-0.008328271545178925,0.0013489997660536379,0.006415264289615408,0.028170273659723234,0.001120882401086718,-0.012884311447350498,0.02731158008910316,-0.005846759526146629,-0.0038363587603458685,-0.004315018221107222,-0.006039596168053245,-0.018440851863304006,0.023444479704299154,-0.016689669193385985,0.008641456926227604,-0.005846117721457629,-0.0208762973074015,0.002069793323471387,-0.011278692816330304,-0.00782980755123334,-0.00655471039168087,0.0005745736503280937,0.015304905226580234,0.06940223312952623,0.04729012056679577,-0.03604279634172953,-0.00743242320141667,0.027001012784253996,-0.00717560161842199,-0.026445143288419758,-0.009943916418984488,-0.007226606938876357,-0.008740098757341185,0.009548244658335717,-0.04346268055699506,-0.01383417841636041,0.0013654818704850367,-0.014390067716905635,-0.014297266675520096,-0.002236224382740082,0.011235745792225974,0.025078924600387312,0.012141683011131792,-0.019031631390721518,0.01313045452127687,0.013838990961885015,-0.008113815643732512,-0.053614120366413505,-0.9419279726138335,-0.46305467745224066,-0.3022508351738529,-0.8618990758755636,-1.811891753535154,-0.40845247984227695,0.0010115892177307048,-0.004427016306010831,0.0071273225976805025,0.01059276321896343,-0.022237455788419357,-0.0018545261448779501,-0.015020452214153374,0.008173113035609827,0.019484383334382044,0.009062556567967272,0.004145504019328167,-0.026084178710915305,0.011948087041621031,0.0010988761707788656,-0.005308691756526834,0.00122916543454437,0.008503649246124127,-0.1377206322114471,-0.1764653870199464,-0.08589087386778002,-0.32710489608167204,-0.80856234554813,-1.264949520200772,-2.213479119052569,-1.727785590172743,-2.8862271236220822,-3.2424318455682433,-1.5435333342858315,0.367867977110146,0.052555732012210164,0.028861417598894403,-0.012883215476315182,-0.022305660182080602,-0.013550848797447043,-0.008715603395676976,0.009744901777643297,0.013232462728609038,0.028331665247009724,-0.016174174172508257,-0.025088096959925196,-0.005415103781912624,-0.020324672177679193,-0.00548910868428408,0.021074545447141258,-0.008791941621145079,-1.1902604221456026,-1.7005443509402691,-0.640321091548342,-1.4354434921752985,-2.103844118089572,-2.861280714311017,-2.189747210926322,-2.0214124032784464,3.0126851817410087,1.2354067386424765,1.934375363415669,-0.05385808543315159,-2.5677492404094022,-1.1905574093230562,-0.6093476868763503,-0.3581673561436833,-0.14232094932911288,-0.0002545602478071365,-0.010634708620263668,-0.0014519404633169866,0.004168821285000335,-0.014309465348915541,-0.019323174464614165,-0.00229932075449859,-0.026405923044055975,0.026048868198750914,0.04284746425241948,-0.01653873641985974,-1.7750833982340641,-2.1993147778242403,-0.9715603443721718,-1.1662740747316704,-1.8212569364026705,-1.4237989382432685,0.22304983155374225,1.081438429495433,3.8147120439852253,3.7021486571350493,2.2436532395609916,0.42184411507769903,-4.464090744252176,-6.172178393003978,-5.043757069089419,-4.607911632826613,-1.6382340835946112,0.031136602364244908,-0.0020414979518506913,-0.002060449498210505,-0.02303061342701464,0.012227716046502071,0.00882538080203383,-0.02246861566214599,0.007958701895188698,0.05313563744706643,-0.18473833610064624,-1.2372727531485816,-1.1359216022320697,-0.33519309746269843,0.8002357743988248,1.5521804264518688,1.136460156756939,1.3171155121911466,0.06828115441595198,1.59848049532397,4.4124481344208615,2.981786495516922,-0.43412410961964976,2.3341019718982348,-3.1656039884725398,-5.69915581993282,-2.5022203747451934,-2.5274412920833886,-3.281570944585588,0.019899927757021346,0.00810415854152583,0.022198399914989123,0.017101557400634508,-0.01253738654304471,-0.012202514688314056,0.01307856008866801,-1.0540607701763136,-1.1775897008622143,-0.888848607739971,-2.451153506174358,0.12840479011713316,2.317514193821729,3.7421592832071475,4.966352656020895,3.1628530630069274,1.413874475635666,-0.8625113281197381,-1.1234611773152101,1.7039822214527933,3.2451637953713734,1.2376842810549153,4.745585177829908,1.609248299355403,0.13296357556603244,-0.5624545366792876,-1.0625392247460523,-0.903568786115658,0.007830906356120939,-0.002449510120801103,-0.008268177327942022,-0.010998403586966144,0.024348647821855245,0.010024141954184605,-0.0017606548524684179,-0.9852974409274482,-1.3738482427721315,-1.165111406323998,-2.3130937237839686,-0.14744759948022118,2.3425695270809874,3.2910119705000476,3.3778198071195904,0.6665049697755233,-0.8611241405768693,-3.6706166567207665,-2.5194575586264114,2.7970850981300557,1.4004741187309064,1.330374240363121,4.271442309953352,5.0904385229322076,3.4022135562591327,0.7422782789541577,-0.5603002517706247,-0.46460436270268246,0.020246128775468924,-0.024833135753881703,-0.0350346000520272,-0.005370502191434478,-0.015510206030480558,0.00782677978631629,-0.026566158885790617,-1.1970911278766225,-1.2235814595899082,-0.20781373197067154,-1.3756372322529735,0.1795856081024705,1.441542944211149,1.7354260478741212,1.2779601642869518,-0.8633230587254282,-4.716358909109409,-5.357043904294844,-2.5540326569084635,-0.16551272996048222,-0.27825998221608955,-1.6322309367465138,3.798688449444371,7.847119263656002,6.388121887814724,2.758123616027098,1.60650706004328,0.060582384757037,-0.0037964809683090355,-0.012381404310560229,-0.0013441485512512988,-0.012045836161214562,0.03358989405708793,-0.017763049308194393,0.007977607384264927,-1.1795410371839938,-0.43059378407338467,0.6057766963056143,1.1386098821878523,2.2636638357126255,2.141006582662868,2.716441733097779,1.1085523539186128,0.28234885379169167,-1.6654159207480528,-3.486928953888871,-5.559502449833731,-2.9364167167794486,-0.1142579761862167,0.45041355015325985,4.203146534114569,7.966294869797452,7.295446087939674,5.9622019177110035,3.3326934594867947,0.6067925852620047,0.01504978052755579,-0.02758118966086735,-0.0041464038608941215,0.004261092239844035,-0.007832014893939625,-0.005919065833251832,0.008697763128053962,-1.1514714793610075,0.14601537186440283,0.9033410234316291,2.790329060774217,4.85588164676153,4.879410170361361,3.575632288341844,3.545951790175493,1.4311544583552602,-2.388670931707582,-5.193678938274742,-8.478241669340216,-6.069810517093589,-0.22253279445178684,1.4861537460434762,4.586806194038834,7.714584175274293,6.854178013823425,7.50345957511776,3.916982316422288,1.4100350366338879,0.027651323738651017,0.010514174816502202,0.0037967603874170504,0.0010504941854963057,-0.007935510728690018,-0.00797874125218479,0.0075850525865652045,-1.0641593305356956,1.021035470444232,1.8336003112300432,3.5617119147312386,5.773936061030207,6.338725434651993,3.863122634500044,2.6954963760560497,1.986025700171703,-2.7650647256756864,-7.341057597481547,-9.815074005922167,-6.0464283691255,-1.542808737768805,1.6791961730320033,6.496492568681535,6.2666414085636735,6.211464604896607,7.326300587581663,4.68016552421854,2.0120001580014892,0.001879485462333926,0.011013749121454362,0.024096905250828672,-0.027503966474745553,-0.009514610112138553,0.005787331954626607,0.013154207484823079,-0.6512200078948231,1.8577982612783863,2.956953561681762,5.79572961878625,7.0003690754079235,6.432823940760357,5.184062718923655,3.4744241058976533,2.033301355070851,-6.545220515072546,-12.110736417813524,-10.363576281070328,-6.1331576830117225,-2.2250233444177123,6.37656930286535,6.64017121438969,3.727545948813158,5.964229847778255,7.438677923197382,5.1692249512120885,2.1597221082784643,0.020841565811571143,-0.009428023436426236,0.0027342621524224344,-0.011053267029253834,-0.013476392835001122,0.006174818915208642,0.008822613025559742,-0.2502690667434777,2.3184120106122035,5.404983359350881,8.345612744022775,7.665598534600455,3.7483591630291753,6.195506442207175,4.846846979299789,-0.4262472825834332,-7.946569630605496,-13.089502833697106,-9.49858036071585,-5.1288003484134235,0.5158707821057654,9.691486200453614,4.796820561588749,5.283036167844852,6.922808698298435,7.311445605226588,5.073802912554668,2.3007007562760986,0.03763379708241499,0.013198637813341388,0.005888181990579769,0.035679377662415065,0.0410115433792439,0.00847583555699578,0.0024394792337765004,0.4364520203508943,3.6697025705707267,7.069279390457991,8.328264464570164,4.683640594284493,2.913325551534941,7.4840555946364145,3.5718881793132207,-3.197400909586845,-9.839991671670216,-12.716274146055992,-6.281514262721552,-1.678300949270715,3.5861658654306914,7.662039494399709,5.686472592934003,7.191065137024703,7.745897429292013,7.097639235172092,4.295129361877498,1.8222853697437993,-0.007756554665707964,-0.010477029408055009,-0.004350029091909949,0.013972040225497522,0.015884197441346094,0.009011281486933587,0.007709372525248715,0.7449697560707986,4.646516617760723,7.705329137679019,8.780298469536303,3.262502573448555,5.90972601530496,6.329622166574741,0.4358003672156959,-3.0554163612748138,-10.400855169536003,-9.226266285977733,-3.0627713391463467,0.7948118578404962,3.7019998366004425,4.309445122382564,6.204588245817142,7.746502696347971,7.822120319709848,6.20104124555711,2.631251192630887,-0.9168711541855484,-0.6708512765313336,-0.005078198141250025,0.011442219794628644,0.00098737396430163,0.018957418326904243,-0.022025093666368976,-0.006320901926060353,1.1237180402687512,5.208349379340503,7.28448497618745,5.6146334595147085,4.453603179704026,7.3111395138681265,3.7528350827481463,-0.052376054720207725,-3.2722740283727827,-8.448679540583548,-3.1195713169572787,-2.2965714292042874,0.9602753529040909,2.628561039672765,5.097997698119391,6.312763416428915,7.569655926396281,6.670113169051631,4.730078207849117,1.2274847521227092,-2.197478055452386,-2.795415546780093,0.012092221292148648,-0.004502786427086547,-0.016707370258398396,-0.002520090546123036,0.001023807596764235,-0.015624890140867589,1.6101069140914226,5.038533072958653,4.940054696657252,3.7277347110415717,5.040565658099183,5.3249702535889964,1.6519464996788993,1.0309220248807758,-2.707082380926095,-5.120528702531992,-1.476307490458523,-0.04383574621390977,-0.24547689038371523,3.510170923455389,4.534875828325776,6.4425418185967,5.388541937022553,4.684151190382405,2.4498940161015614,-0.12819222880355108,-2.941085941919066,-2.846650402060703,-0.0631889978542732,-0.02029257200572547,0.016083934988360426,0.004604204169234101,0.007470465166483437,-0.011227273475760536,1.7295061134905798,3.9648508255843127,1.4697869059684026,1.7397514996857955,3.2464109310953386,2.779883665572263,0.2644153633983022,0.6190670850349701,-1.3291131765818216,-3.2784729492422673,-1.2722731501978681,0.22822513305715525,0.632147493589617,2.6773772581375344,2.9008868133250694,3.0684766665259615,2.053150802301375,0.5287241482622583,-0.6896131339609827,-2.0769115396346156,-3.4324676285591695,-2.8028114852152086,0.0076712657534370185,-0.025189254162490085,-0.017169249122411596,0.016218797632211124,0.0041434330403767984,0.017591660845390385,1.6105537875789417,1.7091471665117617,-0.9134194515542912,-0.2391490148923631,0.5330630504426129,0.8327119553519373,0.6845056483534916,3.0362235334169423,1.5897601494090794,1.0325818999361172,-0.6047598249355348,-1.336126068466869,-0.8609133245348284,-1.4680672269738015,-2.9550814398141485,-2.8823462239220254,-3.4047637955499077,-2.172184032845324,-2.4298981797147743,-3.7132769855132435,-3.6516597167475813,-2.024430080645028,0.0029659768198810827,0.0016531270028120012,-0.0010017300360843076,-0.01698347818577488,-0.007271011468458218,0.0027989392709410533,-0.3168251959005533,-3.3865668293851567,-3.6038110219116213,-4.673751271105936,-3.02476907645619,-0.08019531666101073,2.4118418993406077,6.228566518784337,4.267986894835313,3.2910232625372706,-0.20876817800297812,-0.9658814435465815,-1.0044429662184597,-1.7738029311928443,-4.355745759761406,-3.8344415066626505,-4.966293698263557,-3.7871597557963628,-2.4083948025322406,-2.373277140204357,-3.014675880394394,-0.9637764949691626,0.001223226404780773,0.033228207207489875,-0.006269314202951809,-0.020701396477458424,-0.020448498671602866,0.09724057238617052,-1.7579927669694917,-4.614730074044232,-3.249648279240126,-2.803998761329898,-2.2265163957711245,-0.43999917045938625,4.503098072989094,8.228134767943708,7.4979337135277575,1.3604748255757328,0.547028862920041,1.9137094167616555,1.7799842722957235,-0.0779831222542769,-1.8800339129890022,-1.235502302005083,-2.7428163572383664,-2.323481841199482,-0.6347136680362828,-0.43206989899883813,-0.5202557017010567,-0.30666489028592947,0.004454702585945941,0.007025479748822791,0.016248088776041548,0.02786737185396884,0.003594769487110533,0.1442385229642653,-0.2575893756709522,-1.3662684038802115,-2.652810963733785,-1.2786942340347596,-1.2962894401997263,-2.474591958484191,1.318747648683379,6.846209850431716,3.4096047659326887,0.18062926410134464,1.9755776377482646,1.787874152023761,0.7028162402359496,0.25181578960291645,-1.6358798222248467,-0.8044581375284419,-1.3682784664547059,-0.8084819323347999,-0.0077596308667029195,0.023465867160983724,0.004296010175931415,-0.0005195620025232332,-0.01450502438410126,-0.014152005084989136,0.0009486940434992124,0.02473625446133088,-0.003344903600675639,-0.004341807990702217,0.0030451882575318837,-0.270376961359837,-0.7591312874947915,-2.328219080753405,-2.705399366286702,-3.326185792809484,-1.49176576074805,0.41084654371736734,-0.39684749250666995,0.10544671323071689,-0.08426587397098267,-0.6935844005800822,-0.9238630551144758,-1.2320101077323138,-0.2178656586584014,-0.19479527148432368,-0.008323633890169668,-0.037400381180624394,-0.0006134602716183449,0.019360811707269242,0.0005741890167156665,0.0266543161092658,0.05056881886876308,-0.0222547181883997,0.016058369705014296,0.006474388562999075,-0.00019603082560048864,0.01466479061850152,0.014167679550330395,0.007815091283389171,0.028283831607295123,-0.00007279849625828111,-0.009204931400629241,0.0028822665726686136,0.00959290650281414,-0.010123592813624628,-1.3950178636277053,-1.0687831485667056,-0.5070980674846717,-0.030284099008397024,0.0009488877989788934,0.017137891025733494,0.01267446213088812,-0.008456202594325524,0.02112955616229528,0.0018299917489109033,-0.0007902209019079556,-0.0013688958680304235,-0.00859278853021729,-0.01566948793846417,0.028720992584833138,0.011858352075352518,-0.03337303776282721,-0.020443277414462092,-0.005637260975251359,-0.012956735802609783,-0.007675044328051919,-0.010235259007929653,-0.010015795583401729,-0.0008794775070967734,0.0025787036861532955,0.002979202843334312,-0.0036769259182960986,0.018805648880770062,0.008090849387803686,0.0005989310790817962,-0.006996456617217237,0.007778130655064309,-0.03050274600695032,0.02688457154727521,-0.005898238948487177,0.009164147714716723,-0.02612857543104849,0.0115534574357966,-0.0027986204512014117,-0.028090857711844067,0.017932147844052906,-0.00305295003237105,0.03217591160519333,-0.018984231111945565,0.013427340872706752,-0.0265245330308528,0.027679559628465435,0.01905473499218657,-0.014349736775527555,0.0007797707125936995,-0.009431198174567234,-0.0036896911001888986,0.002015824522806166,0.008003540561972956,0.01472355899463172,0.02336207482114828,-0.010707747566852478,-0.013031666623344177,-0.021981176957955498,0.002652453620561466,-0.00634134738353296,0.0050246157924857615,-0.016186198184033912,-0.0025796102568350298,-0.010800781769786088,-0.012710052218152395,0.008491163139162513,-0.014646529665428863,-0.032306852062780514,0.007643488381065206,0.04033706861936837,0.01579354030284848],"bias":-20.98580781742467,"delta_weights":[0.0,0.0,0.0,0.0,0.0,0.0,0.0,0.0,0.0,0.0,0.0,0.0,0.0,0.0,0.0,0.0,0.0,0.0,0.0,0.0,0.0,0.0,0.0,0.0,0.0,0.0,0.0,0.0,0.0,0.0,0.0,0.0,0.0,0.0,0.0,0.0,0.0,0.0,0.0,2.5e-323,2.5e-323,2.5e-323,-2.2537293568479678e-111,-2.715207272773983e-111,-4.078176931439187e-112,2.5e-323,0.0,0.0,0.0,0.0,0.0,0.0,0.0,0.0,0.0,0.0,0.0,0.0,0.0,2.5e-323,2.5e-323,0.0,2.5e-323,2.5e-323,2.5e-323,0.0,-7.957116116812643e-183,-1.434131393146464e-182,-7.821905988247747e-23,-1.4687801244598545e-21,-2.0510791216762734e-21,-2.694276917255355e-22,-1.4499336663243836e-25,-3.3383960682604404e-25,-7.961865100035381e-26,-5.515306994764348e-134,-1.3079779434223691e-134,0.0,0.0,0.0,0.0,0.0,0.0,0.0,0.0,0.0,-2.3984863641574983e-187,-5.710681819422611e-188,2.5e-323,2.5e-323,2.5e-323,-2.5369189526697e-232,-2.514273189484854e-26,-2.234909501764312e-26,-4.5672819517060775e-35,-6.8509229275591385e-34,-1.998935091002581e-22,-1.992012934266884e-21,-2.422127241415105e-16,-8.330148491865016e-11,-1.586682821003687e-10,-8.885427735774441e-11,-2.3468316340670713e-16,-7.94584585332047e-17,-2.6675589520870893e-104,-1.7853258311729607e-42,-3.783580431201433e-42,-9.663690278826143e-43,2.5e-323,2.5e-323,0.0,0.0,0.0,0.0,-8.223381819968561e-187,-1.998738636797915e-187,-2.4176298296018292e-161,-2.4175855632674063e-47,-8.239118616838913e-32,-1.9567906714992412e-32,-6.276617314921478e-20,-1.5845349186867138e-9,-8.27479346395883e-9,-8.990063795478075e-9,-7.693393445885587e-9,-4.8262635265890425e-8,-8.015599478239267e-8,-8.697553512731647e-8,-1.37147510724705e-7,-2.7415573181148095e-7,-2.3422863719790245e-7,-1.1344977266070296e-7,-8.44170498580727e-8,-2.6312729537675907e-8,-1.0097710303677833e-9,-1.3369025924448965e-10,-2.9338546737055984e-13,1.3123822157320632e-283,0.0,0.0,0.0,0.0,-1.1421363638845222e-187,-1.2574338893197597e-148,-4.602610608937513e-86,-9.380231985477555e-47,-9.239650674712267e-15,-9.239650673378961e-15,-6.251319196831679e-20,-3.2394945334332798e-9,-8.909428692984387e-9,-8.924988508289935e-9,-9.129426230794892e-9,-5.8450946217327235e-8,-1.2083948078938667e-7,-1.930069225315586e-7,-2.720642511349934e-7,-3.493995161198863e-7,-2.8000077437746596e-7,-1.937888776438257e-7,-1.4557105054410318e-7,-4.0530624235808864e-8,-1.5412283720695604e-9,-1.336863026714345e-10,-2.914295642547561e-13,-4.692261955653481e-132,-2.7587384487781438e-11,0.0,0.0,0.0,-6.618294550968602e-245,-4.5357551836339996e-58,-3.468589274413062e-53,-6.382479070638193e-47,-1.963425768092796e-14,-3.256397589584466e-14,-1.9481547526517327e-14,-1.7606047262316582e-10,-5.634725536151537e-9,-8.990072779950892e-9,-1.4347276967557434e-8,-8.419512783040159e-8,-1.596203886777501e-7,-2.7320702827274605e-7,-3.6819757978169625e-7,-4.061091689241914e-7,-3.0570383518862575e-7,-2.184815389351174e-7,-1.292558969232379e-7,-3.6259385032271036e-8,-1.2397749194326467e-9,-4.948435394676517e-13,-2.914295642547561e-13,-6.633783045368124e-267,2.5e-323,2.5e-323,0.0,0.0,-2.1799839578983795e-145,-1.7251674494548562e-58,-5.954091968972622e-12,-8.235572683829052e-36,-4.5985431234095785e-37,-1.945566101236946e-14,-2.84406429205721e-14,-8.32662601384229e-16,-1.8864241557006925e-9,-8.499504970642736e-9,-2.1459328839570897e-8,-1.0851881556010714e-7,-1.9615234199228696e-7,-3.411423894321439e-7,-4.323578950131026e-7,-4.1070558757573167e-7,-3.083400164714947e-7,-2.0746201626122932e-7,-1.3475188831669014e-7,-4.6537812931143235e-8,-5.4509327088558e-10,-3.931365262768359e-13,-1.1539828383242095e-13,-1.4004653095777168e-266,-1.1603846057012594e-149,2.5e-323,2.5e-323,0.0,-5.147184345037841e-146,-1.7733104942911847e-58,-1.0955529222909626e-11,-1.0660259057748273e-35,-6.457843733855609e-28,-2.775882507934296e-22,-4.470187154046078e-17,-1.870710045653897e-10,-2.514461504922039e-10,-7.689461244277797e-9,-4.4301202803259945e-8,-1.1420370351931245e-7,-2.486196078474938e-7,-4.0002073617123356e-7,-4.663172052447644e-7,-4.0659345869388774e-7,-2.6652129301152045e-7,-1.7679820977490837e-7,-1.044561906181982e-7,-1.5541365121552736e-8,-3.9789144595422233e-13,-1.5647224926430014e-14,-4.855358800822618e-69,4.800895479382504e-286,0.0,0.0,0.0,-1.2293180078578956e-266,2.5e-323,-7.150797720654081e-186,-9.071671433456368e-36,-9.740550433158219e-36,-6.688790473272124e-37,-3.8168326663867924e-22,-7.078683614670686e-21,-1.2538769366101112e-10,-2.544963320469298e-10,-6.0601643885733085e-9,-4.567335324347389e-8,-1.1979326304219404e-7,-2.748486343900716e-7,-4.796671879496006e-7,-5.035450000050445e-7,-4.0762422966812506e-7,-2.5257455790515e-7,-1.468847668574786e-7,-5.265454415888426e-8,-3.945982975879648e-12,-2.1991216092347704e-14,-1.4544372121330862e-61,-8.39356547007613e-85,-1.98669396599577e-77,-2.1947204990423194e-49,0.0,0.0,-2.018509815371611e-266,2.5e-323,2.5e-323,-1.5706013646048468e-32,-2.2679422345934298e-32,-5.926711830543088e-44,-9.046706000924514e-16,-6.558861510381312e-14,-6.279562139785712e-11,-3.886362361864162e-10,-5.7690845457758706e-9,-4.54600482759532e-8,-1.3029057761746678e-7,-3.6687984322437286e-7,-5.566881817986578e-7,-5.187862967669285e-7,-3.6544225621233676e-7,-2.1163384413727486e-7,-1.0922159217893759e-7,-9.915055827656174e-9,-2.4668097755545256e-27,-8.756401762859689e-61,-6.219342011566511e-61,-2.8689225392713364e-259,-4.7266999287905566e-61,-1.772658864625163e-49,-4.7266999287905566e-61,0.0,-4.447675492097936e-97,-2.3673111490198645e-97,-3.020398881599227e-89,-1.919422297374072e-32,-2.616591767118976e-32,-2.752032476695356e-15,-6.513627982524106e-14,-1.1489316024966177e-13,-1.1523614661853897e-13,-2.7730541576361e-9,-6.317609241591227e-9,-4.717767434978522e-8,-1.5419942952629713e-7,-4.614572812621865e-7,-6.13701947801749e-7,-5.086929470157201e-7,-3.1088819686826835e-7,-1.552098447493129e-7,-6.697960791164142e-8,-4.756837824615935e-11,-7.403099991420818e-43,-1.2189910342670404e-60,-1.8906799715162227e-60,-9.826560378275109e-61,-7.09004989318583e-61,-1.6916610271460918e-60,-1.1194815620819717e-61,0.0,2.5e-323,-4.168137097328754e-130,-1.922072015563138e-89,-8.695426996124088e-36,-2.714011659385045e-15,-6.427770951310146e-14,-1.1489316024730013e-13,-3.5082068378097156e-12,-3.1189790041519607e-9,-5.845540980226266e-9,-5.8724979620904055e-9,-5.48546489610719e-8,-2.9863939678860584e-7,-5.809415238672676e-7,-6.509613524128885e-7,-4.7471032817770817e-7,-2.593720823377064e-7,-1.05667892325268e-7,-1.6756223736386773e-8,-5.279295331452951e-35,-1.917053815374771e-61,-4.8155669670163844e-89,-1.89643406857859e-27,-2.1881931560522256e-27,-3.239839390700786e-77,-5.501614059680592e-78,-2.1062072305122378e-228,-3.3787883792767874e-209,2.5e-323,-2.244381513946251e-130,-3.815448573708628e-129,-6.061715934798035e-36,-2.894945770010716e-14,-1.1489316024730013e-13,-8.006334395185866e-14,-4.7046546113499374e-12,-5.013328495625063e-9,-7.026592381250155e-9,-8.819057880198968e-9,-7.583981493658198e-8,-4.4293594312088713e-7,-6.402002941481593e-7,-6.357837098937429e-7,-4.1216821319623905e-7,-1.6701899584383688e-7,-5.325682614865512e-8,-3.3957001449194807e-29,-9.924057772354809e-58,-4.961493238744165e-89,-4.8155669670163844e-89,-1.7505545248417794e-27,-1.4301868115702823e-251,-2.5368553719638286e-77,-4.2790331575293424e-78,0.0,0.0,0.0,-2.1640958118925755e-175,-2.358495550185269e-79,-1.6557896377953546e-21,-4.885220986893082e-14,-4.387652182675945e-14,-6.785029148462613e-15,-3.6964413418470343e-10,-5.128812362457508e-9,-6.485151632118449e-9,-1.3320543337733795e-8,-1.9329728662532972e-7,-5.644665417244373e-7,-6.586137665778098e-7,-6.052034908043654e-7,-3.43961445707489e-7,-1.0135364677480515e-7,-3.026172527127221e-8,-1.4149516385146135e-30,-9.924057772362837e-58,-4.961493238744165e-89,-4.8885301028802615e-89,2.060415338804262e-278,7.475833929768245e-279,-1.5490413124992203e-139,-1.0191061266442299e-139,0.0,0.0,0.0,-2.5783051282023003e-108,-2.358495550185269e-79,-5.43099001196875e-22,-4.5921382606124985e-98,-2.1194484279750012e-99,-1.541219445715694e-10,-2.967723002467036e-9,-6.796178509380507e-9,-7.081660516868883e-9,-5.8657046769745434e-8,-3.657751895764063e-7,-6.053391659839115e-7,-6.566572508824849e-7,-5.318327300009156e-7,-2.5801535803471647e-7,-2.6732309720540627e-8,-1.8766957770165355e-9,-1.012253892783561e-57,-9.924057772362837e-58,-4.961493238744165e-89,-7.814736225082615e-69,2.041161765092858e-278,4.36163090073309e-279,-6.522279210523069e-140,-4.0764245065769025e-140,0.0,0.0,-6.867372516861691e-46,-8.732968982620734e-108,-2.7239236617527205e-116,-1.2886535956139302e-69,-3.4249321015904325e-11,-6.635805946831462e-10,-1.036041967027488e-9,-3.62443819964781e-9,-6.936370516584846e-9,-1.912081434328659e-8,-1.602831512270838e-7,-4.794246244429911e-7,-6.097201227834569e-7,-6.430687232108604e-7,-4.259147626616135e-7,-1.7485969600671287e-7,-1.1650101591995272e-8,-4.836687242478604e-16,-1.012253892783561e-57,-9.924057772362837e-58,-4.961493238744165e-89,-4.8155669670163844e-89,-1.8621381923968595e-132,-9.763914959841147e-22,-2.031471374579844e-184,-2.886858410065111e-219,2.5e-323,0.0,-4.5067132141904875e-46,-6.2562523480720626e-214,4.350063381972375e-286,-5.816504241573956e-63,-4.709281639686846e-10,-1.078853612000986e-9,-1.0446042909850817e-9,-3.286235812105213e-9,-1.6391776100318278e-8,-1.0220531876283553e-7,-3.264741809469416e-7,-5.301690283248585e-7,-6.122477883912705e-7,-5.871221920314057e-7,-2.951704250718232e-7,-7.809091025190658e-8,-1.1700836271441496e-8,-5.442532584559301e-16,-9.537455519467933e-20,-8.492254914594802e-21,-3.9445883372197955e-54,-2.427438976750643e-54,-7.871057040488327e-29,-6.437746127367782e-22,-8.392307973674103e-184,-4.0930115813936866e-219,-4.0999985829718997e-277,0.0,-1.7062506403832842e-214,-7.109377668263659e-215,2.2419557430165446e-285,3.95330427513928e-279,-2.996815588891626e-11,-3.5961787066699555e-10,-2.860913196964926e-10,-3.4737654844745444e-9,-5.905441779808043e-8,-2.172046474705883e-7,-4.2043495407847346e-7,-5.409275402984359e-7,-5.999352410037232e-7,-4.79323989643681e-7,-2.1846445628211004e-7,-5.335410347458263e-8,-3.286324194348047e-8,-5.4430103747214e-16,-1.664457801572384e-19,-6.453857366230271e-20,-3.302600840270674e-22,-1.2716595429106478e-27,-2.2889871772391644e-28,-4.577923966831553e-134,-8.492216401932113e-184,-4.29074160948034e-219,-1.6522205097863903e-166,0.0,2.5e-323,-4.914782861604838e-138,-4.371718103942992e-114,-4.2676295776586466e-114,-1.1565288335851684e-15,-6.996996197422104e-11,-6.194621485807741e-10,-3.265189226032278e-8,-1.4168568637649232e-7,-3.020898627902964e-7,-4.590448898332745e-7,-5.51193747144354e-7,-5.310195991266999e-7,-3.488418974288533e-7,-1.6529765720274618e-7,-5.862946879267752e-8,-1.8203111060923768e-8,-2.955783420012778e-14,-3.5960485570060314e-17,-2.887179507873336e-17,-4.2710173202068464e-17,-2.3551282121797043e-25,-9.99899783068531e-26,-6.0897712599628155e-105,-2.6642749262337468e-105,-4.29074160948034e-219,-7.080945041941642e-167,0.0,2.5e-323,-1.1640275198537774e-138,-4.371718103942992e-114,-3.1120358525033473e-43,-1.5541193279851378e-13,-8.244936282468633e-10,-2.5871683763423605e-8,-9.494205924761264e-8,-2.283174085566303e-7,-3.701532594616994e-7,-4.589414531933311e-7,-5.199559545903424e-7,-3.920001673271231e-7,-2.7363948557769626e-7,-1.0261020328624973e-7,-6.323938218099797e-8,-1.7083593714914338e-8,-5.469232970425682e-9,-1.0858298847515821e-9,-2.3747727571020034e-16,-2.2347777919246704e-16,-6.952615481864561e-18,-3.1024829957354603e-25,-3.43297150252327e-47,-1.0734185860618088e-55,-3.6975515252203653e-219,-1.2754357394783811e-245,-1.1138492562794656e-258,-3.480778925873337e-259,-1.2279681027678167e-36,-1.2205881794378824e-139,-3.997543785177592e-24,-2.4590653494454566e-10,-1.4696376219714473e-9,-3.7636982784410116e-8,-1.3808059006741154e-7,-2.764765728803375e-7,-4.2198537344635934e-7,-4.411645620422302e-7,-4.356670553479441e-7,-3.0957534027402e-7,-2.337287237854529e-7,-1.0615088755946876e-7,-5.5352230860858694e-8,-1.7157719158099504e-8,-9.1546424588431e-9,-2.4950981571057933e-9,-2.5036456332502407e-16,-1.9271601671829035e-16,-2.7810564802755314e-17,-1.4107866229887248e-25,-1.0734079917903082e-46,-1.001857346991025e-54,-1.3836863338293903e-157,2.5e-323,-1.0790414670207335e-258,-3.480778925873337e-259,-1.2118106277313947e-36,-1.2205881744035002e-139,-5.84003871929273e-12,-4.1396945954592824e-10,-1.9520499081117285e-9,-3.139888127713222e-8,-1.4118698910908547e-7,-2.8234178497729146e-7,-4.078789728712604e-7,-4.0872458027683066e-7,-3.582925757462968e-7,-2.3244567075222954e-7,-2.120237599103341e-7,-1.1922087993450995e-7,-3.2303459868006316e-8,-1.3503392295471384e-8,-6.099512541315776e-9,-7.161855517667868e-10,-4.178791385797367e-17,-3.7798404946987576e-17,-2.428893514973413e-21,-1.2825158012670657e-61,-1.112089359103006e-47,-1.1181443604810491e-54,-6.246263800618657e-110,2.5e-323,0.0,0.0,0.0,-1.373622778480801e-94,-5.901416834015043e-11,-7.901120674021797e-11,-1.423476188383383e-9,-7.668767739232046e-9,-6.218614132200075e-8,-2.2851253423578182e-7,-3.320042403226513e-7,-2.857517780154515e-7,-2.2265740633835056e-7,-1.9034011728874784e-7,-1.407500827697275e-7,-5.4167760956574334e-8,-2.4624709750892332e-8,-5.291729051379091e-9,-2.7097511240656522e-11,-6.403140765883962e-20,-6.403140074157795e-20,-1.6290285594402772e-11,-4.579721792635235e-11,-1.8763518582788724e-11,-3.699355552454628e-50,-7.031848581755898e-158,-3.470146555899272e-109,0.0,0.0,0.0,0.0,-1.1446856487340063e-95,-3.03629659265775e-16,-1.4883806877516514e-15,-9.660562758090623e-13,-1.3697127034196065e-9,-2.5826437934709307e-9,-9.182910115226942e-10,-2.4871564644354102e-8,-3.836321117765633e-8,-3.11030101116781e-8,-1.7452832348162696e-8,-1.0282643050666482e-8,-8.610611391273711e-9,-1.1981139496795778e-8,-3.931686160420103e-13,-5.00724146912998e-18,-4.856648487907984e-47,-7.169338043344329e-48,-1.7321424748756193e-138,-1.0338083545700315e-138,-9.820787703287059e-14,3.568243813134e-311,-3.1787103455932345e-77,-5.501614059680592e-78,0.0,0.0,0.0,0.0,0.0,0.0,-3.414460095740714e-262,-9.702063442775483e-262,-1.0520363022502467e-56,-2.3454992464597604e-27,-4.719257519985313e-27,-6.126486724189705e-63,-1.3485982121588384e-55,-1.8613687895151564e-10,-3.501585344872299e-11,-4.634048449206405e-18,-7.791762879196605e-19,-5.199999440723551e-42,-4.123511815764334e-132,3.9503187040300446e-292,0.0,0.0,0.0,0.0,0.0,0.0,0.0,0.0,0.0,0.0,0.0,0.0,0.0,0.0,0.0,0.0,0.0,0.0,0.0,-1.2714625463681107e-94,-7.216409046954129e-95,0.0,0.0,-2.1875181209382027e-172,-6.528374392174924e-172,-2.1875181209382027e-172,0.0,0.0,0.0,0.0,0.0,0.0,0.0,0.0,0.0,0.0,0.0,0.0,0.0,0.0,0.0,0.0,0.0,0.0,0.0,0.0,0.0,0.0,0.0,0.0,0.0,0.0,0.0,0.0,0.0,0.0,0.0,0.0,0.0,0.0,0.0,0.0,0.0,0.0,0.0],"delta_bias":-6.646769711291039e-7},{"weights":[-0.013001138254874513,-0.015201942408363063,-0.013481209499470577,0.006751493771565493,-0.0020189361433460514,0.03512858917046162,-0.004186012961522102,0.001793547910717663,-0.019174429554863943,0.017659077436523833,-0.005746798130335325,-0.02677095223368462,0.015715347362257555,-0.004944038183828766,0.011068660862749442,-0.0008458770682438795,0.03694578092040849,0.0006857370916146251,0.009234829104331464,0.0033046609052573258,-0.03801136301693259,-0.008328271545178925,0.0013489997660536379,0.006415264289615408,0.028170273659723234,0.001120882401086718,-0.012884311447350498,0.02731158008910316,-0.005846759526146629,-0.0038363587603458685,-0.004315018221107222,-0.006039596168053245,-0.018440851863304006,0.023444479704299154,-0.016689669193385985,0.008641456926227604,-0.005846117721457629,-0.0208762973074015,0.002069793323471387,-0.011155060792138485,-0.0075854411284164,-0.006454259372024664,0.00046487389207181017,0.024349623112559608,0.09465646705012662,0.0593145258438046,-0.03604279634172953,-0.00743242320141667,0.027001012784253996,-0.00717560161842199,-0.026445143288419758,-0.009943916418984488,-0.007226606938876357,-0.008740098757341185,0.009548244658335717,-0.04346268055699506,-0.01383417841636041,0.0013654818704850367,-0.014390067716905635,-0.014205047348694802,-0.002204424614868922,0.011235745792225974,0.026901428157547397,0.012794195952376786,-0.019007597967406323,0.01313045452127687,0.013801740597852401,-0.008100359777658531,-0.06444807469986756,-1.1989606382862483,-0.6295981759586837,-0.4170802414812349,-1.1607545373467623,-2.4223538034291527,-0.5539948215321913,0.0011614962145235271,-0.0044432226311721746,0.0071273225976805025,0.01059276321896343,-0.022237455788419357,-0.0018545261448779501,-0.015020452214153374,0.008173113035609827,0.019484383334382044,0.009062556567967272,0.004145504019328167,-0.026106410062607707,0.01220991191276368,0.0012903698771227915,-0.004985753614790328,0.001529984318673967,0.008717481828206865,-0.1834987799630207,-0.2434685885675246,-0.11624329794750808,-0.41626929745370844,-1.0157319230649446,-1.5665117301233347,-2.70596607698774,-2.151348985937781,-3.6819198834120153,-4.370938013889887,-2.249616873361483,0.31799192859630715,0.06676922203081541,0.033226598043284795,-0.011922668954431954,-0.02165795049856157,-0.013264922571920414,-0.008633750005624836,0.009744901777643297,0.013232462728609038,0.028331665247009724,-0.016174174172508257,-0.025164318737164435,-0.005309004493649397,-0.020186128046857314,-0.005223441849612538,0.0216688047233107,-0.007357129282911484,-1.5843530632160125,-2.269762385890377,-0.8137764928825257,-1.7958544347140852,-2.909019539650498,-3.9693901644651373,-2.965982560971528,-2.5876514419975485,3.759165290079804,1.7050874824736104,2.33411356446005,-0.1774967306067432,-3.205460389803955,-1.3912734234303548,-0.7142060739102383,-0.4538909758034906,-0.19756719104284493,-0.00021052566092187233,-0.010634708620263668,-0.0014519404633169866,0.004168821285000335,-0.014309465348915541,-0.01936835121468374,-0.002147257441341317,-0.026024232102004257,0.0376973279683112,0.07082491249082212,0.010420488944152572,-2.332917505845673,-2.8719224405364594,-1.5103126885322242,-1.6932879115389283,-2.5800443235417445,-1.8614187095416077,0.43932795833183613,1.873812899963275,5.60056392636443,5.089469631733696,2.9623012297035016,0.6354346853792647,-5.689069162561106,-7.8960340300940715,-6.406743286677083,-5.950377136024848,-2.168936928229442,0.031154617580227868,-0.0020480227453802693,-0.002060449498210505,-0.02303061342701464,0.012227716046502071,0.008816733204004,-0.022490369147144047,0.010662855027241435,0.08444728329304281,-0.17479896240570064,-1.4752533225621562,-1.4374911705094329,-0.5887279003926582,0.8163401717403352,1.7013784337893054,1.450425545576424,1.9093111516539474,0.3118608713031929,2.7353802873592765,6.494892241581734,4.392347541992092,-0.025176202441478654,2.9875377662248477,-4.538759233131966,-7.715949274186302,-3.4423070088422003,-3.5149500112624517,-4.3577192686176796,0.020209245202215932,0.008243542811049326,0.022277144040360977,0.017101557400634508,-0.01253738654304471,-0.012222134268828335,0.013060170079085187,-1.4125192880374633,-1.535477042124217,-1.016303925753836,-2.9982363543095283,0.03716970370673108,2.9134147916070487,4.651620234878891,6.467319669126128,4.3920967958157915,2.055202310236239,-0.8701350593927037,-0.6120255136945811,2.975118794981663,4.7719190859081655,2.0586650129477437,5.918034525706486,1.4421444805603059,-0.3636698639473132,-1.194544971259043,-1.747777832371667,-1.2435407330810484,0.01221303038825524,-0.0024476365094658363,-0.008102059584008052,-0.010811427625678651,0.024348647821855245,0.010071184052716517,-0.0017000978356313359,-1.3101336370697265,-1.8235466210882096,-1.4146336472712615,-2.928248667438708,-0.13520011690178546,3.1962991012038793,4.567739937604597,4.669537256630475,0.8645406962733094,-1.067990270089861,-4.19212067481092,-2.332136011612015,4.342132636476076,2.19932426301305,1.9760555325795468,5.354887043773755,6.136416222420855,3.754453141651521,0.25704277749130877,-1.1641813079148018,-0.6436969869130899,0.02096269336817309,-0.024833135753881703,-0.0350346000520272,-0.005370502191434478,-0.015528121569482913,0.007847002290944509,-0.026426185484624276,-1.600110777063622,-1.6238753950381803,-0.34602812787096243,-1.6102723873904892,0.6725088381411387,2.4508441645173296,2.5406744514992075,1.633687124823076,-1.310883044176571,-6.097668398268239,-5.927136429933445,-2.235760615602885,0.694300475205347,-0.07776012522876949,-1.7286244161565294,4.965241160045868,9.869589032062512,7.789399830046013,2.9293389275377395,1.7285037301077288,0.03529912491131262,-0.0032110178936422314,-0.012394350247948258,-0.0013441485512512988,-0.012045836161214562,0.0335604771844064,-0.0177090787178909,0.008134613976296133,-1.5691485784301225,-0.6299960711871817,0.6490889604074144,1.685261858651118,3.458468449509178,3.3412144868299682,3.812254982510856,1.3770771019117731,-0.16848666919243377,-2.4293112831669514,-3.942273888862712,-6.0907141245289775,-3.21960226379411,-0.08800661215938856,0.3164269939349263,5.331363630150392,9.85110161600055,8.985647947731415,7.24262198107031,4.08499266560871,0.7360151964370755,0.015928137732786767,-0.027616650437066136,-0.004154130642233483,0.004261092239844035,-0.007780693764934342,-0.005928663225809263,0.009351828451409987,-1.5251195223927723,0.0775972898551731,1.0092416768083883,3.7866613682248027,6.720167140536001,6.71681724352949,4.408727328834471,3.992131554868555,0.8508286030165466,-3.3670188385774695,-5.871891158893427,-9.844476691331073,-7.173127004821744,-0.719594825048879,1.0048051702669107,5.6334456019466845,9.52293140545769,8.57206915718569,9.380598586685206,4.925267479746038,1.8442693804976569,0.030924102867311665,0.010592306812805046,0.003752014289477732,0.0010504941854963057,-0.007930498069643408,-0.007917122259550938,0.008207323405849124,-1.4120164248248805,1.2604349619852055,2.249557098189901,4.581614143082178,7.712091348640181,8.164479209444512,4.448262059421325,2.424948459152123,1.3343739117163016,-3.56920217753213,-8.418480171564228,-11.358114160255283,-7.405276124393494,-2.8860672767826006,0.9152509935530769,7.954437031943659,7.565887227081051,7.61671226670248,9.209482302095747,5.87430432897364,2.718055145170926,0.0076332937783523186,0.011097273440352558,0.02403933491197859,-0.02752160791717525,-0.009494872767144462,0.0059385088107685256,0.0141434680157747,-0.8644466447495391,2.3168221868241705,3.6372016106261174,7.485004338773606,9.064509074423153,7.8508882473631,6.101559981808051,3.1993389161294323,1.5981070193796791,-7.948361240239296,-13.859388185998814,-11.77977471603698,-7.874194600558182,-3.812163270889305,7.128634489251114,7.991203574219891,4.513493024825415,7.517145142281777,9.517280281694399,6.535420366974157,2.8956001263384987,0.028644170607492032,-0.009421018474255728,0.0027342621524224344,-0.011053267029253834,-0.013476392835001122,0.006170666015300572,0.009175242699856836,-0.32976448642648487,2.8591542780730617,6.9094301784948655,10.692364655809454,9.812103026369615,4.700543485256017,7.009489524543409,4.824948521718954,-1.4957940138158583,-9.593446082352742,-14.527750020634668,-10.720247415508014,-6.927152515010584,-0.42445435572693596,11.457040180662002,5.842727009750169,6.576115517276931,8.960430766603658,9.510950555964035,6.3804865983539525,3.006763552383872,0.045887218728458495,0.013191825003163722,0.005888181990579769,0.035679377662415065,0.0410115433792439,0.008443772355688486,0.003542419345077395,0.5669910798659487,4.69024416059173,9.084920332216253,10.613475892081594,5.909000424495967,3.4200352394732594,8.48384120501034,3.1866058295118713,-4.712177579304689,-11.608888168203432,-14.244880265211979,-7.012237600136108,-2.8310215347197585,3.6032967877987025,9.154765185824283,7.0043851089533185,9.201253408481286,10.148094713273833,9.291309538763572,5.384227096675999,2.3686062691749448,-0.0018670347471408718,-0.010479754532125332,-0.004350029091909949,0.013972040225497522,0.01587382853479659,0.008966981331314315,0.008351920059419173,0.8994910094275849,5.914822755481061,9.857293666998299,11.236570615776502,4.092389437620202,7.079110218277868,7.133501999683256,-0.5018115845867281,-4.324774635113797,-12.038444889746255,-10.047704553374988,-3.3318525747631544,0.0941563604685092,3.6928619963525273,5.079484642991868,7.703512897322687,9.970349580377171,10.298527808183048,8.175039212199453,3.4060032567206204,-1.1328675644594948,-0.8158316804362292,-0.005158572959789755,0.011465056155917263,0.00098737396430163,0.01889373828122385,-0.022049771828052737,-0.005450148124978866,1.3162493073731723,6.567993332523873,9.270683877232107,7.220611500016454,5.526659213232782,8.965913314790367,3.9603362418438897,-0.9429732914809521,-4.389349810195066,-9.567519982527331,-2.447267755133603,-2.8715182525143024,0.30287376811484235,2.2053872635902443,5.948438701803401,8.060369222153772,9.873606833870186,8.871461835003425,6.22844612694635,1.508067502667442,-2.710739557082807,-3.40694361102325,0.011363726424303899,-0.0044585059932935765,-0.016707370258398396,-0.0025268209538550188,0.001021003260209234,-0.014752627642091844,1.831994628312396,6.375213511717628,6.344981744494893,4.884670295321131,6.331546509641574,6.804614415988832,1.44270450942236,0.5684286282378149,-3.444215337367359,-5.438665004439475,-0.8069462160692571,-0.01968777262180213,-1.0601723415907498,3.6236700800236608,5.621634478070394,8.468186539750905,7.382121134054529,6.3065686347875225,3.1577889547205484,-0.28320128773675435,-3.5945202114563126,-3.467493301314158,-0.0657474098780155,-0.02280570963691386,0.016083934988360426,0.0055306390730033225,0.008368767698877495,-0.00909575742540519,1.9328378711008918,4.912793237064369,1.7855842372124238,2.140893467712285,4.068067059139449,3.5664204944051403,-0.19481766275101184,0.19786404347956654,-1.5867287697040735,-2.9609076211750613,-0.7151420649638713,0.0009807628840574584,0.30118053660558886,3.125628690269247,3.6756542823463123,4.180076822128228,3.055974577584872,0.7510412630127277,-1.0368124724666639,-2.581291775738239,-4.164939960080797,-3.422038451068917,0.007551190689193466,-0.027133001564026437,-0.017169249122411596,0.018552700947475558,0.0057622507840836825,0.01997018522949036,1.7583773695431308,1.8853932597459084,-1.283645658518561,-0.24515070547922155,0.8888257882079943,1.2990611219026837,0.8388419898555531,3.933720239138786,2.5228516458202823,2.1674973433095257,-0.3106526356131767,-1.6322017494057028,-1.0277445726296288,-1.7321234503226632,-3.930190465306778,-3.765390434235812,-4.433095054104523,-2.9818616784389813,-3.2200227163196815,-4.642998319246628,-4.374248426604076,-2.4436405869184656,0.00293404496673401,0.0016218200742303883,-0.0010156811284981245,-0.016987837902155994,-0.0072753371727355826,0.004692038838977715,-0.5214409552236512,-4.656121891836806,-4.773824926654052,-5.660586363974741,-3.5601384562009497,0.06639389561179986,3.172909142022006,7.727060629754302,5.352378961329529,4.389291354592126,0.08744859098803896,-0.827522528577371,-1.1905929262271338,-2.2376104059779927,-5.827279405101513,-5.045738572628506,-6.473919148490604,-4.769432703180079,-3.021615961253226,-2.891119066588938,-3.5922135399867017,-1.0909705736451814,0.0014669183459751912,0.03324144367777908,-0.006282829323727962,-0.02070575619383736,-0.020463494152249993,0.16209534087209543,-2.1358824824214033,-6.06052069751537,-4.492940074516703,-3.652227805319897,-2.544536083741822,-0.4070986299838353,6.0301610665066665,10.220442499949053,9.144097964645384,1.8588889460081672,1.0086279116051267,2.8249167392155226,2.5567539855109183,-0.2604976725339007,-2.7071295164700127,-1.7893343987826917,-3.6182951651238695,-2.9480446462763568,-0.7272402580686274,-0.4779943755428535,-0.5911036871742619,-0.3271144597141252,0.004453816704914035,0.007049916309358791,0.016248088776041548,0.02786737185396884,0.003594769487110533,0.22088087405737783,-0.2850927223653086,-1.7809395693043937,-3.5442562327784874,-1.7576669424390017,-1.5137841785306754,-2.869325499112015,1.9880955309421255,8.880348344715646,4.1288867650705825,0.33253231199796995,2.896368177204532,2.719538558836564,1.120735187922731,0.05246314127334654,-2.398083216152349,-1.1904045371359036,-1.93825090070196,-1.1718665409998794,-0.006624651645653119,0.024813163085877433,0.004690586049722437,-0.0005834899245046719,-0.014596128987881417,-0.014152005084989136,0.0009486940434992124,0.02473625446133088,-0.003344903600675639,-0.004342059516299841,0.004609588133145156,-0.35976589946385423,-1.00411124739403,-3.10163284627064,-3.526897596231623,-4.1790346583759534,-1.6208167186042735,1.0263698252011182,-0.3375438560087988,0.18908546491987502,0.16153918765496675,-0.744891092721061,-1.1762600545534823,-1.6123920683470037,-0.2825020379788017,-0.24277548989475017,-0.012054061910221478,-0.03727337109258744,-0.000492731390401959,0.01948349356119507,0.0006305454847884621,0.026651963573728822,0.05056481532724806,-0.0222547181883997,0.016058369705014296,0.006474388562999075,-0.00019603082560048864,0.01466479061850152,0.014167679550330395,0.007776896109957047,0.028183205909879248,0.00018609826826474206,-0.006773094025397098,0.006070221874053298,0.013081925844749839,-0.007401815203309655,-1.8369825186512563,-1.3606404093677946,-0.6226944592544824,-0.04041358942850324,0.004276021209709321,0.017481939201340817,0.012685528417598084,-0.008456202594325524,0.02112955616229528,0.0018299917489109033,-0.0007902209019079556,-0.0013688958680304235,-0.00859278853021729,-0.01566948793846417,0.028720992584833138,0.011858352075352518,-0.03337303776282721,-0.020443277414462092,-0.005637260975251359,-0.012956735802609783,-0.007675044328051919,-0.010235259007929653,-0.010015795583401729,-0.0008794775070967734,0.0025787036861532955,0.002979202843334312,-0.003695547350962295,0.018795079959527308,0.008090849387803686,0.0005989310790817962,-0.0070582881454961015,0.007593602187856953,-0.03056457753523064,0.02688457154727521,-0.005898238948487177,0.009164147714716723,-0.02612857543104849,0.0115534574357966,-0.0027986204512014117,-0.028090857711844067,0.017932147844052906,-0.00305295003237105,0.03217591160519333,-0.018984231111945565,0.013427340872706752,-0.0265245330308528,0.027679559628465435,0.01905473499218657,-0.014349736775527555,0.0007797707125936995,-0.009431198174567234,-0.0036896911001888986,0.002015824522806166,0.008003540561972956,0.01472355899463172,0.02336207482114828,-0.010707747566852478,-0.013031666623344177,-0.021981176957955498,0.002652453620561466,-0.00634134738353296,0.0050246157924857615,-0.016186198184033912,-0.0025796102568350298,-0.010800781769786088,-0.012710052218152395,0.008491163139162513,-0.014646529665428863,-0.032306852062780514,0.007643488381065206,0.04033706861936837,0.01579354030284848],"bias":-24.21579896133748,"delta_weights":[0.0,0.0,0.0,0.0,0.0,0.0,0.0,0.0,0.0,0.0,0.0,0.0,0.0,0.0,0.0,0.0,0.0,0.0,0.0,0.0,0.0,0.0,0.0,0.0,0.0,0.0,0.0,0.0,0.0,0.0,0.0,0.0,0.0,0.0,0.0,0.0,0.0,0.0,0.0,2.5e-323,2.5e-323,2.5e-323,-3.208742875531814e-111,-3.8657711786168995e-111,-5.806296631914717e-112,2.5e-323,0.0,0.0,0.0,0.0,0.0,0.0,0.0,0.0,0.0,0.0,0.0,0.0,0.0,2.5e-323,2.5e-323,0.0,2.5e-323,2.5e-323,2.5e-323,0.0,-1.1149348447057655e-182,-2.0094755922022406e-182,-1.1116769120354154e-22,-2.0874822014887213e-21,-2.9150661115122108e-21,-3.829201700497145e-22,-2.0643463330819196e-25,-4.753049049626826e-25,-1.1335723674842198e-25,-7.850046277057183e-134,-1.86167105384756e-134,0.0,0.0,0.0,0.0,0.0,0.0,0.0,0.0,0.0,-3.36070956520154e-187,-8.001689440956053e-188,2.5e-323,2.5e-323,2.5e-323,-3.608876055875595e-232,-3.5797022131080586e-26,-3.1819575227627197e-26,-6.50266903531534e-35,-9.754003552972997e-34,-2.840957178044243e-22,-2.831120295599051e-21,-3.4577208216289046e-16,-1.1891850975857735e-10,-2.2650971555939575e-10,-1.2684549692297856e-10,-3.35013970425074e-16,-1.1342870551902518e-16,-3.797932506737278e-104,-2.5418577314043205e-42,-5.3868728069210814e-42,-1.3758679463564663e-42,2.5e-323,2.5e-323,0.0,0.0,0.0,0.0,-1.1522432794976716e-186,-2.8005913043346066e-187,-3.411399139271552e-161,-3.4420372445221493e-47,-1.1730448002602327e-31,-2.785981400618058e-32,-8.920545493885618e-20,-2.262030943382205e-9,-1.1812828259466996e-8,-1.2833925114106834e-8,-1.0982840342649173e-8,-6.889818187973027e-8,-1.1442811334673251e-7,-1.241634692521011e-7,-1.9578736450678098e-7,-3.913758840550808e-7,-3.343772504898069e-7,-1.619572372368225e-7,-1.2051105890917622e-7,-3.7563204393335355e-8,-1.4415165329649878e-9,-1.9085189925215521e-10,-4.1882759334161266e-13,2.0332311120304286e-283,0.0,0.0,0.0,0.0,-1.6003378881912106e-187,-1.774307352815757e-148,-6.552961372072274e-86,-1.3355104508745947e-46,-1.3190225922146265e-14,-1.3190225920250917e-14,-8.884590961215485e-20,-4.62459791142602e-9,-1.2718813043234434e-8,-1.274102573255523e-8,-1.3032874422630316e-8,-8.344268589617659e-8,-1.7250654599590075e-7,-2.7553045878786637e-7,-3.8839015282376603e-7,-4.987914837615353e-7,-3.9972007740679985e-7,-2.766467533206426e-7,-2.0781253870874937e-7,-5.7860212548583666e-8,-2.2002078763443777e-9,-1.9084625097649492e-10,-4.1603540938600204e-13,-6.680595424810935e-132,-3.9382859075949203e-11,0.0,0.0,0.0,-9.414802896981725e-245,-6.457779702656332e-58,-4.938403239143271e-53,-9.087054045695031e-47,-2.802923008052987e-14,-4.6487273830473625e-14,-2.7811217120228567e-14,-2.5133825217079846e-10,-8.043952436620003e-9,-1.2833937937054094e-8,-2.0481709859603347e-8,-1.2019424949108599e-7,-2.2786891943166854e-7,-3.900215435768595e-7,-5.256269928304277e-7,-5.797483557207022e-7,-4.364129384249269e-7,-3.1189720067496984e-7,-1.845215513545012e-7,-5.176272899482794e-8,-1.76986263300108e-9,-7.064226134931108e-13,-4.16035409386002e-13,-1.027325795496488e-266,2.5e-323,2.5e-323,0.0,0.0,-3.0760756410637974e-145,-2.4562064763311235e-58,-8.499869294570867e-12,-1.1725406720555402e-35,-6.5471814182229855e-37,-2.7774263942279057e-14,-4.060092644431156e-14,-1.18866697729494e-15,-2.6929982763757374e-9,-1.2133619149536822e-8,-3.063464575465935e-8,-1.5491796138999988e-7,-2.800207575684878e-7,-4.870038749695521e-7,-6.172201905457269e-7,-5.863100550082618e-7,-4.401762658395516e-7,-2.9616608535297633e-7,-1.9236745105565876e-7,-6.643588080796936e-8,-7.781573595928769e-10,-5.612289750781674e-13,-1.647388533810352e-13,-2.1687989016037183e-266,-1.637365532443086e-149,2.5e-323,2.5e-323,0.0,-7.262956374733928e-146,-2.5247500947950268e-58,-1.5639759502010382e-11,-1.5177556922546314e-35,-9.194358024300025e-28,-3.961055739284449e-22,-6.381290580824804e-17,-2.6705652533369767e-10,-3.589563960531787e-10,-1.0977226551114874e-8,-6.324296800119376e-8,-1.6303352382059005e-7,-3.5492133490417885e-7,-5.710567047634125e-7,-6.656994073792802e-7,-5.804397122587479e-7,-3.8047720443332183e-7,-2.5239142391334634e-7,-1.4911828978532378e-7,-2.2186351312092913e-8,-5.677227588719311e-13,-2.2337471644886242e-14,-6.91281368957829e-69,7.437882179291395e-286,0.0,0.0,0.0,-1.903755447374461e-266,2.5e-323,-1.0019550621023888e-185,-1.291580334193158e-35,-1.3868120639032493e-35,-9.523173649075516e-37,-5.446443409358372e-22,-1.0100952630064507e-20,-1.7899928720164175e-10,-3.633100924596048e-10,-8.651294458870051e-9,-6.520180560522038e-8,-1.7101299897427198e-7,-3.9236504807470364e-7,-6.847574119335063e-7,-7.188446070418096e-7,-5.819112075493288e-7,-3.6056729520584694e-7,-2.0968795735474078e-7,-7.516792948633783e-8,-5.633140144503786e-12,-3.139394438389268e-14,-2.0707542915070475e-61,-1.1950329240776434e-84,-2.8285536777571673e-77,-3.12473300055574e-49,0.0,0.0,-3.125919438281519e-266,2.5e-323,2.5e-323,-2.2361442512260005e-32,-3.228983562171994e-32,-8.438156033264136e-44,-1.2855948349429269e-15,-9.320562069703835e-14,-8.964427177235263e-11,-5.548037986012601e-10,-8.235758469017433e-9,-6.489729874884493e-8,-1.8599862726009626e-7,-5.237458348880043e-7,-7.947100994020002e-7,-7.406025909180753e-7,-5.216935821801145e-7,-3.021216524397155e-7,-1.5592122357127676e-7,-1.4154414063763674e-8,-3.512121587925097e-27,-1.2466922872757398e-60,-8.854785289767568e-61,-4.0893033922448244e-259,-6.729636820223351e-61,-2.523822808161191e-49,-6.729636820223351e-61,0.0,-6.332371363755381e-97,-3.3704557258698037e-97,-4.300289118935087e-89,-2.732778178090845e-32,-3.7253734577294576e-32,-3.911057976235143e-15,-9.256282331008565e-14,-1.6327053556420332e-13,-1.637601685143169e-13,-3.95872215969486e-9,-9.018815163071256e-9,-6.734932663942509e-8,-2.201301333502811e-7,-6.587615362549998e-7,-8.761011134281436e-7,-7.261936497587129e-7,-4.4381396604539704e-7,-2.2157257015260675e-7,-9.561792896108507e-8,-6.790708153653058e-11,-1.054016391286943e-42,-1.7355379167944433e-60,-2.6918547280893403e-60,-1.3990560757832748e-60,-1.0094455230335026e-60,-2.4085015988167798e-60,-1.5938613521581652e-61,0.0,2.5e-323,-5.934375172657538e-130,-2.7365476211405094e-89,-1.2380124862312305e-35,-3.856784304586909e-15,-9.134303536876367e-14,-1.6327053556084568e-13,-5.007676138060882e-12,-4.452553535443838e-9,-8.34490572725634e-9,-8.383388656176189e-9,-7.830872805643412e-8,-4.263279741572465e-7,-8.293333885787215e-7,-9.292914381601228e-7,-6.776811587403887e-7,-3.702712221608958e-7,-1.5084807640137597e-7,-2.392064488436245e-8,-7.516398181491774e-35,-2.7294044611552103e-61,-6.856157391428719e-89,-2.700048925197183e-27,-3.1154410675352168e-27,-4.612718305265532e-77,-7.832917876866e-78,-2.9961705780274335e-228,-4.737037582934303e-209,2.5e-323,-3.195432785277126e-130,-5.4322357349711026e-129,-8.630375504977329e-36,-4.113903258226031e-14,-1.6327053556084568e-13,-1.1377513698531361e-13,-6.7161717347527945e-12,-7.156866041409111e-9,-1.003093661664757e-8,-1.2589802545666113e-8,-1.0826647441609532e-7,-6.323210718307547e-7,-9.139292984351619e-7,-9.076243249792033e-7,-5.88398051861874e-7,-2.3843093358467153e-7,-7.602772824448447e-8,-4.834629536240088e-29,-1.4129373523025744e-57,-7.063919736623522e-89,-6.856157391428719e-89,-2.4923528540281754e-27,-2.0345004812919e-251,-3.611845465443781e-77,-6.092269459784655e-78,0.0,0.0,0.0,-3.0322877042806456e-175,-3.357905711084544e-79,-2.3532662594771892e-21,-6.942211748256428e-14,-6.235134625753743e-14,-9.64196076146726e-15,-5.276920420561728e-10,-7.321727084445732e-9,-9.257993261298622e-9,-1.9015978040043856e-8,-2.759449743917396e-7,-8.058142358271046e-7,-9.402157780092283e-7,-8.639689899316682e-7,-4.910282698329388e-7,-1.4468919859525575e-7,-4.3200663563542117e-8,-2.0145380015701956e-30,-1.412937352303719e-57,-7.063919736623522e-89,-6.960038564026139e-89,3.1921137581469336e-278,1.1581992761331543e-278,-2.1852819597207738e-139,-1.4376854998162988e-139,0.0,0.0,0.0,-3.6708572942411756e-108,-3.357905711084544e-79,-7.7187133310851645e-22,-6.538049885058532e-98,-3.0175614854116303e-99,-2.200195136828928e-10,-4.236625618082779e-9,-9.702005192757914e-9,-1.0109550091016681e-8,-8.373690888391934e-8,-5.221688682723765e-7,-8.641626763115209e-7,-9.374227188379235e-7,-7.592272573688072e-7,-3.683344061930647e-7,-3.816218354921142e-8,-2.67911039926624e-9,-1.441196099353433e-57,-1.412937352303719e-57,-7.063919736623522e-89,-1.11262252836736e-68,3.162285026330684e-278,6.757289791925202e-279,-9.201187198824327e-140,-5.750741999265191e-140,0.0,0.0,-9.77742136811283e-46,-1.2433548899849161e-107,-3.878180867545454e-116,-1.8347196336049205e-69,-4.8893225262865054e-11,-9.4730623946801e-10,-1.479020073187826e-9,-5.174131038074296e-9,-9.902138777571581e-9,-2.72962579932145e-8,-2.2881505923348855e-7,-6.844111371428307e-7,-8.704167889373479e-7,-9.180241749720161e-7,-6.080221822013558e-7,-2.4962406448756525e-7,-1.6631309392439064e-8,-6.904689607346364e-16,-1.441196099353433e-57,-1.412937352303719e-57,-7.063919736623522e-89,-6.856157391428719e-89,-2.6351367881583265e-132,-1.3876819346981378e-21,-2.8469056810203466e-184,-4.106682106708176e-219,2.5e-323,0.0,-6.416432772824045e-46,-8.899794281236922e-214,6.739426552450993e-286,-8.281244812467402e-63,-6.722818473643945e-10,-1.5401365957802491e-9,-1.4912433705173843e-9,-4.691324224595339e-9,-2.3400371002627245e-8,-1.459050181661424e-7,-4.66064015606279e-7,-7.568522119224188e-7,-8.740252028628669e-7,-8.381567109217803e-7,-4.213757811618086e-7,-1.1148006555340303e-7,-1.6703736591779605e-8,-7.76956576332681e-16,-1.355496132705706e-19,-1.2069486113133095e-20,-5.61611028885496e-54,-3.456067870064589e-54,-1.1206420874380577e-28,-9.149551217789917e-22,-1.176098740355952e-183,-5.822487644442422e-219,-6.349367074704654e-277,0.0,-2.4272166221555373e-214,-1.011340259231476e-214,3.473396761647811e-285,6.1246837515088414e-279,-4.278157210500693e-11,-5.13378865260083e-10,-4.084147340396401e-10,-4.959035528919702e-9,-8.430418300832438e-8,-3.1007435247760666e-7,-6.001993858032998e-7,-7.722107166817269e-7,-8.564482069448649e-7,-6.842674726400123e-7,-3.1187281319276123e-7,-7.616659779045347e-8,-4.691450467665138e-8,-7.770244815233966e-16,-2.365584948799763e-19,-9.17244517692527e-20,-4.693773033502733e-22,-1.8105258747819886e-27,-3.2589465746075795e-28,-6.515850334695702e-134,-1.1900999158363831e-183,-6.103767240792262e-219,-2.328914542213701e-166,0.0,2.5e-323,-6.944256972961138e-138,-6.2242250682946806e-114,-6.076029233335285e-114,-1.6510214654238034e-15,-9.988685921549013e-11,-8.843241676466456e-10,-4.6612788774854034e-8,-2.022659182501993e-7,-4.312537491864464e-7,-6.553176851876744e-7,-7.868664225391883e-7,-7.580664582890541e-7,-4.979954443224716e-7,-2.3597360510384138e-7,-8.369753914435785e-8,-2.5986174386617877e-8,-4.206929927449755e-14,-5.133310406359105e-17,-4.121469731243284e-17,-6.096970823484717e-17,-3.353119070095759e-25,-1.4236095664298963e-25,-8.670301519838778e-105,-3.793256914929464e-105,-6.103767240792262e-219,-9.981062323772972e-167,0.0,2.5e-323,-1.6446924409644706e-138,-6.2242250682946806e-114,-4.430761183181836e-43,-2.218610452702509e-13,-1.1770204900019197e-9,-3.693358171863912e-8,-1.355362232361061e-7,-3.25938571981646e-7,-5.284188598593691e-7,-6.551700223801575e-7,-7.422723569901365e-7,-5.596067990133253e-7,-3.906389055827507e-7,-1.464830169631853e-7,-9.027850258568767e-8,-2.4387987040281008e-8,-7.807699905509335e-9,-1.5500957169776138e-9,-3.390034609807736e-16,-3.190194630273373e-16,-9.92501224576329e-18,-4.417167243988354e-25,-4.887692891042159e-47,-1.52827938869613e-55,-5.2599284517426426e-219,-1.8143609985792577e-245,-1.5853894385839447e-258,-4.95434199557478e-259,-1.748319848174797e-36,-1.7212813485258725e-139,-5.6816509508336045e-24,-3.5104823159112344e-10,-2.098006828233029e-9,-5.372934271330489e-8,-1.9711939874634524e-7,-3.946890419208983e-7,-6.024127144541426e-7,-6.297923053960213e-7,-6.219442412711237e-7,-4.4193977317306606e-7,-3.3366358867455653e-7,-1.5153758334554316e-7,-7.901905903946335e-8,-2.4493805842599635e-8,-1.3068871831368078e-8,-3.56192164269935e-9,-3.574005407397839e-16,-2.7510622291560564e-16,-3.970019578524281e-17,-2.0086106862439684e-25,-1.5282645389876106e-46,-1.4263940961163916e-54,-1.9524559648649568e-157,2.5e-323,-1.535846018628182e-258,-4.95434199557478e-259,-1.7253156396461788e-36,-1.721281341422086e-139,-8.337050619884959e-12,-5.909694367389082e-10,-2.7866829344558997e-9,-4.482402989250939e-8,-2.0155399329265458e-7,-4.0306202900659946e-7,-5.822748712620017e-7,-5.834820327267273e-7,-5.114869282487499e-7,-3.3183194353162237e-7,-3.026782819440804e-7,-1.7019588294746897e-7,-4.611537696791018e-8,-1.9277007053416005e-8,-8.707467349375407e-9,-1.0224033911309043e-9,-5.965276323779824e-17,-5.39577589593949e-17,-3.465918533228056e-21,-1.8259812278875598e-61,-1.5833371324801893e-47,-1.5919576965584713e-54,-8.893106590232213e-110,2.5e-323,0.0,0.0,0.0,-1.955693511028517e-94,-8.424672034451501e-11,-1.1279384635036144e-10,-2.0321086226598112e-9,-1.0947685135252175e-8,-8.877492973165686e-8,-3.2621712592314645e-7,-4.7395854924018643e-7,-4.079300247971609e-7,-3.178585335736304e-7,-2.717234134707098e-7,-2.009302791615996e-7,-7.732814845544935e-8,-3.5153441438398e-8,-7.554301712119582e-9,-3.868353177785789e-11,-9.100364942461368e-20,-9.100363957615916e-20,-2.3255485478045583e-11,-6.537862889241603e-11,-2.678619299598213e-11,-5.26695684043067e-50,-9.922317198494042e-158,-4.94061477235123e-109,0.0,0.0,0.0,0.0,-1.6297445925237594e-95,-4.3344955596532983e-16,-2.1247527325350684e-15,-1.379110708550911e-12,-1.955357658488469e-9,-3.6868989443743755e-9,-1.310922605395582e-9,-3.550584365018892e-8,-5.4766083153933295e-8,-4.4401654369950856e-8,-2.491510056569793e-8,-1.4679169485575902e-8,-1.2292231095086193e-8,-1.7103888374357904e-8,-5.612747769413576e-13,-7.145183446732556e-18,-6.914652836685675e-47,-1.0207344377917607e-47,-2.445194681241998e-138,-1.4593849678558975e-138,-1.401983799328723e-13,5.2386893545503e-311,-4.5256858844114605e-77,-7.832917876866e-78,0.0,0.0,0.0,0.0,0.0,0.0,-5.287727241531852e-262,-1.5024883503377014e-261,-1.4978363183662862e-56,-3.339405662871336e-27,-6.719045128909796e-27,-8.72258223050637e-63,-1.9200662637163752e-55,-2.6572299903336347e-10,-4.998750189897457e-11,-6.605075561376561e-18,-1.1105879262491567e-18,-7.403499494944101e-42,-5.870818525862628e-132,6.063739207367111e-292,0.0,0.0,0.0,0.0,0.0,0.0,0.0,0.0,0.0,0.0,0.0,0.0,0.0,0.0,0.0,0.0,0.0,0.0,0.0,-1.8102429938019206e-94,-1.0274352126983939e-94,0.0,0.0,-3.0610565067049506e-172,-9.135340512197551e-172,-3.0610565067049506e-172,0.0,0.0,0.0,0.0,0.0,0.0,0.0,0.0,0.0,0.0,0.0,0.0,0.0,0.0,0.0,0.0,0.0,0.0,0.0,0.0,0.0,0.0,0.0,0.0,0.0,0.0,0.0,0.0,0.0,0.0,0.0,0.0,0.0,0.0,0.0,0.0,0.0,0.0,0.0],"delta_bias":-9.488714125994735e-7},{"weights":[-0.013001138254874513,-0.015201942408363063,-0.013481209499470577,0.006751493771565493,-0.0020189361433460514,0.03512858917046162,-0.004186012961522102,0.001793547910717663,-0.019174429554863943,0.017659077436523833,-0.005746798130335325,-0.02677095223368462,0.015715347362257555,-0.004944038183828766,0.011068660862749442,-0.0008458770682438795,0.03694578092040849,0.0006857370916146251,0.009234829104331464,0.0033046609052573258,-0.03801136301693259,-0.008328271545178925,0.0013489997660536379,0.006415264289615408,0.028170273659723234,0.001120882401086718,-0.012884311447350498,0.02731158008910316,-0.005846759526146629,-0.0038363587603458685,-0.004315018221107222,-0.006039596168053245,-0.018440851863304006,0.023444479704299154,-0.016689669193385985,0.008641456926227604,-0.005846117721457629,-0.0208762973074015,0.002069793323471387,-0.011204212926880567,-0.007682593394742033,-0.0064941954815028735,0.00004469545553658358,0.0339738794729731,0.12306635926757722,0.07287859515789247,-0.03604279634172953,-0.00743242320141667,0.027001012784253996,-0.00717560161842199,-0.026445143288419758,-0.009943916418984488,-0.007226606938876357,-0.008740098757341185,0.009548244658335717,-0.04346268055699506,-0.01383417841636041,0.0013654818704850367,-0.014390067716905635,-0.014236030987697466,-0.0022151086283183196,0.011235745792225974,0.026366313387197166,0.012590306366505611,-0.01901776536117742,0.01313045452127687,0.013669223594152211,-0.008404523389675296,-0.06718484384474614,-1.3442099396626277,-0.632269480120722,-0.39814311722153234,-1.241115606987184,-2.6379041404729966,-0.6055653961826997,0.0008182580069839478,-0.004506672393137579,0.0071273225976805025,0.01059276321896343,-0.022237455788419357,-0.0018545261448779501,-0.015020452214153374,0.008173113035609827,0.019484383334382044,0.009062556567967272,0.004145504019328167,-0.02618198831188628,0.012102171378531743,0.0012199115828231404,-0.00511644951807055,0.001409254767192842,0.008547718973376054,-0.19986291566161263,-0.26136809948868106,-0.14419501002290083,-0.7916001306767156,-1.4968472081889352,-1.9859846406561463,-3.2907519597674946,-2.5836360002457694,-4.138866190776626,-4.769157576904377,-2.3586962274642813,0.3815178306236323,0.05353497778600556,0.01956835742866155,-0.01633097070389849,-0.022038601454608592,-0.013377745487899382,-0.008666048330590537,0.009744901777643297,0.013232462728609038,0.028331665247009724,-0.016174174172508257,-0.025423444163264832,-0.0054216973379567065,-0.020419764165158023,-0.006344469834836151,0.020243776930375948,-0.00957818428903123,-1.754500559938344,-2.5566833614290947,-1.0537574171324826,-2.5669334466485707,-3.820696439762116,-5.037277997661096,-3.7454041279192016,-3.3502827736581393,3.378123505545653,1.4014752616811672,2.5911086233794802,0.44316317549684736,-2.949176328638467,-1.3846080705917923,-0.8896283770248319,-0.58272630202992,-0.26852460207767737,-0.00023134637675301993,-0.010634708620263668,-0.0014519404633169866,0.004168821285000335,-0.014309465348915541,-0.019634078075026578,-0.002513364053681753,-0.02651808867599316,0.014663445917504023,0.017462279473597554,-0.04909136295786815,-2.5858738605783578,-3.1421294863802416,-1.5084591610036835,-2.2603987341494522,-3.4360205367779395,-2.4792442868795943,0.48624547859687633,2.0359843563916646,5.08419067222942,4.710528480978092,3.141753699027359,0.8837719929450767,-5.4905568811249506,-8.205377777950016,-7.139452018445173,-6.863467256662009,-2.6136080118392697,0.03098264727914932,-0.0020772551420099434,-0.002060449498210505,-0.02303061342701464,0.012227716046502071,0.008759298899546637,-0.02258788647043465,0.009713482629871982,0.028805989083256614,-0.2515453761751549,-1.5531568190925906,-1.354514733035952,-0.3896016461859054,1.1903641727203216,1.7684504367870013,1.105861181881392,1.4769741141845627,0.3075943573853663,2.773323388704395,5.940697221016997,3.5544486837209095,-0.11147138414813337,3.6608984353743543,-4.038006539785532,-7.794072694540724,-3.875197442747781,-4.2579410485026,-5.2914802383504975,0.020036813346862737,0.008194815449074244,0.022246002577111457,0.017101557400634508,-0.01253738654304471,-0.012303672939557546,0.012867088902567936,-1.397120376077594,-1.5756437137880623,-1.1290014119328757,-3.287268760214046,0.3219746175141034,3.2895600990856577,5.415746449050114,6.799609162779196,3.8613414128917354,1.5974777346669284,-1.1724569775278002,-1.259320944950677,2.677609189228893,4.979924282463999,1.8345374882785372,7.121256811963454,2.5597076722041083,-0.06944355920322076,-1.4201099060248243,-2.307516040546288,-1.7707423657671908,0.010755833085927806,-0.002492609383333964,-0.008167755273601737,-0.01087368063354416,0.024348647821855245,0.010031478413030611,-0.001811666738438273,-1.3214786993558794,-1.8711230129645602,-1.6881814937449622,-3.31028014226835,-0.2749388898744205,3.297898708490674,4.574517788550424,4.530473737544488,0.5001072993951003,-1.1493808955562825,-5.019242513575928,-2.514283856360308,4.343019511027938,1.9414022052090687,2.0090713533235647,6.455281984343194,7.349992911360225,3.9800392614271134,0.23022312410099505,-1.4331622764255372,-0.9713069830751955,0.020726547960720192,-0.024833135753881703,-0.0350346000520272,-0.005370502191434478,-0.016026892275230922,0.007838699220473077,-0.026563192994206702,-1.6085541889121449,-1.6759656362168438,-0.6247007047893837,-2.03354602501698,0.41089374278559987,2.3123406590249815,2.579234795131535,1.5751446497387729,-1.3006946447919492,-6.419373527681744,-7.08811242477036,-2.8534535099923377,-0.16570140534768849,-0.7029194643569181,-2.0205717753522014,5.747332798665686,10.764166808631467,8.031182729365979,3.0025454165798964,2.1318165716545123,-0.08982879099205864,-0.00349553317182054,-0.012439266292257405,-0.0013441485512512988,-0.012045836161214562,0.03274150800089299,-0.017733396766366212,0.008074433022829779,-1.600605288546914,-0.690418350292706,0.20891945691307087,1.4053730579136616,3.68145418404679,3.5549325242857095,4.262405839801928,1.4967503097380044,0.5115643653611006,-2.0112865018686925,-4.694325420257306,-7.393094108413015,-4.619792037530163,-0.519847893552515,1.0960910010882445,6.289136557400824,10.753694148609542,9.8157961463094,8.16044428341373,4.7346760508167,0.7571503825730301,0.0149960484769771,-0.02774144075133251,-0.004181509562158307,0.004261092239844035,-0.007856360683115838,-0.00596133532064771,0.009014140359904287,-1.577241971874357,-0.0074295177009911255,0.6798056526292651,3.815285880267617,6.945246743169505,7.311868951604071,4.996304057811531,4.329335085704409,1.1771865833800157,-3.5012813163018857,-6.459098244977507,-11.621197634164284,-9.243391202863913,-0.7453643693566296,2.6128933099324825,6.731671949056821,10.701271835280236,9.377854745371074,10.637187234136903,5.576888312980477,2.048331746449173,0.02911564283320793,0.010434109039489258,0.0035413400473162694,0.0010504941854963057,-0.00793258834018068,-0.0079548850434736,0.007743129625814737,-1.4671273916427865,1.2624426572289704,2.274749550390161,4.741882755433429,8.10248877661067,8.813700029424307,4.518369151529476,2.7743554246558153,2.4932846157140833,-3.4138975760384036,-9.203776032998135,-13.697441714317875,-9.22801157181329,-2.459993060130791,2.842469946839709,9.654737827085375,8.65491337499445,8.697795254042596,10.466597595337415,6.5475478958276945,2.9786117753131314,0.0057788085838369075,0.011046430773689464,0.023765421817782767,-0.027588343185301633,-0.009503103207383547,0.005870387162393719,0.013555206865403704,-0.9095151837864454,2.4248118875599634,3.8935991205396703,8.120312955967844,9.75726733679673,8.30278034072378,6.226540014555422,3.8762459162027287,2.9941618418585163,-8.397814654684865,-15.976428942111342,-15.058948832383383,-9.466415574902708,-3.4569489760459158,9.972672678827799,9.668626671102347,5.106147901481383,8.43357794902082,10.424233167526479,7.164623004434607,3.141819154931849,0.026196737164132417,-0.009436174431084802,0.0027342621524224344,-0.011053267029253834,-0.013476392835001122,0.0061548517152914825,0.00870190437773716,-0.37860997828928733,3.012387685048836,7.623588347604112,11.828453511365321,10.44654042009143,4.535741682064483,7.481906437345122,6.4865293084995015,-0.37347858867125766,-10.337570770101689,-17.806952713895697,-14.412385466969782,-7.880609951508545,0.8432942090679132,14.476321999764567,7.021693603661109,7.473885810069405,9.714649574686046,9.991641070663059,7.016269864904619,3.406299935534152,0.04334222955307266,0.01316487713142122,0.005888181990579769,0.035679377662415065,0.0410115433792439,0.00832458290948272,0.002421938726614587,0.5247491267827362,5.037991436003812,10.017400822004966,11.458019578411722,5.658430261245569,2.758121773602156,9.701829272687386,4.648708482758277,-4.292009688295344,-13.03293653258482,-17.645686952307443,-9.17534801249579,-2.6677863998517894,5.641797911738696,11.705840678374805,8.021017844908613,10.003840379150327,10.780347132085941,9.680782229955076,5.862962888189035,2.586012931604449,-0.003832377792241803,-0.010490533680822825,-0.004350029091909949,0.013972040225497522,0.015836311867553916,0.008807981809515267,0.008103924416761065,0.931338004725638,6.615191203160589,10.84889309379106,11.926865578868549,3.5443382950065683,7.277723867144403,8.244322184790029,0.5538211372162177,-3.587434530587499,-14.11210648104684,-12.64005717510388,-4.212493352463492,0.9421848548870339,5.721522833745617,6.415981428171174,8.607598870093108,10.853445546600426,10.91359052222991,8.64240491354619,3.5204152128706623,-1.53159798063947,-1.0020610878670173,-0.005493250246578078,0.011457189281450961,0.00098737396430163,0.0186473818513354,-0.0221459827533985,-0.005791472225283753,1.5277895718544074,7.481767727924091,9.853431916502128,6.841804230474651,5.126964636495706,9.516251509822558,5.091219230337093,0.43781851079321393,-3.8891066795416163,-11.36747781799613,-4.122591517853744,-3.112230286130691,1.4376523745825383,4.019101538409331,7.274422816341245,8.937621729151113,10.692599460586061,9.373082835362004,6.730822560433386,1.5095408325772015,-3.3392469921974706,-4.172040648522124,0.012125020695841133,-0.0042177349521223696,-0.016707370258398396,-0.002553060297131449,0.0010100702005108385,-0.015114971247027887,2.3544314455379567,7.235428669009847,6.053004161448927,4.003938938195471,5.861078825087994,6.970229529514283,2.3311552083089673,1.8960070006125194,-2.9182391238059338,-6.698812238022326,-2.0112073542618174,0.005224819110270844,-0.2805449817981743,5.199001674273568,6.293975445295254,9.11921907104833,7.543096172863182,6.62405745042804,3.304354076398308,-0.2726059736674641,-4.386470807249774,-4.241354293652622,-0.061340250097244024,-0.01797507267178481,0.016083934988360426,0.005642537818730346,0.008437860835509617,-0.009812020817642413,2.5582313614615066,5.4571772879637335,0.7611280931873401,1.2147521126697325,3.441485380709697,3.3651612908834214,0.2922962944438133,1.543965617946361,-1.0917609785724554,-4.395891921978628,-1.8786959177397462,0.2102487128236259,0.9700442230926346,3.7403641228422537,3.7610832368744953,4.0536182058404036,2.605530178662251,0.030492628483979052,-1.4143217523980085,-3.1641275050188935,-5.154526935521818,-4.198488513457332,0.007050776134404093,-0.023374697477521224,-0.017169249122411596,0.018834599710748356,0.005948445078810141,0.018631335402381318,2.4246873792236814,1.909170991768818,-2.491932365936459,-1.243909585295578,0.12274269519154472,0.8397502960081278,0.6178286397306711,4.60480014144567,2.899772818023569,1.4462762828725144,-0.8851367342646383,-1.6815889459680737,-0.49099710456428936,-2.051121668922524,-4.606978373295214,-4.331550591315352,-5.21956637557773,-3.8648389572859823,-3.841002104299519,-5.597466864958056,-5.6190944646005025,-3.0626247806915767,0.0024657763041785173,0.0014696745805588937,-0.0011449245151780615,-0.01702822646049341,-0.007331784648407256,0.00044807527648680294,-0.04736030975730803,-5.36107664549436,-5.717200475656265,-7.002100757442917,-4.599645905417824,-0.08734974505288146,3.155548626878362,8.98685228661778,6.258324757929162,4.759994542998453,0.049032626889650065,-1.0220875331057468,-0.7442374518154283,-2.3687627438658074,-6.412983594397614,-5.718090474002512,-7.265123014729528,-5.642529986155332,-3.69291607810048,-3.7049709355456715,-4.722022933368753,-1.6499791718152792,0.0012276755387317867,0.0332359227757728,-0.0064080338545740145,-0.020746144752176003,-0.0205146768813221,0.18266722641070599,-1.9679374827268943,-6.650491109224219,-5.1055404813997045,-4.373805082569518,-3.0414461521080822,-0.0521205670865938,6.907880365351866,12.494959405276012,11.150567392119635,2.6849399950854687,1.577904747570457,3.5742056982237673,3.5682335743621265,-0.16481468858787116,-2.9874804094164937,-1.9058807049641355,-3.879301629780004,-3.3052480355358935,-1.017728257134655,-0.7496886202855163,-0.889011241903519,-0.5612471819536825,0.004106067847247252,0.007039723874886614,0.016248088776041548,0.02786737185396884,0.003594769487110533,0.24811129795598771,-0.2987770946015627,-2.0397278689817813,-4.335467296685355,-2.321450114604267,-1.7669560759556229,-2.6322019715111726,3.07474660105592,11.172050860659525,5.882360434035861,1.378544482127028,3.774077111237282,3.1283578486416603,1.0562873368879842,0.02285468128627662,-2.782633788185867,-1.2968791785274791,-1.8995878004355176,-1.1755605874192043,-0.008282049299704308,0.02423041666928939,0.004053912329831465,-0.0010960449811041187,-0.014931609946148835,-0.014152005084989136,0.0009486940434992124,0.02473625446133088,-0.003344903600675639,-0.0043429026210160745,0.002862044181471734,-0.45387593156849154,-1.185373359982196,-3.605529057867842,-4.11649227480282,-4.698915375876851,-1.395437982399173,1.4899151207503656,0.1673742911557214,1.0219192131223538,0.33904721635098184,-1.0951360163806918,-1.42043724453357,-1.9337569981601876,-0.3588334769219965,-0.39206024226425057,-0.028266425953476077,-0.03848995171430603,-0.0008199818410654755,0.0191541330151697,0.0006079870150207545,0.026562331019902904,0.050550803547630904,-0.0222547181883997,0.016058369705014296,0.006474388562999075,-0.00019603082560048864,0.01466479061850152,0.014167679550330395,0.007360524995374201,0.026996238900992578,-0.0006202679176161749,-0.009070606384932477,0.0013092363321289416,0.007356780558066929,-0.012832789947210592,-2.104338381588678,-2.021969016947763,-1.1320153852230819,-0.09117096954034759,0.0020457004612916005,0.017067976868891548,0.012680119209752743,-0.008456202594325524,0.02112955616229528,0.0018299917489109033,-0.0007902209019079556,-0.0013688958680304235,-0.00859278853021729,-0.01566948793846417,0.028720992584833138,0.011858352075352518,-0.03337303776282721,-0.020443277414462092,-0.005637260975251359,-0.012956735802609783,-0.007675044328051919,-0.010235259007929653,-0.010015795583401729,-0.0008794775070967734,0.0025787036861532955,0.002979202843334312,-0.003758057293072026,0.018759601343735263,0.008090849387803686,0.0005989310790817962,-0.007177217038379389,0.007238673773158242,-0.03068350642811118,0.02688457154727521,-0.005898238948487177,0.009164147714716723,-0.02612857543104849,0.0115534574357966,-0.0027986204512014117,-0.028090857711844067,0.017932147844052906,-0.00305295003237105,0.03217591160519333,-0.018984231111945565,0.013427340872706752,-0.0265245330308528,0.027679559628465435,0.01905473499218657,-0.014349736775527555,0.0007797707125936995,-0.009431198174567234,-0.0036896911001888986,0.002015824522806166,0.008003540561972956,0.01472355899463172,0.02336207482114828,-0.010707747566852478,-0.013031666623344177,-0.021981176957955498,0.002652453620561466,-0.00634134738353296,0.0050246157924857615,-0.016186198184033912,-0.0025796102568350298,-0.010800781769786088,-0.012710052218152395,0.008491163139162513,-0.014646529665428863,-0.032306852062780514,0.007643488381065206,0.04033706861936837,0.01579354030284848],"bias":-30.714778245392903,"delta_weights":[0.0,0.0,0.0,0.0,0.0,0.0,0.0,0.0,0.0,0.0,0.0,0.0,0.0,0.0,0.0,0.0,0.0,0.0,0.0,0.0,0.0,0.0,0.0,0.0,0.0,0.0,0.0,0.0,0.0,0.0,0.0,0.0,0.0,0.0,0.0,0.0,0.0,0.0,0.0,2.5e-323,2.5e-323,2.5e-323,-3.2262271261057555e-111,-3.8868355376417086e-111,-5.837934799619934e-112,2.5e-323,0.0,0.0,0.0,0.0,0.0,0.0,0.0,0.0,0.0,0.0,0.0,0.0,0.0,2.5e-323,2.5e-323,0.0,2.5e-323,2.5e-323,2.5e-323,0.0,-1.1150998071187312e-182,-2.0097729081791054e-182,-1.1198455442011294e-22,-2.102821077444339e-21,-2.93648609236195e-21,-3.857338604312013e-22,-2.075633794160859e-25,-4.779038516197419e-25,-1.1397706921475e-25,-7.892392879457025e-134,-1.8717137263534405e-134,0.0,0.0,0.0,0.0,0.0,0.0,0.0,0.0,0.0,-3.361203825978787e-187,-8.002866252330362e-188,2.5e-323,2.5e-323,2.5e-323,-3.6141430102063876e-232,-3.599275869939468e-26,-3.1993563288350863e-26,-6.538166608762336e-35,-9.807249913143477e-34,-2.8618325990347147e-22,-2.8519222282112486e-21,-3.484937280624351e-16,-1.1985474768065083e-10,-2.282930122574833e-10,-1.2784414351518694e-10,-3.37649732532742e-16,-1.1432117899023712e-16,-3.8186306606568814e-104,-2.5557306293406962e-42,-5.416273168602771e-42,-1.3833771296431305e-42,2.5e-323,2.5e-323,0.0,0.0,0.0,0.0,-1.1524127403355721e-186,-2.801003188315648e-187,-3.4230887056929007e-161,-3.4608211331665334e-47,-1.1794486361598906e-31,-2.801190510879743e-32,-8.986100930331498e-20,-2.279840214674181e-9,-1.1905832231766472e-8,-1.2934968312729052e-8,-1.1069309688121131e-8,-6.944062928293268e-8,-1.153290245911051e-7,-1.2514102868427895e-7,-1.973288361354882e-7,-3.94457265250189e-7,-3.370098685732158e-7,-1.6323235875055064e-7,-1.2145986804631732e-7,-3.785894715494351e-8,-1.4528656349394395e-9,-1.923544816301752e-10,-4.221248654039718e-13,1.8733122012531168e-283,0.0,0.0,0.0,0.0,-1.6005732504660723e-187,-1.7803912043313415e-148,-6.58868930408673e-86,-1.342798599668614e-46,-1.3294067229209968e-14,-1.329406722730114e-14,-8.949882145472615e-20,-4.661007987538819e-9,-1.2818949954059715e-8,-1.28413375190778e-8,-1.3135483912160708e-8,-8.409964348655973e-8,-1.7386471791013185e-7,-2.776997561579333e-7,-3.9144802201539556e-7,-5.027185670249631e-7,-4.0286715142197683e-7,-2.7882484814562557e-7,-2.0944869049843227e-7,-5.831575816886899e-8,-2.217530142381964e-9,-1.9234878888777476e-10,-4.193106996346119e-13,-6.716980843379594e-132,-3.969291698070387e-11,0.0,0.0,0.0,-9.428518368770407e-245,-6.493012314119028e-58,-4.9653501840536735e-53,-9.136643924891636e-47,-2.8249892858011588e-14,-4.685324791533559e-14,-2.8030160877090594e-14,-2.533170717475196e-10,-8.10728354642427e-9,-1.2934981216160815e-8,-2.064296515172954e-8,-1.2114055885739293e-7,-2.296629691229525e-7,-3.9309225176970127e-7,-5.297653534598297e-7,-5.843128280778716e-7,-4.398489031162339e-7,-3.143528301796157e-7,-1.8597432836429007e-7,-5.217026768326839e-8,-1.7837967560990138e-9,-7.119840129060556e-13,-4.193106996346117e-13,-9.43562813968229e-267,2.5e-323,2.5e-323,0.0,0.0,-3.0866251200184286e-145,-2.4696070291969256e-58,-8.566787394006549e-12,-1.1789464270234312e-35,-6.5829495931741475e-37,-2.7992916992330396e-14,-4.0920557033620777e-14,-1.1980226351977487e-15,-2.714200577460711e-9,-1.2229148687784449e-8,-3.087583688880506e-8,-1.5613765665539086e-7,-2.8222540756962735e-7,-4.908381454901439e-7,-6.220796835887323e-7,-5.90926187208485e-7,-4.4364185999460916e-7,-2.984978609006628e-7,-1.93882000611171e-7,-6.695894436420813e-8,-7.842836251800937e-10,-5.656473196417306e-13,-1.6603578039222971e-13,-1.991965940599593e-266,-1.6429796927841293e-149,2.5e-323,2.5e-323,0.0,-7.287864866710181e-146,-2.5385244613101173e-58,-1.5762888804972046e-11,-1.5260474055379449e-35,-9.244556354284242e-28,-4.0453818097437514e-22,-6.431511924791809e-17,-2.6915904742029316e-10,-3.6178243289198993e-10,-1.1063651356877674e-8,-6.374089037252284e-8,-1.6431711392125618e-7,-3.5771569280793554e-7,-5.755527391321112e-7,-6.709405861628717e-7,-5.850096257651949e-7,-3.834727758101822e-7,-2.543785535500039e-7,-1.5029233031984294e-7,-2.2361028784981332e-8,-5.719247242094453e-13,-2.2513326154878713e-14,-6.950518956650882e-69,6.852858355012903e-286,0.0,0.0,0.0,-1.748532373099196e-266,2.5e-323,-1.0021027279125749e-185,-1.2986364196146432e-35,-1.3943884136876079e-35,-9.575200089063585e-37,-5.562391711294888e-22,-1.0315985920503243e-20,-1.8040841618786403e-10,-3.661698196659582e-10,-8.71940647341251e-9,-6.571515009073633e-8,-1.7235941302777535e-7,-3.9545420807681607e-7,-6.901486352524902e-7,-7.245042086786027e-7,-5.864927068589161e-7,-3.634061130832444e-7,-2.1133887510229456e-7,-7.575974292670515e-8,-5.677473074964634e-12,-3.164109643005793e-14,-2.0820511481613904e-61,-1.2015487184928942e-84,-2.843978755252033e-77,-3.141784474890411e-49,0.0,0.0,-2.8710469829900473e-266,2.5e-323,2.5e-323,-2.2483517844723152e-32,-3.2466111885224107e-32,-8.484208343395215e-44,-1.290365809231624e-15,-9.355151629745017e-14,-9.034937299043705e-11,-5.591710927945774e-10,-8.30059906125571e-9,-6.540824629681254e-8,-1.8746302602847373e-7,-5.27869382228005e-7,-8.009670007137875e-7,-7.464334975252652e-7,-5.258009773249164e-7,-3.0450031812108415e-7,-1.5714882517457696e-7,-1.4265854808877183e-8,-3.531296812149422e-27,-1.2534935388552333e-60,-8.903092268634318e-61,-4.086932926079984e-259,-6.766350124162065e-61,-2.537595152816226e-49,-6.766350124162065e-61,0.0,-6.366888082457487e-97,-3.3888275277596316e-97,-4.323733841879375e-89,-2.7476969284840314e-32,-3.745710968049318e-32,-3.925797686689011e-15,-9.290633342357837e-14,-1.6387644923663745e-13,-1.6436993631843687e-13,-3.989889162941255e-9,-9.089821314557517e-9,-6.787957948891229e-8,-2.218632556604591e-7,-6.639480890302336e-7,-8.829988209881872e-7,-7.319111108493155e-7,-4.4730820070840953e-7,-2.233170577807218e-7,-9.637075023288453e-8,-6.844171600489516e-11,-1.0597689614246088e-42,-1.7450060846523206e-60,-2.706540049664826e-60,-1.4066885784442203e-60,-1.0149525186243133e-60,-2.421641097068534e-60,-1.602556608354177e-61,0.0,2.5e-323,-5.966697930008862e-130,-2.751466990286891e-89,-1.2447759229485966e-35,-3.871097225982441e-15,-9.168229199019105e-14,-1.6387644923325668e-13,-5.046621990217496e-12,-4.487608731848522e-9,-8.410606089783282e-9,-8.449392005847711e-9,-7.892526622356569e-8,-4.2968453502484375e-7,-8.358628856944414e-7,-9.366079244660968e-7,-6.830166737613044e-7,-3.7318644256798777e-7,-1.520357362952765e-7,-2.4108977562414806e-8,-7.557428884876863e-35,-2.744294538332119e-61,-6.893536198224796e-89,-2.7147905874673344e-27,-3.1324506778469343e-27,-4.6378730470264006e-77,-7.875633476082566e-78,-3.0005454139709597e-228,-4.737966271226601e-209,2.5e-323,-3.212837346927858e-130,-5.461823489777353e-129,-8.677524462862818e-36,-4.1291703743812684e-14,-1.6387644923325668e-13,-1.1419736816648186e-13,-6.769009783787183e-12,-7.21321284598264e-9,-1.0109911268637375e-8,-1.268892346052747e-8,-1.0911887569378977e-7,-6.372994590103209e-7,-9.211248352941756e-7,-9.147702225918473e-7,-5.930306241702064e-7,-2.4030815074325195e-7,-7.662631185663433e-8,-4.861024288578963e-29,-1.4206461616609358e-57,-7.102431234534629e-89,-6.893536198224796e-89,-2.5059605422775476e-27,-2.0374617559363895e-251,-3.631542102860298e-77,-6.125492703619757e-78,0.0,0.0,0.0,-3.0327416511503035e-175,-3.3762167227746465e-79,-2.3705586876767035e-21,-6.967975006768394e-14,-6.258273848676551e-14,-9.677743064956103e-15,-5.318466203601358e-10,-7.3793718584199506e-9,-9.330882391197845e-9,-1.9165693393055732e-8,-2.7811754334578107e-7,-8.121585661834849e-7,-9.476182738579324e-7,-8.707711809740174e-7,-4.948942322681328e-7,-1.4582836816596746e-7,-4.354079239261928e-8,-2.025536410216907e-30,-1.42064616166209e-57,-7.102431234534629e-89,-6.997983716379698e-89,2.941074482024469e-278,1.0671141157217526e-278,-2.1941412572042174e-139,-1.4435139850027673e-139,0.0,0.0,0.0,-3.6908614044446596e-108,-3.3762167227746465e-79,-7.775432495579576e-22,-6.573686882533684e-98,-3.03400933040015e-99,-2.2175173264343164e-10,-4.269980988080099e-9,-9.778390039845487e-9,-1.0189143538545813e-8,-8.439618632712128e-8,-5.262800090401605e-7,-8.709663943060015e-7,-9.448032240190134e-7,-7.652047970735796e-7,-3.7123437700935724e-7,-3.846264237992493e-8,-2.7002036558951005e-9,-1.4490590848989877e-57,-1.42064616166209e-57,-7.102431234534629e-89,-1.118691258311686e-68,2.9135915745877987e-278,6.225871256296767e-279,-9.238489504017773e-140,-5.774055940011121e-140,0.0,0.0,-9.830780776347413e-46,-1.2501304756989972e-107,-3.8993112125022994e-116,-1.844726804012787e-69,-4.92781628096515e-11,-9.54764404436998e-10,-1.4906644340485555e-9,-5.2148674138311594e-9,-9.980099282071121e-9,-2.7511166098138045e-8,-2.3061656612661768e-7,-6.897996415069321e-7,-8.772697463899472e-7,-9.252519529082919e-7,-6.128092557754705e-7,-2.515894057023451e-7,-1.6762250725594305e-8,-6.959045373016898e-16,-1.4490590848989877e-57,-1.42064616166209e-57,-7.102431234534629e-89,-6.893536198224796e-89,-2.6590236154680058e-132,-1.3978788412388247e-21,-2.850002253535489e-184,-4.112686163302086e-219,2.5e-323,0.0,-6.451449884477985e-46,-8.912816828486676e-214,6.209332680179632e-286,-8.326420344683002e-63,-6.775747386327083e-10,-1.5522621285040219e-9,-1.5029839656943705e-9,-4.728259445567007e-9,-2.358460616100359e-8,-1.4705375874359806e-7,-4.697334330446745e-7,-7.628110578402203e-7,-8.809065700984279e-7,-8.447556775203884e-7,-4.246933512968706e-7,-1.1235776976542254e-7,-1.6835248187210095e-8,-7.830729153862235e-16,-1.3654575206548462e-19,-1.2158183403091182e-20,-5.646777702183197e-54,-3.474940124420438e-54,-1.1267602805039659e-28,-9.216783568607647e-22,-1.1773779801490786e-183,-5.831000245229654e-219,-5.831650649655004e-277,0.0,-2.4307682259509176e-214,-1.0128200941462184e-214,3.2001945351695046e-285,5.643019753892421e-279,-4.3118392458445065e-11,-5.174207095013409e-10,-4.116301919312335e-10,-4.998078424692202e-9,-8.49679271009637e-8,-3.12515632407439e-7,-6.04924876041322e-7,-7.782904826010903e-7,-8.631911876865247e-7,-6.896548399175235e-7,-3.1432824523681e-7,-7.676627160061664e-8,-4.728387181188934e-8,-7.831413195986673e-16,-2.3829693499899047e-19,-9.239852296645888e-20,-4.728262956101398e-22,-1.8204108347722517e-27,-3.2767395025900585e-28,-6.550999710370989e-134,-1.1913943846746654e-183,-6.112691078332535e-219,-2.334882479014166e-166,0.0,2.5e-323,-6.973442317574908e-138,-6.258138901062021e-114,-6.109135593893888e-114,-1.6640187796351585e-15,-1.0067326967717286e-10,-8.912864586225382e-10,-4.6979781083365824e-8,-2.0385840026477884e-7,-4.34649098695294e-7,-6.604771319412672e-7,-7.930615753691742e-7,-7.640348597968342e-7,-5.019162534344531e-7,-2.378314677538595e-7,-8.43565046102188e-8,-2.619076808401451e-8,-4.228546607519516e-14,-5.1736849666465626e-17,-4.153893025260332e-17,-6.144942579726852e-17,-3.3714530252954455e-25,-1.4313935423903857e-25,-8.717553850229908e-105,-3.813929809475592e-105,-6.112691078332535e-219,-1.0006639195774909e-166,0.0,2.5e-323,-1.6516047594256335e-138,-6.258138901062021e-114,-4.454943298850758e-43,-2.2360770504591185e-13,-1.186287182792916e-9,-3.7224367708080154e-8,-1.3660332953320832e-7,-3.2850475443231185e-7,-5.32579209222325e-7,-6.603283065895223e-7,-7.481164120449044e-7,-5.64012685602403e-7,-3.9371447460051573e-7,-1.4763630148746523e-7,-9.098928030745692e-8,-2.4579996834044055e-8,-7.869170225696734e-9,-1.562299793447574e-9,-3.416707190633758e-16,-3.2152955369349725e-16,-1.0003103677298525e-17,-4.441319941387685e-25,-4.914366012938011e-47,-1.536618007581753e-55,-5.2676185790239155e-219,-1.817003724249919e-245,-1.5867825910754117e-258,-4.9586955971106526e-259,-1.757863129112621e-36,-1.7282268700472423e-139,-5.7231846907347164e-24,-3.5381203669189693e-10,-2.1145240904666288e-9,-5.415236466242205e-8,-1.9867136139980617e-7,-3.9779650919767935e-7,-6.071556317968877e-7,-6.347507851794102e-7,-6.268409265488656e-7,-4.4541924409375473e-7,-3.3629057903367595e-7,-1.527306633904818e-7,-7.964118807246183e-8,-2.4686648205021266e-8,-1.3171764182610051e-8,-3.5899650490744476e-9,-3.6021269492273206e-16,-2.7727089559722737e-16,-4.001256466411155e-17,-2.0195936825771462e-25,-1.5366045855589198e-46,-1.434176807076305e-54,-1.959148065016538e-157,2.5e-323,-1.5371956351043073e-258,-4.9586955971106526e-259,-1.734733351097977e-36,-1.7282268629191017e-139,-8.40268728360158e-12,-5.956221356448644e-10,-2.8086220644655166e-9,-4.5176937901063814e-8,-2.0314086901753303e-7,-4.0623541725538574e-7,-5.868592387621708e-7,-5.880759016217772e-7,-5.15513960238014e-7,-3.3444451299670206e-7,-3.05061318338203e-7,-1.7153586253964113e-7,-4.647844926727865e-8,-1.942877703883669e-8,-8.776022226755275e-9,-1.0304528870641771e-9,-6.012222936966267e-17,-5.4382440637502465e-17,-3.539703816278569e-21,-1.8359425074061917e-61,-1.591977721256605e-47,-1.6006437578976564e-54,-8.94156725669645e-110,2.5e-323,0.0,0.0,0.0,-1.9663544764995846e-94,-8.490998531900147e-11,-1.1368185946319007e-10,-2.0481073968731463e-9,-1.1033877199939085e-8,-8.947387039055453e-8,-3.287854977336283e-7,-4.776901205699633e-7,-4.1114173742237596e-7,-3.2036109247198193e-7,-2.738627384679066e-7,-2.0251223643750844e-7,-7.793696362092869e-8,-3.543020939700108e-8,-7.613777697504528e-9,-3.898808349357719e-11,-9.16724189563096e-20,-9.16724090540842e-20,-2.3438573305444314e-11,-6.589334750083446e-11,-2.6997077680874444e-11,-5.295697620663615e-50,-9.956326232051214e-158,-4.967537364831355e-109,0.0,0.0,0.0,0.0,-1.6386287304163137e-95,-4.3686151648013556e-16,-2.1414780292290385e-15,-1.389968207049515e-12,-1.9707523169580508e-9,-3.715926138481715e-9,-1.3212435021814717e-9,-3.5785386974406125e-8,-5.519726535524958e-8,-4.4751236684256e-8,-2.5111260598952137e-8,-1.4794739959305076e-8,-1.2389009427826143e-8,-1.7238549990926165e-8,-5.656935246553842e-13,-7.20107441662914e-18,-6.952387203448822e-47,-1.0263047489199279e-47,-2.4552608604980676e-138,-1.4653928455937046e-138,-1.4130210083476099e-13,5.4839281047644e-311,-4.5503660084032634e-77,-7.875633476082566e-78,0.0,0.0,0.0,0.0,0.0,0.0,-4.8565989824141306e-262,-1.3799848328079277e-261,-1.5060085095930613e-56,-3.357637894249227e-27,-6.755729257103862e-27,-8.77016548274894e-63,-1.9305423311623333e-55,-2.6781503103959604e-10,-5.038105252834283e-11,-6.655744143817132e-18,-1.11910742241173e-18,-7.443906548697562e-42,-5.902789039850695e-132,5.713511680878208e-292,0.0,0.0,0.0,0.0,0.0,0.0,0.0,0.0,0.0,0.0,0.0,0.0,0.0,0.0,0.0,0.0,0.0,0.0,0.0,-1.8201108822427143e-94,-1.0330359061377598e-94,0.0,0.0,-3.065644160817328e-172,-9.149031792439202e-172,-3.065644160817328e-172,0.0,0.0,0.0,0.0,0.0,0.0,0.0,0.0,0.0,0.0,0.0,0.0,0.0,0.0,0.0,0.0,0.0,0.0,0.0,0.0,0.0,0.0,0.0,0.0,0.0,0.0,0.0,0.0,0.0,0.0,0.0,0.0,0.0,0.0,0.0,0.0,0.0,0.0,0.0],"delta_bias":-9.563420548726198e-7},{"weights":[-0.013001138254874513,-0.015201942408363063,-0.013481209499470577,0.006751493771565493,-0.0020189361433460514,0.03512858917046162,-0.004186012961522102,0.001793547910717663,-0.019174429554863943,0.017659077436523833,-0.005746798130335325,-0.02677095223368462,0.015715347362257555,-0.004944038183828766,0.011068660862749442,-0.0008458770682438795,0.03694578092040849,0.0006857370916146251,0.009234829104331464,0.0033046609052573258,-0.03801136301693259,-0.008328271545178925,0.0013489997660536379,0.006415264289615408,0.028170273659723234,0.001120882401086718,-0.012884311447350498,0.02731158008910316,-0.005846759526146629,-0.0038363587603458685,-0.004315018221107222,-0.006039596168053245,-0.018440851863304006,0.023444479704299154,-0.016689669193385985,0.008641456926227604,-0.005846117721457629,-0.0208762973074015,0.002069793323471387,-0.011307677769622283,-0.007887098122974147,-0.006578260666230376,0.000603292367146931,0.013808406533037153,0.06520461780452114,0.04529086668691591,-0.03604279634172953,-0.00743242320141667,0.027001012784253996,-0.00717560161842199,-0.026445143288419758,-0.009943916418984488,-0.007226606938876357,-0.008740098757341185,0.009548244658335717,-0.04346268055699506,-0.01383417841636041,0.0013654818704850367,-0.014390067716905635,-0.014312030843063784,-0.0022413154749964196,0.011235745792225974,0.024840549424716363,0.01204476174888079,-0.019037702000584942,0.01313045452127687,0.013844448349855116,-0.008124095510152744,-0.05727712313894324,-1.024174135178597,-0.4935720961893174,-0.31557441024659744,-0.8965631415781329,-1.8796384842219558,-0.42461954016982123,0.0009857642157808989,-0.0044228206402671865,0.0071273225976805025,0.01059276321896343,-0.022237455788419357,-0.0018545261448779501,-0.015020452214153374,0.008173113035609827,0.019484383334382044,0.009062556567967272,0.004145504019328167,-0.02608278040614942,0.011905654796372437,0.0010611811548928232,-0.005386749057230781,0.0011579130724096948,0.008448610719842042,-0.14288166750740372,-0.17716946850635762,-0.08556662412823891,-0.3801073686682383,-0.9072947231509128,-1.392975002964144,-2.39676770516395,-1.8439985641533752,-3.0585156198711902,-3.451055299370617,-1.6367170768671453,0.357434832470574,0.05025724820418996,0.027708199715904207,-0.013187545233319175,-0.022444379173577854,-0.013615458779050486,-0.008734099586489222,0.009744901777643297,0.013232462728609038,0.028331665247009724,-0.016174174172508257,-0.025083302772169504,-0.005443013991440397,-0.02035656868462809,-0.0055334260795763205,0.020941599667641215,-0.009145882949741417,-1.2377325849196208,-1.7656672694128417,-0.654285720508273,-1.502100969357985,-2.2803697993958703,-3.260041827065251,-2.6606148152983207,-2.4353036250307647,2.586637701299916,0.9334816852741253,1.7448536421717753,-0.048980306832653045,-2.3964732349998736,-1.0940247834514187,-0.5720819358482043,-0.34790208808519607,-0.14369655283633273,-0.0002692679902872364,-0.010634708620263668,-0.0014519404633169866,0.004168821285000335,-0.014309465348915541,-0.019316169057395943,-0.002337680856508272,-0.02644258865749158,0.018962775835930732,0.025835183587570948,-0.029650152371922433,-1.837117513298217,-2.1831183537322723,-0.9711504539431354,-1.3440207348811677,-2.109420646612757,-1.7791249476156894,-0.25461870455809243,0.8694886172307249,3.63268210267848,3.5078555590310767,2.30165091853242,0.6516679652301299,-4.084318070488973,-5.771431853160255,-4.779925318139141,-4.470687905283343,-1.6465013284327652,0.0311283568883657,-0.002037246953663304,-0.002060449498210505,-0.02303061342701464,0.012227716046502071,0.008826965688986015,-0.022461972483172266,0.007648063799058579,0.034931026514836816,-0.17964600029646388,-1.112174475098126,-1.0078178010988759,-0.2710286300117457,0.8197726398891323,1.3916088078983497,0.9504736090429955,0.9370827334953752,-0.2572225043168462,1.4612314667758899,4.174111734748528,2.9462144767410345,-0.131529588854661,2.8334180151654866,-2.7489413284198023,-5.358412674554973,-2.318333144673315,-2.500128129632408,-3.2944315346221122,0.019832239047813473,0.00807683997980467,0.022180432334589103,0.017101557400634508,-0.01253738654304471,-0.012197641224962169,0.013081269828971927,-1.0707958863507827,-1.2038412316897749,-0.8249438045939267,-2.3295290719359625,0.13866507716667542,2.305451628306091,3.8180288472003516,4.884863815374544,2.983152221271575,1.1511589764279075,-1.1136943274817732,-1.2019336486491432,1.7446609103163868,3.5381545668102516,1.6101625103277164,5.434107567032924,2.0703974968121583,0.35520240995377345,-0.5039244014134352,-1.096926967576529,-0.928104064705677,0.006773595451781458,-0.0024503084840081773,-0.008306081538647033,-0.011027180918726044,0.024348647821855245,0.01001238886665202,-0.001770121064468016,-1.0096553173524376,-1.4199965473594685,-1.1309311275681595,-2.267315321937903,-0.2619392777246148,2.3060450138538657,3.3051572111985417,3.3027396698744393,0.587983400353149,-0.8676561720512026,-3.7685064538956974,-2.4267443362028196,2.87452407191051,1.3863070297817628,1.6292501662713021,4.857428021596187,5.572863348773806,3.535387143815639,0.7650732368029192,-0.537273243056993,-0.45316538383375166,0.02012872169853372,-0.024833135753881703,-0.0350346000520272,-0.005370502191434478,-0.015500661935184379,0.007821205187401899,-0.026604467363587084,-1.2253847917340197,-1.2703747724571837,-0.26362141230616154,-1.310146000543911,0.25034654962888603,1.5708324612958504,1.8392769745390631,1.384952010554732,-0.7707698264522973,-4.701869074589334,-5.501095254175658,-2.667239678890244,-0.2617834690410678,-0.40574760920438147,-1.3178777097720094,4.326788739194419,8.247017883430273,6.562297346454625,2.857144895507386,1.7162246858669854,0.09365653362750491,-0.003925088977563766,-0.012375360517343467,-0.0013441485512512988,-0.012045836161214562,0.03360556522590863,-0.017779701765965356,0.007940268448602962,-1.2155968190155875,-0.4798839705383922,0.4963251251260214,1.1154760136908,2.452509685546253,2.3055819688289128,2.904817540137673,1.3240826510176003,0.3446980123365241,-1.8703391296416163,-3.8757333141296537,-5.835704701092669,-3.2187502542856623,-0.2587057117799087,0.7374114935614505,4.635732188491752,8.239443641983375,7.4760802185390265,6.1537817953703495,3.4716205176030734,0.6224549997581251,0.01486769110365801,-0.02756424666603708,-0.0041426602548988705,0.004261092239844035,-0.007837951054205008,-0.0059149883846053766,0.00859492333194199,-1.1947378764221244,0.12181853652663732,0.8541089497707812,2.825191182011841,4.855364141815418,4.909187434116465,3.6124556492696103,3.3622409607783292,0.9305616214622973,-2.791873102626185,-5.560714521998546,-8.836648441593903,-6.404286757478656,-0.3981361131891937,1.6731447970557423,4.937267344722583,7.895379393314529,6.910739379998079,7.639612932852564,4.019716400673167,1.5058394516857765,0.027198609727504295,0.01050071508634187,0.0038023580190306174,0.0010504941854963057,-0.007936821281611694,-0.00799202877669972,0.007498080841247653,-1.1088363497924727,1.058714134774102,1.8521901009901098,3.5727629729054295,5.8236307967005185,6.377901892317567,3.754746675434064,2.3311706313420633,1.6432411181175406,-3.06967874335303,-7.57944514895875,-10.10488104377485,-6.382272337185909,-1.6119433991160932,1.9075734945112346,6.7680618220498285,6.193040750796069,6.21870117690873,7.4583771881885434,4.832166464577687,2.171135651296749,0.0010563879025297322,0.010992709099304504,0.024103224868996638,-0.027502372300970527,-0.009519770414269706,0.005751629825766414,0.012980709093489102,-0.6897081707337012,1.9065690525001926,2.971098507990731,5.95591251852797,7.1527923520795245,6.516561853773005,5.040344931976183,3.1415159238536,1.7017947617765856,-6.666414966857596,-12.039365749937758,-10.584250137020735,-6.495167688338457,-2.3687214860202777,6.63080800706697,6.748860350545706,3.691305515818723,6.018935276969766,7.554199243780755,5.404363188322546,2.310648909711231,0.01974538837401448,-0.009429240850071486,0.0027342621524224344,-0.011053267029253834,-0.013476392835001122,0.006175507723200483,0.008752252828346884,-0.27849048768656526,2.3513469720616147,5.57916272027875,8.6589400413576,7.889667912370528,3.7889230859466307,5.874760503570548,4.612794782309774,-0.6097438484429405,-7.981230516416272,-12.897038456492568,-9.73920646717657,-5.4487433169762065,0.40597435210525407,9.734067813915457,4.895412560335658,5.303473283643747,6.960981248594727,7.440633572993299,5.3122566300852405,2.4850745104862413,0.036408167193117055,0.013200410855253043,0.005888181990579769,0.035679377662415065,0.0410115433792439,0.008483249745126717,0.002246505954087018,0.4170243366021798,3.7879483210393654,7.372511832989529,8.621916381343782,4.791709240408485,2.6136161653074095,7.251868960449034,3.39190025646852,-3.340733147487603,-9.709540856570953,-12.585039589505028,-6.366589368923616,-1.9171280740801444,3.5065870173181963,7.754910078677198,5.735366099186321,7.228677073469594,7.800043349741422,7.284471878107687,4.448103685951535,1.9361911155637175,-0.008782744242997161,-0.010476320191289993,-0.004350029091909949,0.013972040225497522,0.015887531468623612,0.009025594228081859,0.007562137181632276,0.7236818146965001,4.830725515206448,8.01924322506629,