{"hidden_layer":{"neurons":[{"weights":[-0.0393471472917752,0.01904140091079844,-0.009956329578127424,-0.014310215211996897,-0.02260218777251476,-0.009937309632334268,-0.01449621622873883,-0.009387247381185165,-0.02138435410562201,-0.02454255661606333,-0.01730948391751174,0.007865413510238305,0.0063809744770145895,0.03306474884402991,0.02465009378010354,0.013586958381544393,-0.0036891829065735125,0.014736381816702735,0.0011376847973406353,0.015454644734604889,-0.021153871394126503,0.0220140631264229,0.004929501347941638,0.0015033936385490255,0.009992594460902428,-0.005901565697828447,-0.009690530686049015,-0.008386694974581856,0.012857542816057372,0.0067285161137371485,-0.022168064584494364,0.020583886381647903,-0.004301275028209234,0.006047941328020144,0.003610863184451955,0.008111184011223719,-0.009575466661282233,0.011958897335434369,-0.0065759358127655855,0.01592077202621363,-0.0016570363055552419,-0.002908190504347495,0.001086735839745525,0.002112182380832238,0.03256502158579532,0.009712046323748332,0.007145782910529444,-0.00731266508946021,0.0012376985758716559,-0.017340774681147652,-0.00347643891950873,0.01995856663999796,0.02737344877819905,0.015922466658361334,-0.002712288545510932,0.0013662640577222578,-0.007837666874538888,0.010853988664642045,0.022955149763651966,-0.009243634792024906,0.0006803013391270717,0.023710116114622728,0.0018615863769045774,0.006189872567166349,-0.0022881534530452734,0.012794743426895095,-0.008098336276307155,-0.002409810165093811,-0.06711372803846596,-2.0435495606395473,-1.5989831650911632,-1.1817552475158197,-1.9254514760730181,-3.4196593352200115,-1.1347336192606257,-0.7144931892384683,-0.18225331804235304,0.029058211637931257,-0.009181078908521791,0.005687675069872753,0.01849573246924926,0.008165098424498246,-0.022058156692496268,-0.018648331637787986,-0.007990732030773502,0.010892900606546544,0.021947222786584227,0.0035039044160835764,-0.003423867615060962,0.029973281796651652,0.0003959146395675399,-0.02694165258770718,-0.2510504373809571,-0.22887918073695196,-0.033703757486561986,-0.05773800309405959,-0.923658193076899,-2.4130811743292635,-4.860167583044075,-4.061221923759234,-5.71144149175438,-6.363687225445412,-3.6893341807236943,-0.21254996509507856,-0.035038152449580494,-0.3434393756087515,-0.16845051842811914,-0.003336992335452915,0.0014410229773253566,0.01174263345686803,-0.022822016952866325,-0.003619131191331393,-0.003940811926577767,-0.005058906232279441,-0.025846280028321927,-0.02741323217828563,0.011904002193914123,-0.02272349940871777,0.011380432348192984,-0.025255885364167903,-2.1770166787699954,-3.035292234108895,-1.6193114218851892,-1.3736586979617837,-2.7384597219356195,-5.537622733729288,-3.747505568272344,-4.435645657974108,1.9886874177706308,0.4362234219281257,1.446121012459636,-1.6640212118422557,-3.0686266362140113,-1.579462671718428,-0.9599633972254968,-0.8830379935324439,-0.474639588135871,-0.01859885120353426,0.009213531474793717,0.026834611987064633,0.008377248144605358,0.00045518670629833964,-0.0006800056972524485,0.02299893901414393,0.01873603250626102,-0.007410176291835882,0.006946026508001692,-0.0005787415137605573,-3.194630886365098,-2.6450116618910813,0.06691239337688411,-0.857786538298453,-1.5642880778117736,-0.8485567417126981,1.9071192914481205,0.5033403011474463,3.563191010894835,1.7295089095045704,2.071303986587486,-0.4932855518203049,-6.919493807263227,-10.367894454428862,-8.803047444424971,-6.947693424047098,-1.7698050408576262,-0.010237255223685795,0.022454925620156583,-0.013519045491523407,-0.008350155815950966,0.0008309515944308474,0.0058141190325594035,0.002423622824409241,-0.017879455181577974,0.06549610854068647,-0.21634740809110425,-1.9340003156518997,-1.2653040151176744,0.703892833510162,0.9136004051799222,3.6380329848867827,3.650740709605575,5.759438886717183,1.353839964974559,2.2322142166900214,6.345726443267453,3.2296409659482026,0.9055993954415373,4.2347751431164795,-3.670201429411616,-9.311843923346878,-5.028347891137684,-2.8031162870649555,-2.953610614619639,-0.008847768334750603,0.00867302022778232,-0.015486249343886357,-0.02877146184110479,-0.027737045093987465,0.010570027622894313,0.004200048147961657,-0.9181348734587221,-0.9773405005258509,-1.2061824578788858,-4.527284874155122,1.4588414337861795,5.577963648631374,6.301137460720131,7.909968660582149,6.08685467932701,4.9431358514179085,-2.0172411171313556,-0.8831307857853284,2.9257489301579795,4.377601147150871,1.6238936125140728,5.99288541085025,2.103408945551635,-0.3177096426353506,-0.7306850904893297,-0.3912292362844211,-0.6035598743135587,-0.0033730552175666815,0.02005406059272389,0.0013080459478347444,-0.01924901130183591,-0.025694920572222956,-0.029431303613578028,0.01045468648233897,-0.8420619648456213,-1.1538742505448243,-2.119588371808896,-4.137244881315235,0.41817099662658297,5.274075468876869,6.6685383631982385,4.31707843101002,-0.5669123500394222,-3.4766146806661906,-3.995714745893739,0.3780305231561729,6.066230770371867,2.4826408463778753,2.358956620832745,6.717449541859314,7.364521962010129,6.025390298049172,2.9477113265285952,1.2417422994102454,0.09635289663111622,0.027212096546112743,0.006211355876902765,0.00407218785507081,-0.0061522366464497455,-0.014450571329103086,0.013430561389828361,-0.00536126137720382,-1.0242491140222718,-0.9249884527577662,-0.5425114112185124,-2.628925971598875,0.392198283184002,1.842917307118811,2.8696051767914903,2.7710865223911276,-1.754793790224292,-6.575598673758119,-3.382045524154792,-1.2727223243849153,0.9662950890709717,-0.2474767522753028,-4.289120398820325,4.642799969822185,12.882686067328558,13.115496410946331,8.139770187677362,4.408319428178102,0.8372123755376362,-0.00946420510159166,0.00932379704731302,0.017877161631283844,-0.01795482756196845,-0.010193853944372775,-0.020345835267413164,-0.002182011038576785,-1.0075785407516542,-0.057919890013389964,1.103582713744443,2.421771914149981,3.3846156458302534,1.2156390134359512,3.3237287128820423,2.630668880357666,-0.350650139948548,-1.0036536942959915,-4.9930957666846325,-7.70224566253049,-3.9780925897565376,-2.6453547932633326,-2.9238178032534643,5.242621168724354,13.74553951347357,13.279118390152696,11.271476946924011,6.692250892551632,1.550181232790423,-0.005211334725411793,-0.01941187022830146,0.010086239746552518,0.002694304221071126,0.012136840911784056,-0.003911736515544025,0.0018303900656844656,-0.9114061936807313,1.0389089167232486,2.406734680001045,5.351429361212968,7.730892962770819,5.375105962756781,4.8008201987514845,5.364431565478423,2.639249438046169,-3.3360520780572824,-8.763668630202176,-11.592766209679391,-8.294989083212066,-5.008487849805078,-0.367559712777264,5.407026658572588,11.213341879821648,11.197471869479985,12.267355579631106,7.28043347611473,2.75805512492901,0.028575861694270073,-0.005038319497492897,0.003790630736247206,-0.0016872518172722044,-0.025454021752679048,-0.029958267309658233,-0.007826051320574177,-0.7835831657570234,2.244804947462503,4.186149371039633,7.541869083543541,10.424718426158352,9.81128247982168,5.871322945504268,5.424648935479431,2.1349217005496746,-4.150922759124793,-11.18784585311164,-13.07527693207419,-10.472686798369688,-7.798337897668219,-0.34506685648209423,7.174706197006655,8.64963763745468,10.182328493975158,12.3723861295053,9.014107622092922,3.7351840822013296,0.07195200652707065,0.011334881829710312,0.0051209737111603815,0.007211209426531379,0.0109559829497408,0.006368343395186816,0.009838323684384762,-0.3382695136907776,3.2968193107105725,6.163675373732728,11.158600888765815,13.019364344162446,12.02565738081129,10.645933477430178,5.380078958619153,2.742617636004471,-8.344316509606925,-16.712430410809315,-14.639681593619406,-12.17897957439932,-9.169735540669869,6.279649927872552,9.372912637866502,7.215813159474341,11.478166062387672,14.201603749749928,10.447465397426017,4.016126211113921,0.07637247834838995,0.011538811720733662,-0.0064533200080180465,0.006214789156982495,0.00033008890539208767,0.022401159913451586,0.006288269867132836,-0.3403742057831096,4.277374725545771,10.142363544825038,15.572284052189758,12.767461562955575,9.40293593039559,14.986559643590756,7.136880103685642,-0.17891457219080462,-9.792617110872458,-19.55380263234485,-15.258326667006202,-11.79185145773308,-3.250996725258106,11.131467332363853,7.328456426919878,9.66675875483336,13.851333854457122,14.772484948031892,10.040523151358395,4.113055301171009,0.055031561526371765,0.02292506446921186,0.005060315403718798,0.008502863016660598,0.026162506013295252,-0.003821383764282982,0.006109997098352182,1.0144040852230176,7.015524467800684,13.454290944712609,15.923536290650157,10.034440632519239,8.749436748228705,14.217521375450199,5.468667360363163,-3.488665721289289,-12.279258323478873,-19.817255810119473,-12.77050209646454,-7.468513855550125,2.5109570299704123,8.565389370367111,10.522799014248678,13.421590616764801,15.24401602871219,14.01613061408854,8.510622086702703,3.3073386122269373,0.05410573261220471,0.021723378577817212,-0.002208025049362293,-0.005639072278198885,0.027444268289537926,0.0045375392424483975,-0.008122557827811312,1.6572763517186444,8.437645525268985,14.74186589973843,17.46525828396033,10.865568721744642,13.216137187477289,12.009311738632375,2.2177114954454673,-4.977319760535205,-15.000965578550895,-15.828354758925531,-11.236532691441738,-2.2418834726900756,4.127218687423632,6.507844531617469,11.577804593352948,13.826248569927353,13.407935225624417,10.846550768285752,5.580853787415418,0.43071604641262046,-0.13454796991900134,-0.00534142505643333,-0.004694836182619985,0.01233467799306108,0.03381244886155529,0.022504022796288513,0.0065891660966445435,2.215087943730535,9.219072650548107,14.36330974369635,15.155417768348862,11.264576409569363,11.577916552124627,6.347460786212287,-0.27166152507888264,-6.676653043625793,-13.10431886808686,-9.91183646511096,-11.420017807870638,-1.689379053427982,-0.015409098650107634,6.980921540701053,10.218982776886849,12.504263200438883,9.858109369409743,6.497878917886507,2.3432074444498143,-0.9324662394652341,-0.8711592471303454,-0.018333426105338543,-0.008029185860911612,-0.00876835678151602,0.003066793574731789,0.004698122931204812,-0.024385888169427078,2.4891820925082877,8.882845114903121,13.30735856673625,12.769506057821431,10.388056521029357,5.95731453183484,2.6738316122554813,-1.2446024714533155,-6.286123746274379,-9.794928745025365,-7.581400185690559,-6.558184276437832,-4.211041997375567,2.279499647451842,7.174769689062361,12.498631925042709,9.546706040604766,8.679745622158862,4.778648433276422,0.7070875754862924,-1.6269217950615633,-0.8922807165893323,-0.044669108021828094,-0.016277692168082423,0.037841160771292286,-0.019474383820749234,0.00477225802549115,0.017745376157502744,2.4237882580503505,6.8293651012415335,7.252366979162363,5.866301652471075,3.9536259333019808,0.7760090657723892,-2.1899150620641983,-1.5913966838656097,-3.0682765356010084,-6.61637134470532,-5.21459176579029,-2.9666418284263716,-1.1682505522006927,3.7016657679087177,6.121814083318562,7.785593500141154,4.977411494532113,1.4636258112068947,-2.118686775168162,-3.3292809501545384,-2.4083344172471963,-0.9246096175531797,-0.020590764484828605,-0.004760835236920363,0.027362510709432557,0.011183230027199535,0.008181833236731696,0.025689935148683476,1.9640452162279562,2.265037092245164,1.210394304208949,1.2975662824997911,-0.1783443512056631,-0.4918614565502614,-0.11966429798127136,2.340881983725464,1.368580099001315,1.95934814692831,-0.7667682732621822,-2.5841747647636866,-2.037059126128018,-2.726094724428827,-4.04007871072419,-4.641456772960696,-6.245661724871008,-3.7563720830193947,-5.3753294148505475,-6.126957779427167,-3.1516186193590663,-0.9865430627888879,0.0037467056656265017,-0.00008271898621181953,0.028507600215344465,-0.003316092327276918,0.014541547539821913,0.0159935496048387,-1.2712876586859616,-4.5942781860481325,-5.260631862938104,-4.467929905046242,-5.873862807475502,-2.3027364662291236,2.5924131158608468,7.96478627896958,6.713016072814386,6.6132628552953525,0.990992529835828,0.13608899621540146,-1.2546984544071875,-2.469628395368787,-6.623315951381204,-7.12306302045587,-9.620172666741169,-6.192186437062169,-4.665535810224225,-3.570297980090263,-2.4997096449233767,-1.8536615874811193,-0.001327253818634797,0.006986187579397437,-0.009829139463352971,0.018085869255507037,0.036258854799086054,0.13959257301944675,-3.0676808581320847,-6.487916742523762,-5.900014552866168,-4.751732210970944,-5.491832675195982,-4.2500996483244,6.813409409356988,10.94497844656928,13.859461149145405,6.2208974578535265,2.9302147697406977,4.317007440784307,2.869772833669385,1.1403995627180719,-3.3726432117357543,-2.393110124901639,-5.401263823481069,-4.2311021004112215,-1.3373416738800987,-0.9227157303510555,-0.9716594679953137,-0.8819630967316369,-0.006627795056834659,0.021048938099619417,0.007807204464707439,-0.023238635497197454,0.021469066369318755,0.15716604231668,-0.2548892036377032,-1.6558230006687675,-2.2422768382475646,-0.558225192737205,-1.4365051970679243,-6.858804996662007,2.1373954383278195,9.962768419544716,6.789295167128714,3.2385950728797126,3.7922332636113327,2.8350644570847217,1.7504501352072925,1.1712958984186017,-2.820857697249785,-1.628389134795868,-3.474207118242635,-1.7324869480277518,-0.00512592302253253,-0.002892362008559006,0.023313558103474043,-0.00392593637355538,0.01769642189033914,-0.011026658168224377,0.010449398552419945,0.004962385912544633,-0.005820730975045747,-0.012433398712087198,-0.005967491460023544,-0.18730093299224504,-0.4258250497797152,-1.8235986660443093,-1.9167426464268758,-4.125071210769228,-3.513502108146716,-0.1831390283888007,0.3019303670943651,-0.18589911421090893,-1.9180390307732713,-1.6250470800215708,-0.588427029224152,-1.5706757224364545,-0.0663908486214904,0.050788094707295006,-0.019410987226036024,0.008768653915722076,-0.0013380087521719806,0.023972455203297723,-0.0026370166975722437,0.00826399838427188,-0.009870429552375683,-0.02778515068925076,0.0045484456221004345,0.0073402508512466665,0.010075961315256352,0.01756018191398147,-0.004037577366008518,0.01188066255913687,0.0037849061804361966,0.028239189597125222,-0.004908887903262536,0.07859662880655847,0.0362136578621225,0.030190090357421626,-1.421301025403376,-1.3930388337713915,-1.2827366609453494,-1.0571474714911087,-0.21457169045572647,-0.02713692954152645,-0.00039354217765139157,0.0054945865308508365,-0.02362903898296132,-0.025239880848122384,0.0012900905784684696,-0.005343332439243576,-0.02043718906124998,0.037317085814366074,-0.0063486807655690446,-0.005424445557225528,0.008605966755626812,-0.002196596361713511,-0.016095779037904566,0.0038677574549148925,0.003895601866379712,-0.01225778028193735,0.00876344299384399,-0.02443334164662897,0.0011924828668162214,-0.013409440703078772,0.001633752074531042,0.019403250111989196,-0.020360246153009562,-0.0005508770766963401,-0.22638504087022643,-0.7177184538982578,-0.2573424700950872,0.019707985239165844,-0.01872695883432755,0.0007190533709142351,0.007492811272317885,-0.017394064441381172,-0.007506830624584126,0.004125680521182813,-0.01297129618733538,-0.005602880562183523,-0.0012547706254229666,-0.007795262194173149,-0.0032976835234947138,0.02404403034832599,0.0013606184215848604,0.024720313350018033,0.01115810004937243,0.011313819550479205,0.007882674473528658,0.013557422731763481,0.0014980890847105471,-0.0001727573185188889,0.01203519665603913,-0.0032748189756621427,0.005798463850564938,0.005411661078835876,0.013135902999392953,-0.05704760987072589,0.004062958025926888,0.023635346286534163,0.018982582095855058,0.020889187927934778,-0.00674022091977612,-0.025562176169623748,0.01303612804514849,0.03494437133582009,-0.004904002087750862,-0.0006790910086365715,-0.00236778714845126,0.014289113379416412],"bias":-21.223700418257735,"delta_weights":[0.0,0.0,0.0,0.0,0.0,0.0,0.0,0.0,0.0,0.0,0.0,0.0,0.0,0.0,0.0,0.0,0.0,0.0,0.0,0.0,0.0,0.0,0.0,0.0,0.0,0.0,0.0,0.0,0.0,0.0,0.0,0.0,0.0,0.0,0.0,0.0,0.0,0.0,0.0,2.5e-323,2.5e-323,2.5e-323,-1.9879085202541964e-111,-2.3949564553538542e-111,-3.597167798555214e-112,2.5e-323,0.0,0.0,0.0,0.0,0.0,0.0,0.0,0.0,0.0,0.0,0.0,0.0,0.0,2.5e-323,2.5e-323,0.0,2.5e-323,2.5e-323,2.5e-323,0.0,-6.032138404213223e-183,-1.0871877356430841e-182,-3.639863540031877e-23,-6.834854869615407e-22,-9.544538229019945e-22,-1.2537607415463815e-22,-5.080581594259512e-25,-1.187723969392601e-24,-2.832647123655993e-25,-3.754175776247538e-133,-8.903183659085037e-134,0.0,0.0,0.0,0.0,0.0,0.0,0.0,0.0,0.0,-1.84025705505259e-187,-4.381564416791875e-188,2.5e-323,2.5e-323,2.5e-323,-1.8510353610839146e-232,-8.945201443124186e-26,-7.951290171665961e-26,-2.1090766160445175e-35,-3.1636149240667746e-34,-9.301889943588601e-23,-9.324804321571055e-22,-1.1731727289496828e-16,-4.0738720559237416e-11,-7.759697545305628e-11,-4.3454325460582144e-11,-1.1466069290035549e-16,-3.8823524546585347e-17,-2.3543818383704067e-104,-8.237483101243718e-43,-1.7457418315479788e-42,-4.458821128196129e-43,2.5e-323,2.5e-323,0.0,0.0,0.0,0.0,-6.3094527601803e-187,-1.5335475458771658e-187,-2.1919748968110866e-161,-1.1149983653109999e-47,-3.8053893740104837e-32,-9.037799763274906e-33,-2.9160158149723286e-20,-7.74747681772e-10,-4.045904560228299e-9,-4.39558712068232e-9,-3.761538178430435e-9,-2.3588846943938126e-8,-4.516848540247848e-8,-5.6985861127011754e-8,-8.640678586186845e-8,-1.500922634458836e-7,-1.1692232934317645e-7,-5.5494311750056447e-8,-4.1293145901936764e-8,-1.287090798735046e-8,-4.938670011969014e-10,-6.538625543672675e-11,-1.4344602466939946e-13,4.5858553866739794e-282,0.0,0.0,0.0,0.0,-8.76312883358375e-188,-9.51422858044998e-149,-2.1148354886484455e-86,-4.3261936574066725e-47,-4.517472649197969e-15,-4.517472648578222e-15,-2.9042945221754505e-20,-1.5839290444837282e-9,-4.3562042626193e-9,-4.363757114101633e-9,-4.463593745558819e-9,-3.6522133382386175e-8,-7.740413270008955e-8,-1.1344849497305855e-7,-1.5224600786023303e-7,-1.8841381432379565e-7,-1.4230142280461658e-7,-9.74882104551006e-8,-7.162814999888452e-8,-1.982574305586336e-8,-7.537861200274346e-10,-6.538432095775258e-11,-1.4248971783827008e-13,-4.131823439571452e-132,-1.3491452432932837e-11,0.0,0.0,0.0,-4.880441402938716e-245,-2.0898168174709988e-58,-1.5990311966799484e-53,-2.943620202243613e-47,-9.59962937822764e-15,-1.592097945132597e-14,-9.524517382675778e-15,-8.608358272631068e-11,-2.7550601977619436e-9,-4.395583816564398e-9,-1.3001699916430381e-8,-5.9499311279821456e-8,-9.712891832376514e-8,-1.526798510758489e-7,-1.992610412971401e-7,-2.1384927698642725e-7,-1.5308927721653754e-7,-1.1040933584600559e-7,-6.388620975559128e-8,-1.7736444718402216e-8,-6.063467907672471e-10,-2.419456520908929e-13,-1.4248971783827005e-13,-3.4467898957095527e-267,2.5e-323,2.5e-323,0.0,0.0,-1.649179871146382e-145,-7.940155707654785e-59,-2.9116389317867076e-12,-2.92939041926311e-35,-1.6357002341274875e-36,-9.511870694141259e-15,-1.3904606823443509e-14,-4.069554963459176e-16,-9.223681184653172e-10,-4.155770419022128e-9,-1.8753725435279047e-8,-7.215312210245162e-8,-1.1498060518346548e-7,-1.859069392872879e-7,-2.3121691757850896e-7,-2.1772622092747355e-7,-1.5438133759085635e-7,-1.0442944137069449e-7,-6.606924236992907e-8,-2.2764358858940933e-8,-2.6658123294780677e-10,-1.92217673057127e-13,-5.642210303663077e-14,-7.276556446497959e-267,-8.790398338211388e-150,2.5e-323,2.5e-323,0.0,-3.8938969179844937e-146,-8.151132590392888e-59,-5.357415634487542e-12,-3.7918505427009733e-35,-2.9838456565855007e-28,-9.254915907694899e-26,-2.183823471624936e-17,-9.148835972697785e-11,-1.229707734447356e-10,-3.759722400062875e-9,-3.462676885746179e-8,-7.493503458286867e-8,-1.406425124527979e-7,-2.1490993334143504e-7,-2.504066909282434e-7,-2.1599552472904914e-7,-1.3378723206476049e-7,-8.763306410922471e-8,-5.1095676479351945e-8,-7.602162921919669e-9,-1.7242917280875656e-13,-7.650454649034707e-15,-2.234701532347907e-69,1.681637534761621e-284,0.0,0.0,0.0,-6.386859644822719e-267,2.5e-323,-5.4871140310457436e-186,-3.226790461827892e-35,-3.464710495879715e-35,-2.379200362489761e-36,-1.2698793546169406e-25,-3.0499076457673687e-24,-6.131153819839404e-11,-1.2441399602067925e-10,-2.964130961279814e-9,-4.151763249108297e-8,-7.766981274284046e-8,-1.5397425497422717e-7,-2.5592450577152797e-7,-2.689982116758493e-7,-2.164998157237178e-7,-1.252917276465418e-7,-7.18497302128135e-8,-2.57564919025281e-8,-1.928366255591842e-12,-1.0752176127746358e-14,-6.817091470896594e-62,-3.8574698804382726e-85,-9.136634352654984e-78,-1.0120178008338816e-49,0.0,0.0,-1.0487065836560743e-266,2.5e-323,2.5e-323,-7.281007732546497e-33,-1.049196347676006e-32,-2.734231430822656e-44,-5.881311189562244e-20,-4.262373517562519e-18,-3.065577529736019e-11,-6.45141022668747e-10,-1.192050797922505e-8,-4.14140282947691e-8,-8.29130257043548e-8,-2.0068544284364179e-7,-2.9487652760526725e-7,-2.764804435798493e-7,-1.9588033903397996e-7,-1.0415437988472261e-7,-5.3426741469858e-8,-4.850035138606856e-9,-1.1398046839760841e-27,-4.0911159408853875e-61,-2.8647294126481808e-61,-1.647802224292868e-258,-2.1771943536126127e-61,-8.17398992987687e-50,-2.1771943536126127e-61,0.0,-2.0660457730426288e-97,-1.0996695243614014e-97,-1.3875849528571883e-89,-8.891838805419457e-33,-1.2096697848760413e-32,-1.8745325058021903e-17,-4.232970693917274e-18,-7.466498434913761e-18,-1.751109430431976e-16,-1.0451063730272055e-8,-2.219359586766585e-8,-4.2253505312763184e-8,-9.669426618024896e-8,-2.48280946612521e-7,-3.227463594897227e-7,-2.715233571420166e-7,-1.6807174883597227e-7,-7.592195034126453e-8,-3.27638120000161e-8,-2.3265134030635235e-11,-3.415741648836869e-43,-5.614869648790433e-61,-8.708777414450451e-61,-4.526272471984115e-61,-3.265791530418911e-61,-7.79206400240305e-61,-5.156512942766722e-62,0.0,2.5e-323,-3.670913976484741e-130,-8.830086063636645e-90,-3.0929604426737383e-35,-1.7637377891321975e-19,-2.6689032860198814e-17,-7.466489973992963e-18,-1.6759440166964112e-12,-1.175490277349924e-8,-2.2031322631692605e-8,-2.213256478360266e-8,-4.708106852850643e-8,-1.6407380978565867e-7,-3.0679550898535356e-7,-3.4105139478335627e-7,-2.550606450790995e-7,-1.3159420521801115e-7,-5.1688495748057884e-8,-8.196528537611842e-9,-2.446655832153501e-35,-8.985398368345698e-62,-2.212236570672859e-89,-8.726035353372792e-28,-1.0068502330814772e-27,-1.4899742175098911e-77,-2.530144897658307e-78,-1.5553582210732127e-228,-2.6445489997556123e-209,2.5e-323,-1.9766459873379445e-130,-3.3602981784745187e-129,-2.1561503085946703e-35,-1.8813203084076765e-18,-7.466489973992963e-18,-5.203026477939977e-18,-2.2975827684609393e-12,-1.889488239613687e-8,-2.2615908807668235e-8,-2.5584835932582412e-8,-5.2682443441813e-8,-2.2595276180621866e-7,-3.3511564391108814e-7,-3.335590676370798e-7,-2.1719969439344068e-7,-8.377834240269623e-8,-2.605129402382334e-8,-1.568786494911294e-29,-4.572559034449505e-58,-2.2792740425114205e-89,-2.212236570672859e-89,-8.054801864651809e-28,-1.0540746386193228e-251,-1.166677925031331e-77,-1.9678904759564651e-78,0.0,0.0,0.0,-1.6438009649077363e-175,-1.0844075118552575e-79,-7.7051679144725075e-22,-3.1747280204379574e-18,-2.8513761083990127e-18,-4.409344472830503e-19,-1.3931699733392944e-9,-1.9330233382397094e-8,-2.441517363152415e-8,-2.9148746602697933e-8,-1.0694325031345615e-7,-2.827196875361799e-7,-3.429733927637444e-7,-3.1860175748117483e-7,-1.8195301647207533e-7,-4.967681002154554e-8,-1.4802970760614962e-8,-6.5369664193881555e-31,-4.572559034478116e-58,-2.2792740425114205e-89,-2.2457553065921373e-89,7.123108620359886e-277,2.5850548329689337e-277,-9.137304623623382e-139,-6.011384620804827e-139,0.0,0.0,0.0,-2.274959774848113e-108,-1.0844075118552575e-79,-2.5272950759469435e-22,-2.3771863231920152e-98,-1.0971629183963169e-99,-5.808747277706303e-10,-1.118518839937161e-8,-2.5606367441512647e-8,-2.611107010511186e-8,-4.421640852380229e-8,-1.7979002548828592e-7,-3.0159408764287746e-7,-3.4290028864553336e-7,-2.827283730791468e-7,-1.3891536177568089e-7,-1.3075719805823208e-8,-9.180135128477172e-10,-4.6640102152586974e-58,-4.572559034478116e-58,-2.2792740425114205e-89,-3.596530661627142e-69,7.056583908136507e-277,1.5081411286028751e-277,-3.847286157315084e-139,-2.4045538483219455e-139,0.0,0.0,-3.1568508896898517e-46,-7.705508914808162e-108,-2.4019533325424123e-116,-5.930784594755125e-70,-1.2908327283791781e-10,-2.5009884112346587e-9,-3.904769006414726e-9,-1.3660302070206797e-8,-2.610174551105383e-8,-3.085428496513316e-8,-8.688125653475204e-8,-2.3451036913630855e-7,-3.08881728115595e-7,-3.369767158768438e-7,-2.308847602631533e-7,-9.730765046634012e-8,-5.698048536317672e-9,-2.366021861600608e-16,-4.6640102152586974e-58,-4.572559034478116e-58,-2.2792740425114205e-89,-2.212236570672859e-89,-6.290801366400232e-137,-4.543601890347767e-22,-1.8932577408222132e-180,-1.0137789367447398e-218,2.5e-323,0.0,-2.071683396358962e-46,-4.626144286889876e-214,1.525567265771294e-284,-2.6778674691971276e-63,-1.774895001521371e-9,-4.06612309439441e-9,-3.937039821556494e-9,-1.2253668805419764e-8,-2.7772690114598582e-8,-6.669243800494453e-8,-1.608326999905105e-7,-2.593310583944516e-7,-3.1796114005320026e-7,-3.097490905865512e-7,-1.6653830310117572e-7,-3.9710453958590176e-8,-5.7228714726163634e-9,-2.6621509691337647e-16,-4.438976771611643e-20,-3.9525135637640256e-21,-1.4031913564677685e-53,-8.635023732109346e-54,-3.6364279744652416e-29,-2.9957814661633644e-22,-7.821327060445872e-180,-1.437344108946292e-218,-2.1279599417197815e-277,0.0,-1.261675714606336e-214,-5.256982144193092e-215,7.862538985129015e-284,1.3658889210637601e-277,-1.1294786373317805e-10,-1.3553743647981369e-9,-8.279587567282099e-10,-9.958316328344788e-9,-4.404133939157813e-8,-1.1086888851078363e-7,-2.056567570523223e-7,-2.705791494583638e-7,-3.153005568354493e-7,-2.570213921318973e-7,-1.2730294325489968e-7,-2.6091473808113302e-8,-1.607452910673609e-8,-2.6623730463958805e-16,-7.746850577514407e-20,-3.0037812012103405e-20,-1.5368397336357617e-22,-5.87581304164561e-28,-1.0576463474962104e-28,-3.1161142809053046e-133,-7.914438096879699e-180,-1.506781022421978e-218,-1.4931132309139993e-166,0.0,2.5e-323,-3.67966355387267e-138,-3.855406216484102e-114,-3.763610830377341e-114,-5.653650439042936e-16,-3.4220836229571394e-11,-3.029653730445908e-10,-1.953323206726007e-8,-8.135427063285353e-8,-1.4776849056828095e-7,-2.2454267575960426e-7,-2.791225144458205e-7,-2.8235478940660524e-7,-1.9319602207118066e-7,-1.0019457980118694e-7,-2.8659261486022555e-8,-8.902823965253907e-9,-4.90728544223958e-15,-1.7565589590375597e-17,-1.4105223106821246e-17,-2.086822763993645e-17,-8.179804039948326e-25,-3.4889133647963217e-25,-5.37500883187109e-105,-2.3515663639436046e-105,-1.506781022421978e-218,-6.399056703917174e-167,0.0,2.5e-323,-8.71499262759314e-139,-3.855406216484102e-114,-1.435891549758081e-43,-7.5994534575099e-14,-4.032418975473671e-10,-1.2655337118392333e-8,-4.644177267706722e-8,-1.116826167249502e-7,-1.810617504559714e-7,-2.2449202380942585e-7,-2.641675345531218e-7,-2.1446345757118912e-7,-1.5650429134014877e-7,-6.960204853421539e-8,-3.924037105016299e-8,-1.9720492748291867e-8,-1.3964909676879795e-8,-4.092436914228314e-9,-1.160295336279464e-16,-1.0919156764780079e-16,-3.3970596625966367e-18,-1.0989888041524405e-24,-1.5832976799783854e-47,-4.947062951109815e-56,-1.2984702819949678e-218,-9.404295678503877e-246,-8.183245035736363e-259,-2.5572640736676235e-259,-5.668359583949228e-37,-9.257906282295432e-140,-1.859637421563519e-24,-1.2026722057224736e-10,-7.18738889972405e-10,-1.8410346952101924e-8,-6.754299662968928e-8,-1.35239461443447e-7,-2.0884023554930946e-7,-2.3223868475316366e-7,-2.3273681518903043e-7,-1.7405223741268701e-7,-1.3689761478502555e-7,-7.1262282856143e-8,-4.6220966276628205e-8,-2.7485391502228837e-8,-2.3571932199184733e-8,-9.403897442849388e-9,-1.223238625628401e-16,-9.415787512718846e-17,-1.358823441112786e-17,-5.019251920864136e-25,-4.950592749813695e-47,-4.61725875436916e-55,-1.2549308393863094e-157,2.5e-323,-7.927518628369643e-259,-2.5572640736676235e-259,-5.593775905213048e-37,-9.257905985494406e-140,-2.8559764812628713e-12,-2.0246103154450087e-10,-9.546716431197992e-10,-1.5358817537835084e-8,-6.906215590292421e-8,-1.3810847336243285e-7,-2.0232189119533337e-7,-2.1902816526574355e-7,-1.9739478180153148e-7,-1.3632472196123156e-7,-1.2618529710868317e-7,-7.761794515973216e-8,-3.222114734192179e-8,-2.289445948349351e-8,-1.7758877963934788e-8,-2.699266843756992e-9,-2.0412110736373882e-17,-1.8462937478373317e-17,-8.081050438471448e-25,-4.3475143966971314e-61,-5.128992480430609e-48,-5.153190574072729e-55,-4.280874727365975e-109,2.5e-323,0.0,0.0,0.0,-6.307509738018203e-95,-2.8859924791272537e-11,-3.863910478030371e-11,-6.961886256681287e-10,-3.750902941547734e-9,-3.04179223156814e-8,-1.1178527448367031e-7,-1.636221607266592e-7,-1.4796783445226914e-7,-1.2439760923129594e-7,-1.1574104972407217e-7,-8.266870886882504e-8,-3.471223036098088e-8,-1.2019883714170992e-8,-2.587325033910787e-9,-1.3251183541403102e-11,-2.97472869797676e-20,-2.974728382268225e-20,-7.96650078255454e-12,-2.2396388962054044e-11,-9.175993626742841e-12,-1.7056651993649578e-50,-6.377517380487861e-158,-2.378263737425548e-108,0.0,0.0,0.0,0.0,-5.256258115015149e-96,-1.484106281289752e-16,-7.275030814251195e-16,-4.72408959087133e-13,-6.698980910941662e-10,-1.263117535356913e-9,-4.5547594752470846e-10,-1.2171462760986292e-8,-1.8769115596382535e-8,-1.6084718594816504e-8,-1.2087051456757765e-8,-7.45532901234202e-9,-4.371489403111496e-9,-5.8442947191536456e-9,-1.9180172465213399e-13,-3.642031039103581e-18,-2.239801408794067e-47,-3.306373415719753e-48,-1.016669227478235e-137,-6.06786772131279e-138,-4.801489699960019e-14,4.6995232581047e-311,-1.4618614964248018e-77,-2.530144897658307e-78,0.0,0.0,0.0,0.0,0.0,0.0,-1.7747394088939371e-262,-5.0428571008815024e-262,-4.8477449378311e-57,-1.0837654889935603e-27,-2.1805883935171663e-27,-2.8212053145792e-63,-6.214147887157978e-56,-9.10234822704549e-11,-1.7123231705091047e-11,-2.223592525573427e-18,-3.7387838925570914e-19,-2.3956753704776748e-42,-3.629198406443869e-132,7.185695802908977e-291,0.0,0.0,0.0,0.0,0.0,0.0,0.0,0.0,0.0,0.0,0.0,0.0,0.0,0.0,0.0,0.0,0.0,0.0,0.0,-5.8330630290999675e-95,-3.310657394894574e-95,0.0,0.0,-2.1518002898690374e-171,-6.421778990077901e-171,-2.1518002898690374e-171,0.0,0.0,0.0,0.0,0.0,0.0,0.0,0.0,0.0,0.0,0.0,0.0,0.0,0.0,0.0,0.0,0.0,0.0,0.0,0.0,0.0,0.0,0.0,0.0,0.0,0.0,0.0,0.0,0.0,0.0,0.0,0.0,0.0,0.0,0.0,0.0,0.0,0.0,0.0],"delta_bias":-3.4795411535917536e-7},{"weights":[-0.0393471472917752,0.01904140091079844,-0.009956329578127424,-0.014310215211996897,-0.02260218777251476,-0.009937309632334268,-0.01449621622873883,-0.009387247381185165,-0.02138435410562201,-0.02454255661606333,-0.01730948391751174,0.007865413510238305,0.0063809744770145895,0.03306474884402991,0.02465009378010354,0.013586958381544393,-0.0036891829065735125,0.014736381816702735,0.0011376847973406353,0.015454644734604889,-0.021153871394126503,0.0220140631264229,0.004929501347941638,0.0015033936385490255,0.009992594460902428,-0.005901565697828447,-0.009690530686049015,-0.008386694974581856,0.012857542816057372,0.0067285161137371485,-0.022168064584494364,0.020583886381647903,-0.004301275028209234,0.006047941328020144,0.003610863184451955,0.008111184011223719,-0.009575466661282233,0.011958897335434369,-0.0065759358127655855,0.016025910733649514,-0.001449223079137595,-0.002822765304555394,0.000983263958565202,0.003047466056195852,0.035504783758799514,0.011120354551998038,0.007145782910529444,-0.00731266508946021,0.0012376985758716559,-0.017340774681147652,-0.00347643891950873,0.01995856663999796,0.02737344877819905,0.015922466658361334,-0.002712288545510932,0.0013662640577222578,-0.007837666874538888,0.010853988664642045,0.022955149763651966,-0.009168052371844851,0.0007063642426370088,0.023710116114622728,0.00280441316141154,0.006551877217918957,-0.0022695392845301816,0.012794743426895095,-0.008110124969522698,-0.002627780010723838,-0.07531200937940233,-2.2196986780008383,-1.8259800130009751,-1.3840439686521846,-2.159693867214086,-3.7825012086169663,-1.2247222322331983,-0.723084175489809,-0.18433753534035993,0.029058211637931257,-0.009181078908521791,0.005687675069872753,0.01849573246924926,0.008165098424498246,-0.022058156692496268,-0.018648331637787986,-0.007990732030773502,0.010892900606546544,0.02194112244271341,0.0037213803427409227,-0.003262559881337959,0.030252281464581386,0.0006556030473282181,-0.02675785074886483,-0.27801292319360826,-0.25800284359791703,-0.044662076054357264,-0.16694534101916514,-1.1161894613988435,-2.7236422996547645,-5.630591866322155,-4.729429042896433,-6.422687585794014,-7.030772508787738,-4.0489742432935705,-0.17843831922249004,-0.030279272767264886,-0.34629538989344966,-0.1684042274214948,-0.002767485226798258,0.001682371186909416,0.011811725297258576,-0.022822016952866325,-0.003619131191331393,-0.003940811926577767,-0.005058906232279441,-0.025867195493025255,-0.02731183445464794,0.011224042610452557,-0.02880731484007431,0.005914261655484622,-0.03146189764243378,-2.4140562260863208,-3.360519405670991,-1.7632581283527535,-1.7473309280430411,-3.4480528712873997,-6.6908457874700895,-4.554216213756719,-5.134490290994437,2.2772192711325303,0.5479520867100826,1.8205036683892306,-1.7997291494558023,-3.5702688266377427,-1.9708341628252233,-1.418443576024161,-1.290684340529579,-0.7082379723762667,-0.01855620994604041,0.009213531474793717,0.026834611987064633,0.008377248144605358,0.00045518670629833964,-0.0006983519056040157,0.02315499101740887,0.01779886633659357,-0.016376715181861515,-0.0006619762209355944,-0.016410145036950437,-3.561337823688217,-2.9466143314550646,0.13440330370123077,-1.1508343465106816,-2.1952710067843118,-1.3627785580192853,2.0815486007509123,0.8621007707043888,4.217873624305654,2.224846674071338,2.6389148467691266,-0.5605701785349844,-8.049013096196822,-12.192202381683101,-10.356586297877696,-8.23625067685728,-2.1952889882054247,-0.01088635576241411,0.022452409622306095,-0.013519045491523407,-0.008350155815950966,0.0008309515944308474,0.005810258711884391,0.0024154231828033422,-0.01655728678961985,0.06410701078887841,-0.2693352674810068,-2.2392284826095668,-1.4752325518734024,0.8079622501649328,1.1375369343183892,3.93878146348144,3.8459875914994575,6.264831148352598,1.5827427505040157,2.4354429940816695,7.181975176377907,3.9199467854435124,1.1119824825413265,4.565517877031522,-4.51564618886799,-10.985171440610024,-6.052849100089833,-3.4994631936661267,-3.458113466802992,-0.008584680504718495,0.008796566764370559,-0.015417348614748626,-0.02877146184110479,-0.027737045093987465,0.010562470130199706,0.004204453866376458,-0.9775702861105953,-1.052631356781015,-1.411812559288575,-5.195153972092036,1.6835683876274803,6.3698461363602785,7.228641531551694,8.790270794657165,6.569363909922219,5.4085564130274495,-2.409331059627794,-1.4311806256898207,3.189635120740555,5.277836056775799,2.1173347533764715,6.701029001024419,2.325404247753581,-0.6724951947991871,-1.2630030162422297,-0.5717858738233704,-0.6650592445311493,-0.0006190132639874888,0.020060825588333386,0.0014533981709460232,-0.019103212258744062,-0.025694920572222956,-0.02939370909639173,0.01051036387997917,-0.8972039029538942,-1.228168466138502,-2.4934154442435488,-4.804551659834978,0.4702411984771597,6.114990698687317,7.625042657458025,4.775908177537166,-0.7323542492417078,-4.166121676268166,-4.923542758664075,0.1516069103095526,6.921106067892105,3.2150310505483155,2.7102180501640114,7.613060352268823,8.377226895397133,6.357428921162413,2.912256312377037,1.2195753429350737,0.10333256686177995,0.027799831975557826,0.006211355876902765,0.00407218785507081,-0.0061522366464497455,-0.014478318806611719,0.013447088921227385,-0.0052436897077576036,-1.092272024802224,-0.9849186697584361,-0.7081659004841069,-3.0750843329906274,0.4968879785830188,2.2067486462114814,3.261982575779965,2.9186591512616875,-2.1660748784110915,-7.772255305686037,-4.310650760923778,-1.4518559158553577,1.4136444861255615,0.04452412060789372,-5.044658419766621,5.390951941975805,14.612156033515351,14.77953969630809,8.974214856027382,4.795627079759872,0.9180863060975507,-0.008959817408432888,0.009319670275281858,0.017877161631283844,-0.01795482756196845,-0.010239414617317921,-0.020298420079711638,-0.0020480300057230476,-1.0726064497697967,-0.02924085129824887,1.119015133056715,2.6922238250470722,3.900959258118931,1.4912129984913802,3.669360890109385,2.650861710688714,-0.7265210132798139,-1.4345369166614985,-5.8013816522161,-8.614548450274846,-4.436558988048645,-2.6231128917808433,-3.1250365024341424,6.121756109886642,15.90195304832134,15.321302541308542,12.65222524342674,7.417458693909749,1.7091203242126076,-0.0059201908735039945,-0.019423851373937633,0.010083554180993057,0.002694304221071126,0.012200530383733948,-0.003914661059797124,0.002455265057413605,-0.9699696537285623,1.219215268724858,2.6006733661772836,6.101802257922544,8.7863580739953,6.212209623330852,5.233299059553239,5.701979920652691,2.6152284825880407,-3.888707628138515,-9.988856181832023,-13.215864586588129,-9.503087515400862,-5.265426946329345,0.029784537736307418,6.356481481177159,13.075070927774913,12.825639241125355,13.82958607602722,8.05244111831515,3.1335642448997736,0.029206866601915137,-0.004964381553570371,0.003774967055988601,-0.0016872518172722044,-0.025450108489432195,-0.029903615008949776,-0.007210639537105571,-0.8327645632435164,2.5696209362506695,4.766929420675988,8.53804863158418,11.724457357133732,11.001574964951937,6.523834853625883,6.012848516181346,2.3745358610284453,-4.751390358483585,-13.020532486878338,-15.177505886201947,-11.905106432109706,-8.295655968570818,0.2098448139356625,8.524705170052005,9.869864261543007,11.533752890158404,13.910359655932794,10.051168579798432,4.305783708398048,0.07681888689452585,0.01140122532434044,0.005100814701668561,0.007205953064292147,0.010971391423769768,0.0064992357951253405,0.010793981275201193,-0.35406593205449505,3.7427956687877226,7.043486406334024,12.618189662604706,14.43822430052022,13.411514125110312,11.97827132728099,6.131319401902763,3.0626735872743263,-9.91447217626334,-19.592294752517947,-17.17940834187848,-13.81088976150676,-9.8741776322721,7.754531964544581,10.9197324023948,8.099208519452468,13.001154186445147,16.01372102102452,11.773596841328304,4.612867161122825,0.0828746548955518,0.011545615925037936,-0.0064533200080180465,0.006214789156982495,0.00033008890539208767,0.02239973209758782,0.006667573472747252,-0.49053314650108953,4.820509567887455,11.489562779079606,17.512991397694364,14.235833306889917,10.510780891857575,16.943442096535,7.940346745458869,-0.40409412507563097,-11.578327108889873,-23.067184169988813,-17.9540737839691,-13.365534298461052,-3.077849510681545,13.21905983622362,8.35619140887834,10.841708428418686,15.566366438571013,16.679044898453334,11.346981048608638,4.715959228222666,0.06160681579480138,0.022722503528106747,0.005060315403718798,0.008502863016660598,0.026162506013295252,-0.0038323051981747976,0.005568550323353659,1.0839145253440934,7.904398858211146,15.245903491165965,17.90215094828637,11.153234190473372,9.728718092397092,15.88629707828096,5.920937181304247,-4.1736708694451945,-14.428767625825051,-23.240896301866286,-14.819459794065944,-8.228861465522536,3.4347209706699884,10.075185747529712,11.806916030438396,14.910508158486344,17.076222985006098,15.920268116694904,9.579644713720912,3.7597373222829717,0.05894048373868154,0.021642354201375155,-0.002208025049362293,-0.005639072278198885,0.027441032356184586,0.004522717784775036,-0.007539163490862754,1.8133333656356263,9.546348388798695,16.700042587085363,19.71776380909501,12.064435931026974,14.619020810038771,13.16694199661661,2.311566451084502,-5.809599662183653,-17.397466816230065,-18.450995773066627,-12.619996998450562,-2.4953168535234083,5.005942537256345,7.387427864418446,12.922931579436193,15.456182811081995,15.155570537944689,12.402733167433464,6.292537759903407,0.47872151275984054,-0.15973661023338828,-0.006598182995898759,-0.0046741731438951035,0.01233467799306108,0.03379290211359766,0.02249646291378917,0.007357229325830866,2.4257179152533994,10.423244645544212,16.3131355476615,17.151957341959022,12.485392467546268,12.871072520953742,6.932828139846411,-0.22614258050894848,-7.577291331862865,-15.011642796130756,-11.449763053091043,-12.65237383594565,-1.6996465118633783,0.16024790917074433,7.7589264157655675,11.444276538675872,14.242199816247203,11.33559065548801,7.46387938943508,2.5791060268759662,-1.0141953840630156,-0.9864474492093588,-0.019947840339054855,-0.0078082493163714375,-0.00876835678151602,0.003064731788595866,0.004697263853648372,-0.023648805602266308,2.7326977854936,10.095400884114897,15.084262909186165,14.275714251232186,11.59683255037512,6.644282239372468,2.9081318012268804,-1.086469173020422,-6.803068364050502,-10.951829260631182,-8.656827461322877,-7.019186465520751,-4.634411391312242,2.7342554727194663,7.967720811533955,14.013255182650623,10.862077854512174,9.923847278676629,5.439604313322306,0.8412622260440653,-1.7386488208451176,-1.0107130839408507,-0.04587255116879282,-0.015616393561266862,0.037841160771292286,-0.019389852513937905,0.0048515235823941355,0.019023459742566827,2.659073302129853,7.761126838101238,8.216424523729396,6.50253279965934,4.2552394103905735,0.6565693034336926,-2.5171808417617987,-1.2384445494657534,-3.102978205622763,-7.427997730299072,-5.932917086461206,-2.9488107645601693,-1.1909125600674961,4.294951550747267,6.820761751624207,8.572540521770154,5.581851130834892,1.5577495950915654,-2.434340351108644,-3.705622287607742,-2.71298460529305,-1.0502395963179088,-0.022458891548909187,-0.004246149733351757,0.027362510709432557,0.011396183896281225,0.008328900883369949,0.026516646262255375,2.1461835677262666,2.3709490430496536,1.259310548359117,1.2229654044898848,-0.5227519783313365,-0.8712586927916354,-0.059201717710227156,3.106949557430784,1.7998650108094123,2.0035364212154576,-0.7386359677363769,-2.560943610552628,-2.03523619974171,-2.946857683391495,-4.506302831527558,-5.442594128785247,-7.310840685736003,-4.398422297670952,-6.082065899387671,-6.895358567601574,-3.661772961914005,-1.1539475911084465,0.0021927148724496053,-0.00009322585661227958,0.028499643708440773,-0.0033185787356839608,0.014546550853305138,0.014865738361620973,-1.5086822162998106,-5.550897531427408,-6.14680513582711,-5.19438498345439,-6.992937758240364,-2.8527361434188054,2.8847183532777816,9.197814860754955,7.563856371133192,7.591261626424148,1.5529796520659922,0.4993038921782508,-1.0337427821374592,-2.610442728435962,-7.446680776170741,-8.339310843726837,-11.249240215193522,-7.187842153781993,-5.320941888375034,-4.128145364122564,-2.9663524451697336,-2.2260927505462234,-0.0012947138205786678,0.006996170520146111,-0.009836847329414871,0.018083382847100135,0.03625414326409079,0.17608871697892284,-3.5374515400219457,-7.749680665257678,-7.0673192457435645,-5.671241201867747,-6.514379410998857,-4.792603333731794,7.837405677915354,12.765825969316143,15.786831037354341,7.1509071431658935,3.556117561725297,5.275752265698244,3.7754694671792652,1.4364348270873106,-3.904632804968351,-3.066068653221588,-6.476098857508491,-4.9418642257841725,-1.5687690583859577,-1.1124855756334908,-1.1658849450909818,-1.066902904625779,-0.00666388680998074,0.021067368144077066,0.007807204464707439,-0.023238635497197454,0.021469066369318755,0.20134510770058903,-0.3154187359686335,-2.222559828696991,-3.0081627455400812,-1.189258547078528,-1.9409230045928294,-7.811140182092958,2.563591938323687,11.66613843339109,7.93742360714072,3.8063867449284605,4.484558724915694,3.4930236602597096,2.1699317269133935,1.4378319530396761,-3.2655106969378984,-2.090018051354063,-4.216280864712245,-2.1429237043650584,-0.011117946026761784,-0.002584182351596584,0.023634048284847962,-0.004010461982507553,0.01727399296225039,-0.011026658168224377,0.010449398552419945,0.004962385912544633,-0.005820730975045747,-0.012433473423434304,-0.005160102764298024,-0.22542864572427704,-0.5369728825700697,-2.187562187642262,-2.274514613982589,-4.713250323856376,-3.8942950396845766,-0.06150120117179238,0.4022679237097452,-0.0991140555968729,-2.2011324399335215,-1.8534957384985675,-0.5683966375926285,-1.6657659001924228,-0.07067013870865171,0.04948122833876148,-0.02202893093340831,0.003700396450293082,-0.0031998381123576987,0.024074368009502346,-0.002592871294158587,0.008273026315193365,-0.009871736713319562,-0.02778515068925076,0.0045484456221004345,0.0073402508512466665,0.010075961315256352,0.01756018191398147,-0.004037577366008518,0.01084311010229792,0.0008445635944755619,0.02675861492863813,-0.005509467208619338,0.07875594208233176,0.03661311070423686,0.0318427789210491,-1.5898823916191869,-1.66047136950234,-1.5101210023966336,-1.1532635932426754,-0.23130274492923694,-0.02686329372761854,-0.0003825875123783011,0.0054945865308508365,-0.02362903898296132,-0.025239880848122384,0.0012900905784684696,-0.005343332439243576,-0.02043718906124998,0.037317085814366074,-0.0063486807655690446,-0.005424445557225528,0.008605966755626812,-0.002196596361713511,-0.016095779037904566,0.0038677574549148925,0.003895601866379712,-0.01225778028193735,0.00876344299384399,-0.02443334164662897,0.0011924828668162214,-0.013409440703078772,0.001628216304044367,0.019400108188198456,-0.020360246153009562,-0.0005508770766963401,-0.24489647588398775,-0.7729635177674201,-0.27585390510884605,0.019707985239165844,-0.01872695883432755,0.0007190533709142351,0.007492811272317885,-0.017394064441381172,-0.007506830624584126,0.004125680521182813,-0.01297129618733538,-0.005602880562183523,-0.0012547706254229666,-0.007795262194173149,-0.0032976835234947138,0.02404403034832599,0.0013606184215848604,0.024720313350018033,0.01115810004937243,0.011313819550479205,0.007882674473528658,0.013557422731763481,0.0014980890847105471,-0.0001727573185188889,0.01203519665603913,-0.0032748189756621427,0.005798463850564938,0.005411661078835876,0.013135902999392953,-0.05704760987072589,0.004062958025926888,0.023635346286534163,0.018982582095855058,0.020889187927934778,-0.00674022091977612,-0.025562176169623748,0.01303612804514849,0.03494437133582009,-0.004904002087750862,-0.0006790910086365715,-0.00236778714845126,0.014289113379416412],"bias":-24.42209065206518,"delta_weights":[0.0,0.0,0.0,0.0,0.0,0.0,0.0,0.0,0.0,0.0,0.0,0.0,0.0,0.0,0.0,0.0,0.0,0.0,0.0,0.0,0.0,0.0,0.0,0.0,0.0,0.0,0.0,0.0,0.0,0.0,0.0,0.0,0.0,0.0,0.0,0.0,0.0,0.0,0.0,2.5e-323,2.5e-323,2.5e-323,-1.989299103700995e-111,-2.396631777315963e-111,-3.5996840924113034e-112,2.5e-323,0.0,0.0,0.0,0.0,0.0,0.0,0.0,0.0,0.0,0.0,0.0,0.0,0.0,2.5e-323,2.5e-323,0.0,2.5e-323,2.5e-323,2.5e-323,0.0,-5.952276872639527e-183,-1.0727940875106142e-182,-3.87612265851039e-23,-7.278496992091733e-22,-1.0164062604993635e-21,-1.3351408274484357e-22,-5.411669725417515e-25,-1.2651255199997996e-24,-3.017244964016262e-25,-3.757630662762336e-133,-8.911377065839556e-134,0.0,0.0,0.0,0.0,0.0,0.0,0.0,0.0,0.0,-1.8160250229583392e-187,-4.323869102281727e-188,2.5e-323,2.5e-323,2.5e-323,-1.825900952488787e-232,-9.528141991630318e-26,-8.469459548115825e-26,-2.24597179671606e-35,-3.3689576950740833e-34,-9.905664314268861e-23,-9.930082457321395e-22,-1.248665661840031e-16,-4.3383024090556784e-11,-8.263370627777715e-11,-4.627489596912209e-11,-1.2210318909130394e-16,-4.134351571714165e-17,-2.3560290393223908e-104,-8.77216561194395e-43,-1.859055281063346e-42,-4.7482364321531254e-43,2.5e-323,2.5e-323,0.0,0.0,0.0,0.0,-6.226371507285686e-187,-1.5133541857986092e-187,-2.161336728906057e-161,-1.1873711306715308e-47,-4.0523920366407743e-32,-9.624431087021812e-33,-3.105033743840664e-20,-8.250218659060802e-10,-4.3084475218085275e-9,-4.680818664366496e-9,-4.005622721926661e-9,-2.51189818703215e-8,-4.8100822590010935e-8,-6.068758856117612e-8,-9.202106014231836e-8,-1.59839356568655e-7,-1.2451233626695326e-7,-5.9096390792802656e-8,-4.3973437849039995e-8,-1.3706342164207058e-8,-5.259234002708636e-10,-6.963041001713476e-11,-1.527569505326323e-13,4.526647545941257e-282,0.0,0.0,0.0,0.0,-8.647738204563454e-188,-9.520602857517307e-149,-2.252101467715726e-86,-4.606999987005554e-47,-4.810696598529522e-15,-4.810696597869545e-15,-3.092552682404918e-20,-1.686711850185503e-9,-4.638882855705696e-9,-4.6469225651039345e-9,-4.753231340204366e-9,-3.889380137693971e-8,-8.243172562499846e-8,-1.2081504973133198e-7,-1.621333352451279e-7,-2.0064876792977172e-7,-1.515396496637254e-7,-1.0381686725792019e-7,-7.627757822941212e-8,-2.111260819040108e-8,-8.027135565761195e-10,-6.962834997411208e-11,-1.5173857086241456e-13,-4.1347120346651565e-132,-1.4367168512505848e-11,0.0,0.0,0.0,-4.816078751509647e-245,-2.2254631327224015e-58,-1.702821658035061e-53,-3.134685894206585e-47,-1.0222730270471641e-14,-1.6954392235324287e-14,-1.0142743343238563e-14,-9.16696360919769e-11,-2.933838884541403e-9,-4.6808149906969234e-9,-1.3847308200806938e-8,-6.336565446105766e-8,-1.0343662718734422e-7,-1.6259278377103478e-7,-2.1219950121255757e-7,-2.27734530348402e-7,-1.6302719887343398e-7,-1.175769374248086e-7,-6.803318748085861e-8,-1.8887696697027743e-8,-6.457040899027519e-10,-2.576500819260264e-13,-1.5173857086241456e-13,-3.4013332430584628e-267,2.5e-323,2.5e-323,0.0,0.0,-1.6503463559646515e-145,-8.455132569326538e-59,-3.100630286534995e-12,-3.120290101238793e-35,-1.7422939651812757e-36,-1.0129275774985061e-14,-1.4807139580694478e-14,-4.333701525915676e-16,-9.822226232195394e-10,-4.42544286843691e-9,-1.9973369294263198e-8,-7.684080243640987e-8,-1.2244601176144574e-7,-1.979763818239314e-7,-2.462296085970983e-7,-2.318636047991428e-7,-1.6440312284545274e-7,-1.1120871852112844e-7,-7.035776845348116e-8,-2.4241969524565575e-8,-2.838847388888659e-10,-2.0469431371386753e-13,-6.008440054283567e-14,-7.1805924020123246e-267,-8.795454537947722e-150,2.5e-323,2.5e-323,0.0,-3.896651118249862e-146,-8.679283377330241e-59,-5.705159727224395e-12,-4.0389541919588336e-35,-3.1775232200812128e-28,-9.8580348769265e-26,-2.325572989037151e-17,-9.742677418547676e-11,-1.3095267864469827e-10,-4.003697491432166e-9,-3.6878124312328134e-8,-7.980311147345171e-8,-1.497734651001161e-7,-2.2886176595493356e-7,-2.6666569104895647e-7,-2.3002065432125967e-7,-1.4247223241222116e-7,-9.332157162405443e-8,-5.441223950573453e-8,-8.095611641016942e-9,-1.8362136413142944e-13,-8.147037361740461e-15,-2.3797517194990277e-69,1.6599248343142965e-284,0.0,0.0,0.0,-6.302628780752056e-267,2.5e-323,-5.414861131376723e-186,-3.437070822176738e-35,-3.6904953989270973e-35,-2.5342457909012106e-36,-1.3526348039081383e-25,-3.2486639166376522e-24,-6.529120649749842e-11,-1.3248957929071955e-10,-3.15647988390911e-9,-4.421811883076235e-8,-8.271540446242886e-8,-1.639707104488226e-7,-2.725389516207941e-7,-2.864641647416579e-7,-2.3055767550601458e-7,-1.334247957111099e-7,-7.651341658148507e-8,-2.7428317934975413e-8,-2.0535344847424818e-12,-1.145008820965434e-14,-7.2595916885601815e-62,-4.107849928643283e-85,-9.729670523550856e-78,-1.0777062336693353e-49,0.0,0.0,-1.0348760837531148e-266,2.5e-323,2.5e-323,-7.753552836446427e-33,-1.1172896343036928e-32,-2.911704140015206e-44,-6.264583803714415e-20,-4.540143797388105e-18,-3.264560985094193e-11,-6.871519324598428e-10,-1.2696939918514245e-8,-4.4107790842038516e-8,-8.829889820611417e-8,-2.137143629634786e-7,-3.1401961004334666e-7,-2.9443254020778435e-7,-2.0859981656686348e-7,-1.1091511526140058e-7,-5.689461269072831e-8,-5.164846036835345e-9,-1.2137871496167546e-27,-4.356670318736403e-61,-3.0506738593940027e-61,-1.6263567893001579e-258,-2.3185121331394424e-61,-8.70455034893665e-50,-2.3185121331394424e-61,0.0,-2.1978316191927544e-97,-1.1698136037638881e-97,-1.4776500144719076e-89,-9.468926642718573e-33,-1.288177614452984e-32,-1.996210856784994e-17,-4.508824851066695e-18,-7.953075069044477e-18,-1.8647913289958367e-16,-1.1132138645241113e-8,-2.3639841357385744e-8,-4.500176961543585e-8,-1.029753318515244e-7,-2.6439958996304767e-7,-3.4369820739318247e-7,-2.8915337012830994e-7,-1.789858659722788e-7,-8.084996047767519e-8,-3.489047472237516e-8,-2.477524995393302e-11,-3.63745223231581e-43,-5.9793207644122495e-61,-9.27404853255777e-61,-4.820064697842549e-61,-3.4777681997091625e-61,-8.297832897551707e-61,-5.4912129469092015e-62,0.0,2.5e-323,-3.673480887090571e-130,-9.403227364821203e-90,-3.2945194977546584e-35,-1.8786770212777926e-19,-2.842246933337889e-17,-7.953066056742649e-18,-1.7847252202234495e-12,-1.2520946268730422e-8,-2.3467059855307728e-8,-2.3574899741535135e-8,-5.0143041110117874e-8,-1.7472750561292393e-7,-3.267119748519262e-7,-3.631914356411164e-7,-2.716224938849362e-7,-1.4013724896501638e-7,-5.504354074471448e-8,-8.72855698423807e-9,-2.60546598043488e-35,-9.568644277638583e-62,-2.355827930889059e-89,-9.29050693484484e-28,-1.0719815694051736e-27,-1.5866847315329163e-77,-2.6943702988294844e-78,-1.534846642015133e-228,-2.6095650980274334e-209,2.5e-323,-1.9780281699718415e-130,-3.362647888952146e-129,-2.2966602268001195e-35,-2.003922156029643e-18,-7.953066056742649e-18,-5.54209721276949e-18,-2.4467158914160798e-12,-2.0126224087293832e-8,-2.4089592982434825e-8,-2.7251852870632798e-8,-5.610661839479805e-8,-2.4062027427682025e-7,-3.5687010321174976e-7,-3.552129959067524e-7,-2.3130213330034417e-7,-8.921690308030418e-8,-2.774225709967268e-8,-1.670614365760727e-29,-4.869355861052e-58,-2.4272166560675185e-89,-2.355827930889059e-89,-8.57585255524139e-28,-1.0401735428148116e-251,-1.242404082238038e-77,-2.0956213435340474e-78,0.0,0.0,0.0,-1.6221053899462734e-175,-1.1547911594168986e-79,-8.205298159965221e-22,-3.381618638300029e-18,-3.037194534737562e-18,-4.696692553194488e-19,-1.483960074084918e-9,-2.058994603039345e-8,-2.600626061823241e-8,-3.104749876746753e-8,-1.1388848587913955e-7,-3.010712290793802e-7,-3.652376003936114e-7,-3.392847900558965e-7,-1.9376693680895696e-7,-5.290128241334521e-8,-1.57638167538442e-8,-6.961272323918339e-31,-4.8693558610824945e-58,-2.4272166560675185e-89,-2.3915222934782905e-89,7.031163598957362e-277,2.5516868100801057e-277,-9.145773547174354e-139,-6.016956281035745e-139,0.0,0.0,0.0,-2.2765509038351755e-108,-1.1547911594168986e-79,-2.691337796468553e-22,-2.5046671294929422e-98,-1.1560002136121335e-99,-6.187291711745676e-10,-1.1914104753962651e-8,-2.7275082876834988e-8,-2.7812653930575864e-8,-4.709107135282655e-8,-1.9146024021202174e-7,-3.211699659936004e-7,-3.6515996744068425e-7,-3.01082977099303e-7,-1.47935460359166e-7,-1.3924425287926961e-8,-9.77600849728622e-10,-4.966742978401075e-58,-4.8693558610824945e-58,-2.4272166560675185e-89,-3.829958884100369e-69,6.965497576710703e-277,1.4886739807187623e-277,-3.850852019862896e-139,-2.4067825124143105e-139,0.0,0.0,-3.3612017379381407e-46,-7.710898222667525e-108,-2.4036333864897778e-116,-6.315740389236471e-70,-1.3749537137212613e-10,-2.6639728203349436e-9,-4.15923498727364e-9,-1.4550516628977305e-8,-2.780274246937429e-8,-3.2863405035671814e-8,-9.252314993627443e-8,-2.4973214715404094e-7,-3.2893202293384895e-7,-3.588520265737514e-7,-2.4587437646927437e-7,-1.0362701645079059e-7,-6.067876759193971e-9,-2.5195930267854657e-16,-4.966742978401075e-58,-4.8693558610824945e-58,-2.4272166560675185e-89,-2.355827930889059e-89,-6.296590644036691e-137,-4.838521489666716e-22,-1.868781991236924e-180,-1.0005424258432628e-218,2.5e-323,0.0,-2.2057886405219046e-46,-4.56513692288971e-214,1.5058691763863647e-284,-2.85164917822243e-63,-1.8905613563667336e-9,-4.331104198221971e-9,-4.193608826849844e-9,-1.305221079209033e-8,-2.958126706480919e-8,-7.102634396666565e-8,-1.7127251570734254e-7,-2.761638904805551e-7,-3.386031331022681e-7,-3.298571405518852e-7,-1.773514546850243e-7,-4.228822899003467e-8,-6.094310829283873e-9,-2.834942896924873e-16,-4.72710553114157e-20,-4.20906656882493e-21,-1.494634403290532e-53,-9.19775017409557e-54,-3.872463726228908e-29,-3.190233949230808e-22,-7.72021412773284e-180,-1.4185772749969627e-218,-2.0998906377862443e-277,0.0,-1.2450373426062836e-214,-5.18765559419283e-215,7.761018062914354e-284,1.348258267323723e-277,-1.2030844995061036e-10,-1.443701399407324e-9,-8.819054943126095e-10,-1.0607158784360684e-8,-4.690452780691565e-8,-1.180666426848013e-7,-2.1900571700114514e-7,-2.8814384707548516e-7,-3.357704600926144e-7,-2.737069600067694e-7,-1.3556880661461102e-7,-2.778471693947704e-8,-1.7117882965112368e-8,-2.835179373612665e-16,-8.249689545527946e-20,-3.198753102736003e-20,-1.6365941328631552e-22,-6.257203784682183e-28,-1.1262966812427927e-28,-3.11898197326958e-133,-7.812121438777298e-180,-1.4871075781369098e-218,-1.4723398024063514e-166,0.0,2.5e-323,-3.6822370384915115e-138,-3.858103049380347e-114,-3.7662434529665205e-114,-6.020622632930276e-16,-3.644206677666789e-11,-3.2263049228285084e-10,-2.0802174385878918e-8,-8.663847418191763e-8,-1.5735998209763838e-7,-2.391175014228419e-7,-2.972427464828529e-7,-3.006866751491391e-7,-2.0573877995244133e-7,-1.0670091922125387e-7,-3.051855062531751e-8,-9.480644052231269e-9,-5.223746519589487e-15,-1.870575068272794e-17,-1.502077711746436e-17,-2.222276074887476e-17,-8.712857487969216e-25,-3.7162760868860216e-25,-5.378769393016613e-105,-2.3532116094447745e-105,-1.4871075781369098e-218,-6.3100277245986315e-167,0.0,2.5e-323,-8.721087722743006e-139,-3.858103049380347e-114,-1.529093088320498e-43,-8.092725911462727e-14,-4.2941583320309747e-10,-1.3476782038442238e-8,-4.945625835815536e-8,-1.1893181149793053e-7,-1.9281427358711586e-7,-2.39063558634314e-7,-2.8131698051640596e-7,-2.2838896800453992e-7,-1.6666566932633488e-7,-7.412257334675605e-8,-4.178847575930657e-8,-2.100383748012034e-8,-1.487470153686577e-8,-4.359132842798236e-9,-1.235608783090628e-16,-1.1627906906382113e-16,-3.617558972442164e-18,-1.1706074789452311e-24,-1.6860670068706185e-47,-5.268168361127227e-56,-1.2815166687170592e-218,-9.280272092854779e-246,-8.075324203007582e-259,-2.5235388134398473e-259,-6.036252359280018e-37,-9.264455291068501e-140,-1.98034386378972e-24,-1.2807361237090602e-10,-7.653913850610964e-10,-1.9605343556395365e-8,-7.192713778545369e-8,-1.440177063586285e-7,-2.2239655380499817e-7,-2.4731792359536046e-7,-2.4784915903481195e-7,-1.8535506213906293e-7,-1.4578660424479842e-7,-7.589055585450042e-8,-4.922536769502655e-8,-2.9275043032736093e-8,-2.5107617668796687e-8,-1.0016730630853752e-8,-1.302637638313542e-16,-1.0026955560365461e-16,-1.4470231374248735e-17,-5.346346339748116e-25,-5.271927828522864e-47,-4.916957137052083e-55,-1.2373904607428162e-157,2.5e-323,-7.822970321663541e-259,-2.5235388134398473e-259,-5.956827986131608e-37,-9.264454993996266e-140,-3.0413549276244266e-12,-2.1560252380041576e-10,-1.016638287270929e-9,-1.6355742327842615e-8,-7.354490173069965e-8,-1.4707294271676652e-7,-2.1545522549674069e-7,-2.332507002958095e-7,-2.102139052844803e-7,-1.4517863776733357e-7,-1.3437907906480968e-7,-8.265830265909618e-8,-3.431616076783833e-8,-2.4385289468109078e-8,-1.8915973547227174e-8,-2.8751726652765615e-9,-2.173703518923686e-17,-1.9661343999766336e-17,-8.60767602486998e-25,-4.6308049671620294e-61,-5.4619072010890374e-48,-5.487675376174185e-55,-4.284814617956402e-109,2.5e-323,0.0,0.0,0.0,-6.716911265571415e-95,-3.073319232520089e-11,-4.114712865003405e-11,-7.413774131677119e-10,-3.9943695057620926e-9,-3.2392313114234444e-8,-1.1904113431759448e-7,-1.7424306674692033e-7,-1.5757469973699993e-7,-1.3247662429778504e-7,-1.2325951438897507e-7,-8.803609527452262e-8,-3.696498474722906e-8,-1.2798807129995201e-8,-2.755217511371011e-9,-1.4111264601822363e-11,-3.167552404340502e-20,-3.167552068544377e-20,-8.483598016277874e-12,-2.3850115145455958e-11,-9.771597774540961e-12,-1.8163771387600376e-50,-6.288377751315961e-158,-2.3804525655313253e-108,0.0,0.0,0.0,0.0,-5.597426054642833e-96,-1.5804379623821312e-16,-7.74724493878589e-16,-5.030723998916405e-13,-7.13379040550757e-10,-1.3451024913295865e-9,-4.850418841796521e-10,-1.2961501641922708e-8,-1.9987400657013504e-8,-1.7129013457503917e-8,-1.287255901909272e-8,-7.939805795457641e-9,-4.654852687315503e-9,-6.222833746703595e-9,-2.0422913085077894e-13,-3.878658788277491e-18,-2.3851817641152e-47,-3.520982505666232e-48,-1.0176087972159283e-137,-6.07347543002393e-138,-5.113148381773592e-14,4.6387425256623e-311,-1.5567472837681436e-77,-2.6943702988294844e-78,0.0,0.0,0.0,0.0,0.0,0.0,-1.7513340005835855e-262,-4.976351489463121e-262,-5.162403672422601e-57,-1.1541113059329792e-27,-2.322127567359123e-27,-3.0043170613864354e-63,-6.61746916169378e-56,-9.693123061627023e-11,-1.8234590458442558e-11,-2.3679223573631228e-18,-3.9814623707875456e-19,-2.550994693375491e-42,-3.631691690177928e-132,7.092876338233249e-291,0.0,0.0,0.0,0.0,0.0,0.0,0.0,0.0,0.0,0.0,0.0,0.0,0.0,0.0,0.0,0.0,0.0,0.0,0.0,-6.211399090627017e-95,-3.525388673058578e-95,0.0,0.0,-2.123662918075073e-171,-6.337806521130272e-171,-2.123662918075073e-171,0.0,0.0,0.0,0.0,0.0,0.0,0.0,0.0,0.0,0.0,0.0,0.0,0.0,0.0,0.0,0.0,0.0,0.0,0.0,0.0,0.0,0.0,0.0,0.0,0.0,0.0,0.0,0.0,0.0,0.0,0.0,0.0,0.0,0.0,0.0,0.0,0.0,0.0,0.0],"delta_bias":-3.7054204375778604e-7},{"weights":[-0.0393471472917752,0.01904140091079844,-0.009956329578127424,-0.014310215211996897,-0.02260218777251476,-0.009937309632334268,-0.01449621622873883,-0.009387247381185165,-0.02138435410562201,-0.02454255661606333,-0.01730948391751174,0.007865413510238305,0.0063809744770145895,0.03306474884402991,0.02465009378010354,0.013586958381544393,-0.0036891829065735125,0.014736381816702735,0.0011376847973406353,0.015454644734604889,-0.021153871394126503,0.0220140631264229,0.004929501347941638,0.0015033936385490255,0.009992594460902428,-0.005901565697828447,-0.009690530686049015,-0.008386694974581856,0.012857542816057372,0.0067285161137371485,-0.022168064584494364,0.020583886381647903,-0.004301275028209234,0.006047941328020144,0.003610863184451955,0.008111184011223719,-0.009575466661282233,0.011958897335434369,-0.0065759358127655855,0.014791548709796369,-0.003889016766910281,-0.003825684448936432,0.0015191450004807682,-0.006798334686186479,0.006589573671857953,-0.0026848198177525594,0.007145782910529444,-0.00731266508946021,0.0012376985758716559,-0.017340774681147652,-0.00347643891950873,0.01995856663999796,0.02737344877819905,0.015922466658361334,-0.002712288545510932,0.0013662640577222578,-0.007837666874538888,0.010853988664642045,0.022955149763651966,-0.010198800725898165,0.0003509337757221866,0.023710116114622728,-0.015681277117799514,-0.000025258424773959135,-0.002502862991376458,0.012794743426895095,-0.008044560728793766,-0.0022653483159082127,0.028788422938182373,0.043154655164916,0.025410008211644537,0.04254909589985991,0.004212216445595682,0.017197384742121163,0.019774242127061702,0.016110870588338152,-0.008426434557938518,0.029058211637931257,-0.009181078908521791,0.005687675069872753,0.01849573246924926,0.008165098424498246,-0.022058156692496268,-0.018648331637787986,-0.007990732030773502,0.010892900606546544,0.021974438893216305,0.0007436969088717246,-0.005311057950868506,0.026949516306832757,-0.0024269651550682457,-0.029023202451853445,0.0049601969091504555,0.00298723912319244,0.011021422251769632,0.022990475552468692,0.02327408209282218,0.024547670347272624,0.07018585944904387,0.024124733384154058,0.020452030173222325,0.038081451037103364,0.031645347117840644,0.025059595190937173,0.0065136367959628206,0.0007733874518514325,-0.02669398570922291,-0.009893993794192252,-0.0012244434876982685,0.010979578351194367,-0.022822016952866325,-0.003619131191331393,-0.003940811926577767,-0.005058906232279441,-0.02575296766272446,-0.028530085993036566,0.01275810847781974,-0.007927671047200087,0.021598462271385656,-0.018800616310185085,0.003436605662388932,-0.008616598994609133,0.007976419503756238,0.06177138740091861,0.046863513029942634,-0.022932409216062485,-0.1644352923845036,-0.12326652447820033,-0.07723760834738702,-0.15574341375928405,-0.19478416035546323,-0.07394580875747819,-0.013265132126652472,0.03317110001250208,0.040076819422430826,0.010562720254447574,0.016611335388734057,-0.01903854943324475,0.009213531474793717,0.026834611987064633,0.008377248144605358,0.00045518670629833964,-0.0005984221157320211,0.021193022495698006,0.01822166668333263,0.0011797164446852519,-0.01577757009565438,-0.0019988410813122394,0.02570310710399528,0.022574269481928415,0.0023193706857322295,0.03212178289460423,0.05463779092724578,-0.0810519754383012,-0.21425333608949487,-0.3008676832195116,-0.2180969656880497,-0.3121969638559918,-0.3425966577061201,-0.2398331153364188,-0.04219747738026503,0.05986036783430488,0.0739722890353567,0.03483191314001601,0.00785578237001677,-0.009304163303179567,0.022468582698648914,-0.013519045491523407,-0.008350155815950966,0.0008309515944308474,0.0058312749152448695,0.002461568468501895,-0.04189575551570024,0.011651356349897536,-0.010864988701004188,0.0022684104922927255,-0.0055169515068088535,0.019911659358389656,0.02756536385891725,-0.02477453381857572,-0.02092435021430978,-0.18182790756837136,-0.23674864382365077,-0.3271346349340382,-0.29550329481722526,-0.32605420857467404,-0.3515353793367866,-0.30945538893602936,-0.1851909666753542,-0.0009433069334376964,0.02212784370352817,0.058972117625097485,0.00035789522555777716,-0.011803770303659793,0.007190018660947101,-0.016226465249399597,-0.02877146184110479,-0.027737045093987465,0.01060443586914632,0.0040755984383457995,-0.021678553215747576,-0.00002493804437634555,0.00009032903175765446,-0.007517641402837589,-0.07385489198865687,-0.03911140466116509,-0.04677154469041535,-0.05239631285681184,-0.07195579993429384,-0.17892980699742464,-0.23224789671162926,-0.344339315187682,-0.33768656855479856,-0.3808577365607265,-0.4102737104125066,-0.2882250965384561,-0.23668574196667902,-0.03595863292006803,0.05847106577616864,0.010390931299500302,0.003079054257279799,-0.03685832890049083,0.019958899464724494,-0.0002535054144826289,-0.021453673336686793,-0.025694920572222956,-0.029865822714628405,0.009766201455239015,-0.006916641554748703,-0.01918557121121118,-0.0016292772995299318,0.04869368040917609,0.010010159613135146,-0.0341101848738773,-0.061799915256395985,-0.006787077142198439,-0.028974122436857895,-0.11280276082333796,-0.2306700118353068,-0.3551232609939757,-0.42891309396329563,-0.35729733221186305,-0.29479244704916174,-0.257098739124044,-0.2483191630243192,-0.08586073562981895,-0.0005252029404674068,0.015316413363899547,-0.00969805173959942,0.020421474027455398,0.006211355876902765,0.00407218785507081,-0.0061522366464497455,-0.01433989373594061,0.013249904028400534,-0.006770931080062282,0.00630192801630351,0.014414586589174678,0.017973158431861723,-0.00018297082835456486,-0.019961233664833784,-0.09423318352766077,-0.07357154510333282,-0.022069762477263822,-0.007495927854171637,-0.10922571286796816,-0.2761504754658453,-0.5166630937224864,-0.4806930948204155,-0.3334660569006947,-0.14743322483219073,-0.2061479113136107,-0.21957617905131638,-0.1285915604017601,-0.08307889624815254,0.013791212496570346,-0.017865649001120268,-0.015035465853222907,0.009344708712758408,0.017877161631283844,-0.01795482756196845,-0.0100121240691775,-0.02083816109608803,-0.00371396589771239,-0.011806012002570223,-0.024919280314413948,0.02749468303448862,-0.02308657722733183,-0.08050216546181516,-0.08055101235017842,-0.01610503261760097,0.03610288214543322,0.05584482433870703,-0.13122813943467984,-0.4190490898815394,-0.5209998640767509,-0.45179773128581074,-0.30244891989701345,-0.23343965277039627,-0.16208178825991185,-0.19150522485990698,-0.16380501418982885,-0.10279712975435658,-0.05262943335916079,-0.017742902789980097,-0.011124048690586459,-0.019352974568942704,0.01009928988605557,0.002694304221071126,0.011419271542631174,-0.00389779749398959,-0.005829347164362141,0.007247117537841616,0.03544257260460606,-0.009244577767578827,-0.12647030989215688,-0.10387368622754595,-0.04697549586306539,0.007251764534381998,0.04914023416182175,0.08355855266890815,-0.1822228630333547,-0.4601678284790735,-0.5169483859106605,-0.3851151894255595,-0.2741361117597926,-0.20349342368973078,-0.07745642855926034,-0.1102344070209015,-0.16906576191250722,-0.13386047742844512,-0.07753378985549532,-0.05895833939944017,0.0004247061728927399,-0.005901632799972928,0.003861095176282693,-0.0016872518172722044,-0.025493684496181602,-0.03056300479891958,-0.015461621875032557,0.016245686596844826,-0.0034757987503032097,-0.06282272472548929,-0.09640855086378508,-0.10969333754064602,-0.05209927401163069,0.032352522042771385,-0.017558473899600774,0.020894761256951475,-0.2611777865214175,-0.534484851930391,-0.5336407820362257,-0.25169793175740285,-0.18347680623418733,-0.1473858637539494,-0.03198331512538988,-0.08739925407098167,-0.1492458581333944,-0.1647015328118111,-0.11091818614291325,-0.061402821517740756,0.01629159919599373,0.010610663417947785,0.005211352954177443,0.007234399502218196,0.010799810897193242,0.0049422001707128274,-0.0016637656790392836,0.005874070915462972,-0.02317596568436326,-0.105901120835557,-0.12759070483826224,-0.08176422568519136,-0.035072147065336824,-0.020880707426517923,-0.04613538318993195,-0.1304878742617443,-0.4166714869640461,-0.524036585700226,-0.4307066538275009,-0.18745141217068778,-0.12643501113363453,-0.060096665664233696,0.016184787094373373,-0.030223592253892862,-0.12212129171165412,-0.15872871368314978,-0.1217844946387999,-0.054511757802525075,0.0017593298312540617,0.011459269302988783,-0.0064533200080180465,0.006214789156982495,0.00033008890539208767,0.022407615665687424,0.0017211239732645154,0.02187223676858255,-0.022321794540352383,-0.15038128092765923,-0.17813441789199294,-0.08530433356708396,-0.02587732709925066,-0.12921885989513954,-0.11588628050884497,-0.2685027936750877,-0.46152914422137975,-0.4889129098644998,-0.38484448627378265,-0.07605935399552449,-0.07933229097319992,-0.07222060668487569,0.03615148495944122,-0.03790221951591194,-0.13214214862319795,-0.1841950852867138,-0.07781807325967373,-0.06444493218743866,-0.022212094221891666,0.023604164621614795,0.005060315403718798,0.008502863016660598,0.026162506013295252,-0.0037717921420182417,0.003641654229581217,0.03481405430335904,-0.08424737145971488,-0.18746656763402283,-0.1326862357225757,-0.030335869730616735,-0.02966361806142887,-0.1279229989320524,-0.181817106009885,-0.33821600450503103,-0.4506436114144283,-0.5065823954979306,-0.36549003912455047,-0.054637919987013,-0.00516365338273279,-0.0040326646871097355,0.005808388690252313,-0.04663577737770085,-0.14243118116885067,-0.18731298260312346,-0.10989282344529801,-0.06193528542461177,-0.0010318577828883283,0.021995018638777803,-0.002208025049362293,-0.005639072278198885,0.027460104499115453,0.004605253024053016,-0.014668262289091027,0.008524288105620172,-0.1080025790755088,-0.14508141877503558,-0.12794689814180904,-0.06779535406762725,-0.07123953343258159,-0.09149655898068185,-0.2704714160123792,-0.3881837556957504,-0.3838178129362026,-0.4532048917553667,-0.33516032009388774,-0.016479793435984838,0.03720332216255479,0.053484591054194404,0.008481500121452436,-0.06588761690794438,-0.2046056154015245,-0.15265217515955476,-0.07484187523866716,-0.04555964128808943,0.040369392364374895,-0.000055900608453719154,-0.004940020123601205,0.01233467799306108,0.03390108590483286,0.02253797296555976,-0.0018711273274775208,0.00866723017737725,-0.09345643246549874,-0.1587893886679581,-0.12415600424766453,-0.09174307771479455,-0.08296965760951615,-0.21453395368446643,-0.36969575804564947,-0.3527985323280612,-0.41525455975348835,-0.45446033239585415,-0.2462992727118519,-0.02770439400300928,0.07547957683047608,0.0027442810113654397,-0.01805785337904875,-0.145464135408079,-0.1837427372314083,-0.1312970998896868,-0.02945579612942003,-0.01659610489121895,-0.02811381448050507,-0.010942914722012758,-0.010179950504836967,-0.00876835678151602,0.0030760527118056566,0.004701980904985823,-0.032224925060906386,-0.009750633272378462,-0.061665639170929945,-0.15238467158757463,-0.10675278866585547,-0.07524594931727151,-0.1267368215087666,-0.32623150648981863,-0.37705613167726315,-0.3969021090102049,-0.47864106994370703,-0.3616667757659873,-0.2590888179215457,0.02653282460454965,0.05237102028983967,-0.011696460839095089,-0.10283570391792901,-0.12969511225600744,-0.15789079285577962,-0.07617289490551293,0.02211965450484976,-0.013983137528752068,-0.01977027610469019,-0.03722339063666892,-0.01663383541779246,0.037841160771292286,-0.020691263154645066,0.003595400624747156,0.003242935470067179,-0.008464656634258924,-0.04496728289428642,-0.11708774444879871,-0.12689346168207052,-0.0847542625733982,-0.18266629444843438,-0.2822926621356786,-0.43679945081499977,-0.46540749808456683,-0.34800618759193586,-0.3143484330619387,-0.2126749627672452,0.09160516295048797,0.06799708656925028,-0.04578920607988649,-0.10335642342743355,-0.07465804924166171,-0.054271424768116826,0.010525476329984258,0.03454120104791507,0.00468860450486438,-0.023472969547575755,-0.012733966215961342,-0.005045970763845299,0.027362510709432557,0.008117630166809468,0.00605623081471736,0.00889230925800156,0.03294253928819335,-0.00045018922020587896,-0.04689187439904873,-0.0738363206374786,-0.09721498882284961,-0.24823550532753239,-0.36410926248796405,-0.4673420604529317,-0.4139776332774097,-0.3217716047595197,-0.246630645276866,-0.1131791881333557,0.026338639690572513,0.028604864897817134,-0.03966411034270188,-0.05009998821832269,-0.03329166811658417,0.00551503661732922,0.09724848367813976,0.03769743551811666,0.004048953056213802,0.024127435981483855,0.009911194485032785,-0.0000360008753019231,0.028542054249279296,-0.003305325441672261,0.014475368064188456,0.0002741760492352106,-0.006043755095093865,0.0007089645897203891,0.02671669179925764,-0.030076388075303113,-0.06836932501538209,-0.24144507586250938,-0.29012572616070426,-0.40380110883612746,-0.3509495169419906,-0.29842712854061587,-0.26733498511703047,-0.16511625199923569,-0.0909885638582047,-0.008660051673394887,-0.03924397975794032,0.0331288611488595,0.052061146700926035,0.02800485887905896,0.026393798558850892,0.05285568304151892,0.038418270807171445,0.01925443903480224,-0.002908042904565522,0.006884409352644232,-0.009795762117978887,0.018096636141110765,0.03628310102626522,0.009512972903039187,-0.020856133361767476,-0.01232977905315505,0.003258515505876754,-0.010741902591897654,-0.15556220359549075,-0.27789515774770346,-0.39774748796138215,-0.42096739259571797,-0.39196793022734105,-0.2571454205751552,-0.2854381256032556,-0.2513070990370191,-0.14662387534622906,-0.07809013138450348,-0.037275851645690694,-0.0017439219835034192,0.010557313593616066,0.02542380712494513,0.0014441702970678816,-0.001179216283515303,0.0026927501170702045,0.026939379055179225,-0.006716956440147532,0.020861039834845056,0.007807204464707439,-0.023238635497197454,0.021469066369318755,0.013299995595380181,-0.007143715563664861,0.014817715838493792,0.003634254019268394,-0.0704795640472831,-0.18109590538009115,-0.2131486765566762,-0.34434873539838307,-0.28095757081621553,-0.1804096674837991,-0.19030414672909618,-0.2336030940639051,-0.20273380781733702,-0.1297974823248593,-0.020200438515989048,-0.02382727984735191,-0.01521588484534564,0.031326064157386896,-0.010901470470897843,0.003730891629590738,-0.013533659433491298,0.01948807593193948,-0.0030600832605034655,0.020363763154199244,-0.011026658168224377,0.010449398552419945,0.004962385912544633,-0.005820730975045747,-0.01243303931534644,-0.022431788297930477,-0.028672076742145673,0.006532489358349037,-0.0030998161617378124,-0.032750175911408955,-0.0506785716615296,-0.08046325136147056,-0.07715482598381537,-0.07417554061049367,-0.014915696862511808,0.0253754698511737,-0.0171592674596381,0.007800112106590551,0.03254586213445139,0.002534482192772869,0.025874932686964495,-0.024249409282012392,0.02255415066930295,0.003455775397275471,0.02268641295285158,-0.003126250262450016,0.008132735053109711,-0.009864113577897023,-0.02778515068925076,0.0045484456221004345,0.0073402508512466665,0.010075961315256352,0.01756018191398147,-0.004037577366008518,0.013837891653765033,0.009267133482213596,0.02869744885906749,-0.02680779684403272,0.043653485690449995,-0.0020321616472015903,0.00017925552443199665,-0.02958312755053115,-0.00894363345484065,0.0006213652897132404,-0.008732565306236981,0.0002647924156154438,-0.030601141403972673,-0.0005043767681859639,0.0054945865308508365,-0.02362903898296132,-0.025239880848122384,0.0012900905784684696,-0.005343332439243576,-0.02043718906124998,0.037317085814366074,-0.0063486807655690446,-0.005424445557225528,0.008605966755626812,-0.002196596361713511,-0.016095779037904566,0.0038677574549148925,0.003895601866379712,-0.01225778028193735,0.00876344299384399,-0.02443334164662897,0.0011924828668162214,-0.013409440703078772,0.0016603752440787643,0.01941836055957075,-0.020360246153009562,-0.0005508770766963401,0.016655497595630918,0.007605653085803684,-0.014301931629226834,0.019707985239165844,-0.01872695883432755,0.0007190533709142351,0.007492811272317885,-0.017394064441381172,-0.007506830624584126,0.004125680521182813,-0.01297129618733538,-0.005602880562183523,-0.0012547706254229666,-0.007795262194173149,-0.0032976835234947138,0.02404403034832599,0.0013606184215848604,0.024720313350018033,0.01115810004937243,0.011313819550479205,0.007882674473528658,0.013557422731763481,0.0014980890847105471,-0.0001727573185188889,0.01203519665603913,-0.0032748189756621427,0.005798463850564938,0.005411661078835876,0.013135902999392953,-0.05704760987072589,0.004062958025926888,0.023635346286534163,0.018982582095855058,0.020889187927934778,-0.00674022091977612,-0.025562176169623748,0.01303612804514849,0.03494437133582009,-0.004904002087750862,-0.0006790910086365715,-0.00236778714845126,0.014289113379416412],"bias":-2.1161671188196958,"delta_weights":[0.0,0.0,0.0,0.0,0.0,0.0,0.0,0.0,0.0,0.0,0.0,0.0,0.0,0.0,0.0,0.0,0.0,0.0,0.0,0.0,0.0,0.0,0.0,0.0,0.0,0.0,0.0,0.0,0.0,0.0,0.0,0.0,0.0,0.0,0.0,0.0,0.0,0.0,0.0,-2.5e-323,-2.5e-323,-2.5e-323,-4.8099809689432804e-114,-5.794881834012602e-114,-8.703775086659304e-115,2.5e-323,0.0,0.0,0.0,0.0,0.0,0.0,0.0,0.0,0.0,0.0,0.0,0.0,0.0,-2.5e-323,-2.5e-323,0.0,-2.5e-323,-2.5e-323,-2.5e-323,0.0,-6.49253319819253e-186,-1.1701658671160847e-185,-9.359150254278871e-26,-1.757440436636811e-24,-2.4541790229593826e-24,-3.223784443992339e-25,5.284649905929763e-28,1.2452828161181972e-27,2.969921360616617e-28,3.741322377698853e-136,8.872701290985371e-137,0.0,0.0,0.0,0.0,0.0,0.0,0.0,0.0,0.0,-5.73595396289818e-191,-1.365703324499569e-191,-2.5e-323,-2.5e-323,-2.5e-323,-1.3326128669812838e-234,9.378699033526175e-29,8.336621363134361e-29,-5.456836718228613e-38,-8.185255077342905e-37,-2.391787077609089e-25,-2.3747454509185945e-24,-1.2182421358159184e-18,-1.0471350355851191e-13,-1.9944819184903956e-13,-1.1169103679892681e-13,-2.9468676861918285e-19,-9.977941392766242e-20,-5.692655656484819e-107,-2.121596485261263e-45,-4.4962274137188284e-45,-1.1483870883524287e-45,-2.5e-323,-2.5e-323,0.0,0.0,0.0,0.0,-1.9666127872793794e-190,-4.7799616357484654e-191,-3.1566358948792477e-164,-2.8728988049806205e-50,-9.792259120659802e-35,-2.3256615411567048e-35,-1.1088854006145566e-22,-2.1840866312561042e-12,-1.140578574048468e-11,-1.2429052553422991e-11,-1.0682164683177241e-11,-7.445892273403464e-11,-1.0907860815533964e-10,-1.0680080294379569e-10,-1.4236196136888626e-10,-3.190780776947789e-10,-2.905767957588335e-10,-1.4254240283123903e-10,-1.0612036891494844e-10,-3.3106270389116625e-11,-1.2685872972892833e-12,-1.6795658470092673e-13,-3.6857972178005183e-16,-2.2087611569715805e-284,0.0,0.0,0.0,0.0,-2.731406648999138e-191,-2.085512560031712e-151,-5.513586248571001e-89,-1.1146847363324842e-49,-1.1611685684102759e-17,-1.1611685682508959e-17,-1.1044103167042178e-22,-4.465244945651177e-12,-1.2281100425912192e-11,-1.2347845764563867e-11,-1.2718111595273627e-11,-7.909490555533116e-11,-1.517561429814267e-10,-2.5329013503387955e-10,-3.185080983813687e-10,-4.1125660546567467e-10,-3.433504124932659e-10,-2.3928038797448925e-10,-1.8233230618106496e-10,-5.0974286222330224e-11,-1.936867940347288e-12,-1.6795160178487517e-13,-3.661225236348515e-16,-1.0023769406278936e-134,-3.4658338553900524e-14,0.0,0.0,0.0,-1.1001221235003923e-248,-5.389651483643271e-61,-4.121493876808962e-56,-7.584516039697027e-50,-2.467483207532878e-17,-4.0918509789867464e-17,-2.447476075113958e-17,-2.426776061822505e-13,-7.767324717928155e-12,-1.2431210027849507e-11,-9.915455555736887e-12,-9.272263157320171e-11,-2.052106321250585e-10,-3.553065159921642e-10,-4.471647841767501e-10,-4.862284643711431e-10,-3.785153037411018e-10,-2.6900956100426477e-10,-1.614558911335058e-10,-4.55928757439341e-11,-1.5581739320210732e-12,-6.216711919656914e-16,-3.661225236348515e-16,-7.915591905606735e-271,-2.5e-323,-2.5e-323,0.0,0.0,-3.617380461336584e-148,-2.612860513646672e-61,-7.48093924716565e-15,3.0333390699500366e-38,1.693742627836299e-39,-2.444222199626132e-17,-3.5730059563228743e-17,-1.0510157775349739e-18,-2.585204938765022e-12,-1.171302460331358e-11,-1.5228203112551935e-11,-1.253476506616999e-10,-2.6554785792840656e-10,-4.4381661164282683e-10,-5.291369469881056e-10,-4.894544155005361e-10,-3.8187207587213135e-10,-2.5610199790780664e-10,-1.691589592667098e-10,-5.848073091685389e-11,-6.848698795168377e-13,-4.93896827185609e-16,-1.4497469056682112e-16,-1.6710694022947284e-270,-1.923312944702677e-152,-2.5e-323,-2.5e-323,0.0,-8.541037200378007e-149,-3.393814683535818e-61,-1.3764928214784769e-14,3.926403364656132e-38,-7.675570197896247e-31,9.633035893792895e-29,-5.612591807090544e-20,-2.350166541301194e-13,-3.1588987105595897e-13,-1.0560069294054148e-11,-3.632703095318623e-11,-1.3493091501218536e-10,-3.3344746882297697e-10,-5.206126424477204e-10,-5.683645258923533e-10,-4.838435890011006e-10,-3.2956872528660887e-10,-2.2041634417672105e-10,-1.3131528779862832e-10,-1.952554016927121e-11,-4.4304043823953133e-16,-1.9657585161602962e-17,-5.768042192141183e-72,-8.109852142750521e-287,0.0,0.0,0.0,-1.4710519200813164e-270,-2.5e-323,-1.711489650944917e-189,3.341292275021104e-38,3.587654839077959e-38,2.4636255837446085e-39,1.3314147482977582e-28,3.19778107293751e-27,-1.5749798289045595e-13,-3.1959737052346793e-13,-8.309002980929263e-12,-2.8161667673962942e-11,-1.419111165899631e-10,-3.655537769546606e-10,-6.203861423257473e-10,-6.133764670432939e-10,-4.851783327759039e-10,-3.1469931325490643e-10,-1.8463896283882543e-10,-6.617929874149426e-11,-4.9539331189078606e-15,-2.7627458582832785e-17,-1.7373763816562355e-64,-9.969425213592055e-88,-2.365580349965504e-80,-2.607955569079225e-52,0.0,0.0,-2.415430930503885e-270,-2.5e-323,-2.5e-323,-1.9507319296378182e-35,-2.8203175486928966e-35,-7.07142488285913e-47,6.160036809958092e-23,4.4701080654200066e-21,-7.874898344013274e-14,2.3484786774441756e-13,6.8659614132490605e-12,-2.788088506129808e-11,-1.5608844735833466e-10,-4.787036524926042e-10,-7.162388122471369e-10,-6.258979066797155e-10,-4.3211884452971735e-10,-2.6500169807004493e-10,-1.3728680133823005e-10,-1.2456718403546008e-11,-2.942935804596087e-30,-1.0449418938816277e-63,-7.389206116560572e-64,4.72607930596275e-261,-5.6157966485860465e-64,-2.1064256519653006e-52,-5.6157966485860465e-64,0.0,-5.338728751613833e-100,-2.841581432310583e-100,-3.587315663685207e-92,-2.3849704233962315e-35,-3.2551873465217046e-35,-4.7539878528529056e-20,4.439272242669361e-21,7.83039185553227e-21,-4.2300778894241754e-19,1.0962985003900526e-11,2.2348410469151665e-11,-2.9867325777944783e-11,-1.8217219329966564e-10,-5.9610058899393e-10,-7.911327645465484e-10,-6.176934382002779e-10,-3.6534392172559713e-10,-1.9509713817674386e-10,-8.419633588543567e-11,-5.976068947921022e-14,-8.797608727056446e-46,-1.4482843988458748e-63,-2.2463186594344186e-63,-1.1674945664165724e-63,-8.423694972879058e-64,-2.0098640637044763e-63,-1.3300571009809032e-64,0.0,-2.5e-323,-8.897227510899953e-133,-2.2828372405269575e-92,3.202713332739124e-38,1.849696767778902e-22,-5.348876276519126e-20,7.83038298359735e-21,-4.341262684734367e-15,1.2330665397993485e-11,2.3110524163209317e-11,2.3216527411579847e-11,-3.729417366580328e-11,-3.679122829363314e-10,-7.505614527507074e-10,-8.377064780864407e-10,-5.696305250131106e-10,-3.18481462408612e-10,-1.3280060421635706e-10,-2.1051344098957802e-11,-6.281402314526122e-38,-2.2899864347678073e-64,-5.719406021764985e-92,-4.931908114690945e-30,-5.6906632092587914e-30,-3.857715647636052e-80,-6.550837892212183e-81,-3.454088646717381e-232,-2.522491891617304e-212,-2.5e-323,-4.790814813561507e-133,-8.14438518305452e-132,2.2326607367652583e-38,1.9730098856308276e-21,7.83038298359735e-21,5.456605464947746e-21,-5.910297695316159e-15,1.982049383487246e-11,2.1637731164860852e-11,2.270912293363774e-11,-7.091550915597687e-11,-5.643240629924627e-10,-8.26622405000237e-10,-8.155747854714852e-10,-4.988374053314545e-10,-2.068949469443624e-10,-6.691223726792828e-11,-4.035955810171811e-32,-1.1791221236694925e-60,-5.8927213557578686e-92,-5.719406021764985e-92,-4.552530567407038e-30,-2.392311482004788e-255,-3.0206641391867223e-80,-5.095096138387227e-81,0.0,0.0,0.0,-5.492872428172019e-179,-2.843160438257901e-82,-1.9851882477548393e-24,3.3294541820020177e-21,2.9903430668372676e-21,4.624241919447229e-22,1.4614216721983035e-12,2.0277225704178617e-11,2.5596653284519704e-11,1.9217221299820726e-11,-2.235978861503954e-10,-7.192698562509582e-10,-8.508576235532499e-10,-7.776022126761807e-10,-4.1797798483991967e-10,-1.2757950175402882e-10,-3.801872079036606e-11,-1.6817394576141867e-33,-1.1791221236664952e-60,-5.8927213557578686e-92,-5.8060636887614236e-92,-3.4116431005439076e-279,-1.2382650805170497e-279,1.0818547025207049e-141,7.117465148162545e-142,0.0,0.0,0.0,-5.508447565412029e-111,-2.843160438257901e-82,-6.511417452635902e-25,-6.257963793181748e-101,-2.888290981468531e-102,6.093204075070193e-13,1.1733119663746406e-11,2.6856405914741568e-11,2.707755556071387e-11,-4.903635123626585e-11,-4.5862380091738893e-10,-7.786611316603783e-10,-8.476492312266865e-10,-6.843944478020174e-10,-3.115040576977792e-10,-3.3951067222900074e-11,-2.3577496691877027e-12,-1.2027045661302915e-60,-1.1791221236664952e-60,-5.8927213557578686e-92,-9.50207772028563e-72,-3.3797901769021158e-279,-7.223989963251749e-280,4.555177694824016e-142,2.8469860592650153e-142,0.0,0.0,-1.588952152020117e-48,-1.8657644979621317e-110,-5.814325937594636e-119,-1.5308789136893933e-72,1.3540453500155968e-13,2.6234628656552197e-12,4.095987175776921e-12,1.4329442415787652e-11,2.7358245473559968e-11,1.0131892616178317e-11,-1.8796959892826277e-10,-6.030646049948077e-10,-7.780622810801086e-10,-8.306888211972428e-10,-5.49440223791918e-10,-2.0489039947676597e-10,-1.5003046009665044e-11,-6.145716912878435e-19,-1.2027045661302915e-60,-1.1791221236664952e-60,-5.8927213557578686e-92,-5.719406021764985e-92,6.269294899965839e-140,-1.1684001412111609e-24,7.613566066085157e-183,2.14694406519628e-221,-2.5e-323,0.0,-1.0427498497632014e-48,-1.0133663071992407e-217,-7.361875373027901e-287,-7.380177460668075e-66,1.861812356271447e-12,4.265242852549134e-12,4.129838317547573e-12,1.2782731464689865e-11,1.078549332685224e-11,-1.019213417030036e-10,-4.08510985966856e-10,-6.672587918092077e-10,-7.683828429097182e-10,-7.599617205481251e-10,-3.813931089602307e-10,-9.906627925992994e-11,-1.506816956387943e-11,-6.915780219001681e-19,-1.1411495039621148e-22,-1.0160920240758308e-23,1.4701541573016354e-56,9.047102506471564e-57,-9.355460666125406e-32,-7.7037371947988655e-25,3.145276473202396e-182,3.0439549417508854e-221,-5.873559710357475e-281,0.0,-2.7637262923615726e-218,-1.1515526218173218e-218,-3.7941973076374687e-286,-6.53994117864169e-280,1.184789681263648e-13,1.4217476175163778e-12,7.333459189579558e-13,8.754829540884306e-12,-5.0134908839981855e-11,-2.656718428590195e-10,-5.283872130822077e-10,-6.715218431231686e-10,-7.530860701999893e-10,-6.242615004832963e-10,-2.8845024786617134e-10,-7.159601809767139e-11,-4.167152643713045e-11,-6.916565480376554e-19,-1.991504557966137e-22,-7.72199710198777e-23,-3.9516629975299244e-25,-1.5124350034539452e-30,-2.722383006217097e-31,3.1054454521163067e-136,3.182720240740506e-182,3.19100590512049e-221,-2.0230322989824502e-169,0.0,-2.5e-323,-8.901604139884132e-141,-9.330224852111399e-117,-9.108076641346812e-117,-1.45285890995274e-18,-8.802443275031605e-14,-7.789410737280738e-13,-3.536595695196732e-11,-1.589526332603964e-10,-3.796988155232448e-10,-5.768969476204616e-10,-6.795930956523269e-10,-6.620572386940791e-10,-4.5990760005035273e-10,-2.180905426948899e-10,-8.694103017942082e-11,-2.360956921635268e-11,-4.145648407200236e-17,-4.5165953545846105e-20,-3.6252965738242586e-20,-5.3632931603308524e-20,8.468507686037944e-28,3.620955477311189e-28,-1.2995716877370056e-107,-5.685626133849414e-108,3.19100590512049e-221,-8.670138424210513e-170,0.0,-2.5e-323,-2.1082746647094124e-141,-9.330224852111399e-117,-3.698195708253582e-46,-1.9524119413323817e-16,-1.0369336434512484e-12,-3.2507474108912656e-11,-1.193222903389758e-10,-2.8700291171180683e-10,-4.6521377192873913e-10,-5.768097484250048e-10,-6.422079788829218e-10,-4.823419014179672e-10,-3.622698873685001e-10,-1.4069336870471186e-10,-8.609530177908431e-11,-4.457480349711445e-12,1.0831040849705253e-11,4.292925859948455e-12,-2.982245821597654e-19,-2.8063106410314127e-19,-8.730697401674798e-21,1.1496506550787192e-27,-4.079516306261063e-50,-1.2754328427607533e-58,2.7498530150116497e-221,-2.1360949819885631e-249,-1.86639322554964e-262,-5.832478829842596e-263,-1.5043657982019406e-39,-2.0297205130013838e-142,-4.786734069662107e-27,-3.093442527007714e-13,-1.847705943682376e-12,-4.729144701605235e-11,-1.7357026912916937e-10,-3.4751880421798413e-10,-5.264809930520439e-10,-5.286056134360206e-10,-5.191049860660631e-10,-3.734402320326718e-10,-3.082658031018867e-10,-1.4518027563598192e-10,-5.94254778726477e-11,7.65253800305257e-12,1.8439001063399153e-11,9.864595971673034e-12,-3.144182653004266e-19,-2.4200620370638603e-19,-3.49227940151292e-20,5.262492235478568e-28,-1.275567071430832e-49,-1.1904039865767056e-57,-1.7997568402680914e-160,-2.5e-323,-1.8080684372512065e-262,-5.832478829842596e-263,-1.4845715113834896e-39,-2.0297205487353987e-142,-7.336786599214413e-15,-5.206873036677884e-13,-2.4537878741684506e-12,-3.945553396841473e-11,-1.7750593969610478e-10,-3.548908074293658e-10,-5.081302910387763e-10,-4.838143020174554e-10,-4.1722389330186186e-10,-2.7729416247934216e-10,-2.791009832666056e-10,-1.6786064872254598e-10,-3.2879713855945046e-11,7.86891918851319e-12,1.5626483579732202e-11,2.8315044373869044e-12,-5.249730362674527e-20,-4.7477929584607116e-20,8.472639307349362e-28,4.165985544975261e-64,-1.3215334502910868e-50,-1.328575877875786e-57,4.270769608281474e-112,-2.5e-323,0.0,0.0,0.0,-1.6313786198918284e-97,-7.41389537074234e-14,-9.926105457098214e-14,-1.7896855013037245e-12,-9.644481358200044e-12,-7.820732443197684e-11,-2.872435426758871e-10,-4.152673434261636e-10,-3.462092037033957e-10,-2.5677048758622234e-10,-2.1584800504948323e-10,-1.921607264237427e-10,-9.44828122663904e-11,-4.868052787252752e-11,-7.318203509783397e-12,-3.459161183952284e-14,-1.1312507932311192e-22,-1.1312501468830302e-22,-2.0465335104369233e-14,-5.753462121550375e-14,-2.3572450512204825e-14,-4.395757411794658e-53,-9.146305253821425e-161,2.372649782378588e-111,0.0,0.0,0.0,0.0,-1.3594821832431898e-98,-3.8140285330015495e-19,-1.869621835975385e-18,-1.2154073120392207e-15,-1.7409589071198976e-12,-3.2823129338018137e-12,-1.1495627017099188e-12,-3.12401453976962e-11,-4.819691127197927e-11,-3.779250874685624e-11,-1.778699672744606e-11,-1.1342571511931602e-11,-1.6614327639903417e-11,-2.6298748513811164e-11,-8.033787010817417e-16,-6.181229495311118e-21,-5.793146901278242e-50,-8.551788040879095e-51,1.1259149561412546e-140,6.719887682898419e-141,-1.2348527736717231e-16,-2.3460078696e-313,-3.784928559944818e-80,-6.550837892212183e-81,0.0,0.0,0.0,0.0,0.0,0.0,-4.065973535630079e-266,-1.1553315046363503e-265,-1.249984532814629e-59,-2.787846535933311e-30,-5.609281584347758e-30,-7.383487658625043e-66,-1.6418495011511188e-58,-2.4068550819059267e-13,-4.5277477937032785e-14,-5.7294664846451e-21,-9.633616213120093e-22,-8.688631939956324e-45,-9.484087332620536e-135,-3.497505636001051e-293,0.0,0.0,0.0,0.0,0.0,0.0,0.0,0.0,0.0,0.0,0.0,0.0,0.0,0.0,0.0,0.0,0.0,0.0,0.0,-1.8540847487078515e-97,-1.0523183708882402e-97,0.0,0.0,3.9745929365266015e-174,1.1861675794946575e-173,3.9745929365266015e-174,0.0,0.0,0.0,0.0,0.0,0.0,0.0,0.0,0.0,0.0,0.0,0.0,0.0,0.0,0.0,0.0,0.0,0.0,0.0,0.0,0.0,0.0,0.0,0.0,0.0,0.0,0.0,0.0,0.0,0.0,0.0,0.0,0.0,0.0,0.0,0.0,0.0,0.0,0.0],"delta_bias":-8.576852756084514e-10},{"weights":[-0.0393471472917752,0.01904140091079844,-0.009956329578127424,-0.014310215211996897,-0.02260218777251476,-0.009937309632334268,-0.01449621622873883,-0.009387247381185165,-0.02138435410562201,-0.02454255661606333,-0.01730948391751174,0.007865413510238305,0.0063809744770145895,0.03306474884402991,0.02465009378010354,0.013586958381544393,-0.0036891829065735125,0.014736381816702735,0.0011376847973406353,0.015454644734604889,-0.021153871394126503,0.0220140631264229,0.004929501347941638,0.0015033936385490255,0.009992594460902428,-0.005901565697828447,-0.009690530686049015,-0.008386694974581856,0.012857542816057372,0.0067285161137371485,-0.022168064584494364,0.020583886381647903,-0.004301275028209234,0.006047941328020144,0.003610863184451955,0.008111184011223719,-0.009575466661282233,0.011958897335434369,-0.0065759358127655855,0.014749124948921047,-0.003972869981767217,-0.0038601537546481203,0.0015610663118500942,-0.0069515507107912235,0.005997528042605534,-0.002970864413774345,0.007145782910529444,-0.00731266508946021,0.0012376985758716559,-0.017340774681147652,-0.00347643891950873,0.01995856663999796,0.02737344877819905,0.015922466658361334,-0.002712288545510932,0.0013662640577222578,-0.007837666874538888,0.010853988664642045,0.022955149763651966,-0.010236574534743859,0.00033790832439624136,0.023710116114622728,-0.017291717047756207,-0.0005469014635984396,-0.002510205904515974,0.012794743426895095,-0.008036601351829521,-0.002169885572592019,0.03401910697826225,0.1422219178831053,0.084985400991209,0.08480341004856304,0.08926329357279929,0.1759053369074202,0.06881407919276314,0.040800353957125585,-0.002548737130258335,0.029058211637931257,-0.009181078908521791,0.005687675069872753,0.01849573246924926,0.008165098424498246,-0.022058156692496268,-0.018648331637787986,-0.007990732030773502,0.010892900606546544,0.021978478629837404,0.0006352449597859964,-0.005384378935451311,0.026835675591264718,-0.0025338157554624283,-0.029094841808403313,0.01677355887928637,0.015358944574754693,0.015023367678081156,0.03994466077692661,0.08382986486180014,0.15057318339125458,0.2925277543533434,0.2343099188668129,0.3015903139758396,0.2901063459677542,0.15675693936519888,0.017649240953874608,0.009125125374064133,0.021435271712208256,-0.01889769039092295,-0.010135204454767515,-0.0013236701976994023,0.010951172273429363,-0.022822016952866325,-0.003619131191331393,-0.003940811926577767,-0.005058906232279441,-0.025739117137173105,-0.028568555842693674,0.013035181570142466,-0.005421233126292387,0.023841860348666248,-0.01639174473224985,0.10630174248671702,0.13479268164222766,0.07876691239581021,0.1582646977524136,0.2149924955322176,0.29049820362086254,0.07410981097813907,0.11258616451873808,-0.20477207412366807,-0.20964065165763296,-0.320093036437859,-0.011262366156388088,0.18326502194559047,0.15564226803345116,0.09911978961815826,0.054896472982236794,0.0368753411131979,-0.019053694059702076,0.009213531474793717,0.026834611987064633,0.008377248144605358,0.00045518670629833964,-0.000584466408707389,0.021138896008350245,0.018553046938372716,0.004565222827828543,-0.013223469658611134,0.002754843634667841,0.1818184031233218,0.1429304232240916,-0.018572188578897544,0.12022483321221104,0.20984767415411934,-0.0018593384053100374,-0.32774321061525574,-0.41943994027481696,-0.45910495174150573,-0.5259776243980995,-0.5796007731147794,-0.26678240307517825,0.2765770782281867,0.5418415535562503,0.4670630918832755,0.33908116968137525,0.0952924944391572,-0.00908668524273065,0.022470594191287697,-0.013519045491523407,-0.008350155815950966,0.0008309515944308474,0.00583428292097487,0.002467358820526754,-0.042637064431818195,0.011739711266058247,0.005669975626432118,0.09825757737094581,0.05500695747973185,-0.03376537250202277,-0.06822840160488007,-0.1656035737799935,-0.1929798084868067,-0.4919033986280546,-0.42304197681830913,-0.533145242675396,-0.6815500344008533,-0.6354317339011326,-0.5224584812610327,-0.588909158069028,-0.07710720766805862,0.3866354238534976,0.21374764453352507,0.1760774744164669,0.13822410594486575,-0.011912317844504658,0.007131730623599229,-0.016253933429597512,-0.02877146184110479,-0.027737045093987465,0.01060955958213471,0.004079407438043605,0.02275718198424117,0.0501975263446901,0.0639241113663437,0.19944559854669644,-0.1696185627811288,-0.3477153547301838,-0.42948379558183647,-0.4906802226999887,-0.4531181310763595,-0.5518988847474324,-0.3020648916633362,-0.36386060328365644,-0.6013036491460105,-0.7463886928988196,-0.694746316817667,-0.7490222684357352,-0.49312076710909863,-0.148209749166935,0.015596760917104413,-0.012723520891388892,0.01843840080491462,-0.0382060926596176,0.01995717993536476,-0.00031145198640570096,-0.021540751393278285,-0.025694920572222956,-0.029880111928681827,0.009746797273116432,0.03454849819783739,0.03834439708106628,0.096912783269285,0.22301611172171498,-0.06918765318856207,-0.35867444579056895,-0.4897105743911507,-0.3781097309320804,-0.2315237608457821,-0.19362672442346915,-0.15011041279921739,-0.44314361106159483,-0.8274894251559639,-0.6361363692966254,-0.5989866894602365,-0.7634581480657321,-0.7972057657570986,-0.5293946037556084,-0.240366923194362,-0.07778471460781296,-0.017060245489970188,0.020158835685143824,0.006211355876902765,0.00407218785507081,-0.0061522366464497455,-0.014318729596070723,0.013243694532740139,-0.006815885610756415,0.05747491347402413,0.06351596399823095,0.03430512453879956,0.0850379181375743,-0.12422752218652373,-0.31202842004715436,-0.36628730729408654,-0.3416378347941618,-0.18248309738033808,0.0057647416149106635,-0.16650938527294606,-0.494628146949425,-0.6176985042819323,-0.45096679630356623,-0.09578949609120688,-0.6148860356532462,-1.0162233942924646,-0.9075428617523895,-0.5677601941026217,-0.21968749692765233,-0.05391752594713173,-0.015239988459351272,0.009347650736507658,0.017877161631283844,-0.01795482756196845,-0.009977373074082899,-0.020855231417354004,-0.003769540318874431,0.03799746926362781,-0.023132023615211515,-0.04885421063707802,-0.18472284964568528,-0.3448503620346791,-0.2994144130679034,-0.33835204718373707,-0.2819562331783447,-0.1291415351632265,-0.21067414865962483,-0.18166707645764854,-0.12041217571315994,-0.24471599284789164,-0.2887527450823989,-0.2953092977629911,-0.6224753308412438,-1.0517776971125075,-0.9833308995206025,-0.7529301289873649,-0.4247273433073296,-0.09591641915890525,-0.010969102222140916,-0.019344682686657885,0.01010112464498974,0.002694304221071126,0.011393639164169607,-0.003895724147075606,-0.006124290324376904,0.05344229924476173,-0.023274123682557834,-0.15784830722577622,-0.4682908644170976,-0.606146401695986,-0.5042441560679942,-0.4374938398330849,-0.38037972232198347,-0.17387532266423544,-0.07732510613239485,0.007987193375279106,0.17497067921787735,0.09797280644007023,-0.1341657429427486,-0.41888370709070455,-0.5435541295003314,-0.8415631418887063,-0.8858923737426639,-0.8547699789210923,-0.48802290612512733,-0.21463390806815547,-0.0001402564709462695,-0.005926488062270056,0.003872422489345005,-0.0016872518172722044,-0.025495033282742215,-0.03058488383871315,-0.01574944392978326,0.05684318706004915,-0.1278494932081436,-0.3287020389793894,-0.5614815866971964,-0.7442896663008942,-0.7209624180283525,-0.46296347736109456,-0.4748664215593838,-0.18294546594302674,-0.039643317545874905,0.109237980055506,0.2976092895557315,0.3422447967804406,0.05283740403921111,-0.41257623759839274,-0.5937794919215468,-0.6716170453743732,-0.7820258984337773,-0.878319403049451,-0.6004004630105352,-0.276278688495117,0.014113417264909788,0.01058579692183132,0.00522596519976674,0.007237990240722914,0.010794500050113995,0.00488995512226477,-0.00210205925657154,0.025531530484404673,-0.20724187886528977,-0.47944933502066733,-0.7624367149291674,-0.831737505615506,-0.7693298895088735,-0.6918079653823234,-0.4889510863201369,-0.3270956985846547,0.07150712699479395,0.45740484086410127,0.5372303353206758,0.44516352042632895,0.13341743024950628,-0.6426399474804451,-0.5854739473754588,-0.49556014150024025,-0.7889169492814683,-0.939746497848481,-0.6928323047139837,-0.28507112397524764,-0.0011612600335078691,